
\data\
ngram 1=40
ngram 2=995
ngram 3=4962

\1-grams:
-1.343773	</s>
-99	<s>	-2.439561
-1.43233	ADJECTIVE	-3.069484
-2.982059	ADJECTIVE-CONST	-1.726139
-1.672472	ADJECTIVE-DEF	-2.125313
-1.587321	ADVERB	-2.175649
-2.535534	CLN	-1.687115
-1.274662	CM	-2.742579
-1.593436	CONJUNCTION	-2.303241
-1.892298	COPULA	-1.987478
-2.305832	DASH	-1.848728
-1.352732	DOT	-3.600517
-2.46274	EXISTENTIAL	-1.8686
-3.672254	INTERJECTION	-0.9738796
-2.470858	INTERROGATIVE	-2.346187
-2.598536	LRB	-2.064435
-2.286649	MODAL	-2.443537
-2.071827	NEGATION	-2.274855
-1.030384	NOUN	-3.400444
-1.217715	NOUN-CONST	-3.025416
-1.072918	NOUN-DEF	-2.639002
-1.70541	NOUN-POSSESSIVE	-2.461357
-1.719705	NUMERAL	-2.379231
-2.472226	PARTICIPLE	-1.77407
-2.991014	PARTICIPLE-CONST	-2.345388
-2.872914	PARTICIPLE-DEF	-1.535282
-3.134436	PERC	-1.836737
-0.8217925	PREFIX	-3.044487
-1.141159	PREPOSITION	-2.675066
-1.653762	PRONOUN	-2.804349
-1.31015	PROPERNAME	-2.411648
-2.78016	PROPERNAME-DEF	-1.778726
-3.033765	QM	-1.924343
-2.036269	QUANTIFIER	-2.549145
-1.850087	QUOT	-2.002191
-2.584119	RRB	-2.2099
-2.859342	SCLN	-1.572484
-1.127753	VERB	-2.562243
-1.724576	VERB-INF	-2.660439
-2.777385	WPREFIX	-2.113985

\2-grams:
-1.984177	<s> ADJECTIVE	-0.265587
-3.136491	<s> ADJECTIVE-CONST	-0.1591333
-3.03533	<s> ADJECTIVE-DEF
-1.212508	<s> ADVERB	-0.252821
-3.63739	<s> CLN
-2.7343	<s> CM	-0.1465848
-1.118876	<s> CONJUNCTION	-0.07793009
-2.046325	<s> COPULA	-0.1638024
-2.43327	<s> DOT	2.390208
-1.889202	<s> EXISTENTIAL	-0.1610934
-2.93842	<s> INTERJECTION
-1.780057	<s> INTERROGATIVE	-0.08568513
-2.12321	<s> LRB	-0.1190137
-2.081087	<s> MODAL	-0.491455
-1.881515	<s> NEGATION	-0.2076175
-1.147431	<s> NOUN	-0.6256407
-1.141845	<s> NOUN-CONST	-0.2146666
-0.9332392	<s> NOUN-DEF	-0.7065583
-1.71311	<s> NOUN-POSSESSIVE	-0.6506127
-1.750899	<s> NUMERAL	-0.5708678
-2.558208	<s> PARTICIPLE	-0.03387529
-2.12321	<s> PARTICIPLE-CONST	-0.1131814
-2.93842	<s> PARTICIPLE-DEF	-0.1886086
-3.33636	<s> PERC	1.287952
-0.8171882	<s> PREFIX	-0.6957526
-1.209255	<s> PREPOSITION	-0.4211342
-1.081087	<s> PRONOUN	-0.5954266
-1.108473	<s> PROPERNAME	-0.70854
-2.63739	<s> PROPERNAME-DEF	-0.1057198
-3.33636	<s> QM	1.387337
-1.844998	<s> QUANTIFIER	-0.2038071
-1.533586	<s> QUOT	-0.4222478
-3.03533	<s> RRB	-0.03363022
-1.444265	<s> VERB	0.1389322
-2.12321	<s> VERB-INF	0.1051952
-2.859238	<s> WPREFIX	-0.05885154
-1.335218	ADJECTIVE ADJECTIVE	-0.2457933
-3.547405	ADJECTIVE ADJECTIVE-CONST
-2.033226	ADJECTIVE ADJECTIVE-DEF	-0.1972298
-1.16359	ADJECTIVE ADVERB	-0.8399866
-1.967622	ADJECTIVE CLN	0.09327978
-0.8389845	ADJECTIVE CM	-0.4512163
-1.727862	ADJECTIVE CONJUNCTION	-0.09074169
-2.132432	ADJECTIVE COPULA	-0.1421004
-2.246376	ADJECTIVE DASH	-0.5771267
-0.8679776	ADJECTIVE DOT	0.940321
-2.769254	ADJECTIVE EXISTENTIAL	-0.004102379
-3.046506	ADJECTIVE INTERROGATIVE
-2.100247	ADJECTIVE LRB	-0.1286432
-2.401278	ADJECTIVE MODAL	-0.0562607
-2.033226	ADJECTIVE NEGATION	-0.2666448
-2.015927	ADJECTIVE NOUN	-0.1430171
-2.246376	ADJECTIVE NOUN-CONST	0.04387775
-2.848435	ADJECTIVE NOUN-DEF	-0.1435257
-3.046506	ADJECTIVE NOUN-POSSESSIVE
-2.506013	ADJECTIVE NUMERAL	-0.07016677
-3.046506	ADJECTIVE PARTICIPLE
-3.547405	ADJECTIVE PERC
-0.5495824	ADJECTIVE PREFIX	-0.2048821
-0.9768625	ADJECTIVE PREPOSITION	0.09877455
-2.015927	ADJECTIVE PRONOUN	-0.2061635
-2.292133	ADJECTIVE PROPERNAME	-0.2560333
-2.506013	ADJECTIVE QM	0.8653015
-2.644315	ADJECTIVE QUANTIFIER	-0.2382917
-1.588364	ADJECTIVE QUOT	-0.4896305
-2.292133	ADJECTIVE RRB	-0.01034242
-2.268652	ADJECTIVE SCLN	0.1046959
-1.346008	ADJECTIVE VERB	-0.2468057
-1.755014	ADJECTIVE VERB-INF	-0.439245
-3.547405	ADJECTIVE WPREFIX
-1.995635	ADJECTIVE-CONST ADVERB
-1.995635	ADJECTIVE-CONST CM
-0.7651863	ADJECTIVE-CONST DASH	-0.894897
-1.995635	ADJECTIVE-CONST DOT
-0.3828513	ADJECTIVE-CONST NOUN	-0.1158149
-1.494736	ADJECTIVE-CONST NOUN-CONST
-0.5976952	ADJECTIVE-CONST NOUN-DEF	-0.09867072
-1.995635	ADJECTIVE-CONST NOUN-POSSESSIVE
-1.995635	ADJECTIVE-CONST PREPOSITION
-1.995635	ADJECTIVE-CONST PRONOUN
-1.694605	ADJECTIVE-CONST PROPERNAME	-0.4589374
-1.694605	ADJECTIVE-CONST QUANTIFIER	-0.364892
-1.694605	ADJECTIVE-CONST QUOT	-0.5135255
-1.803257	ADJECTIVE-DEF ADJECTIVE	-0.06958473
-3.317436	ADJECTIVE-DEF ADJECTIVE-CONST
-1.436623	ADJECTIVE-DEF ADJECTIVE-DEF	-0.4116977
-1.353649	ADJECTIVE-DEF ADVERB	-0.6949286
-2.141345	ADJECTIVE-DEF CLN	0.05911534
-0.8109314	ADJECTIVE-DEF CM	-0.1606958
-2.016407	ADJECTIVE-DEF CONJUNCTION	-0.1419402
-1.577074	ADJECTIVE-DEF COPULA	0.1909742
-1.975014	ADJECTIVE-DEF DASH	-0.80935
-0.9041367	ADJECTIVE-DEF DOT	1.205683
-2.816537	ADJECTIVE-DEF EXISTENTIAL	-0.1101132
-2.363194	ADJECTIVE-DEF LRB	-0.1248428
-2.715377	ADJECTIVE-DEF MODAL	-0.5180195
-2.141345	ADJECTIVE-DEF NEGATION	-0.2351298
-2.062164	ADJECTIVE-DEF NOUN	0.102462
-2.539285	ADJECTIVE-DEF NOUN-CONST	0.06027395
-1.803257	ADJECTIVE-DEF NOUN-DEF
-3.016407	ADJECTIVE-DEF NOUN-POSSESSIVE
-1.803257	ADJECTIVE-DEF NUMERAL	-0.02938959
-2.715377	ADJECTIVE-DEF PARTICIPLE	-0.1871293
-3.016407	ADJECTIVE-DEF PARTICIPLE-DEF
-0.6613383	ADJECTIVE-DEF PREFIX	-0.06587112
-0.8625916	ADJECTIVE-DEF PREPOSITION	-0.308337
-1.919497	ADJECTIVE-DEF PRONOUN	-0.02305371
-1.694187	ADJECTIVE-DEF PROPERNAME	-0.3453402
-2.715377	ADJECTIVE-DEF QM	1.019576
-2.618466	ADJECTIVE-DEF QUANTIFIER	0.0440598
-1.704653	ADJECTIVE-DEF QUOT	-0.08268306
-2.539285	ADJECTIVE-DEF RRB	-0.06741139
-3.016407	ADJECTIVE-DEF SCLN
-1.102593	ADJECTIVE-DEF VERB	-0.1161871
-1.902463	ADJECTIVE-DEF VERB-INF	0.04573852
-3.317436	ADJECTIVE-DEF WPREFIX
-1.530442	ADVERB ADJECTIVE	-0.2516795
-3.098644	ADVERB ADJECTIVE-CONST	-0.3249389
-2.898775	ADVERB ADJECTIVE-DEF	-0.1786863
-1.614344	ADVERB ADVERB	-0.03539848
-2.320493	ADVERB CLN	0.05010706
-1.021276	ADVERB CM	-0.04312074
-1.445431	ADVERB CONJUNCTION	-0.1145176
-1.81989	ADVERB COPULA	0.2472313
-2.621522	ADVERB DASH	-0.3786139
-1.077454	ADVERB DOT	1.296374
-2.320493	ADVERB EXISTENTIAL	0.264261
-2.320493	ADVERB INTERROGATIVE	-0.02210625
-1.885494	ADVERB LRB	-0.3305989
-2.169225	ADVERB MODAL	-0.3546594
-1.460154	ADVERB NEGATION	-0.3738366
-1.241311	ADVERB NOUN	-0.1550943
-1.766205	ADVERB NOUN-CONST	-0.29014
-1.78689	ADVERB NOUN-DEF	0.03118241
-1.885494	ADVERB NOUN-POSSESSIVE	-0.03858989
-1.831472	ADVERB NUMERAL	-0.2189706
-1.885494	ADVERB PARTICIPLE	-0.0770745
-0.67132	ADVERB PREFIX	-0.09133768
-1.041739	ADVERB PREPOSITION	-0.1408193
-1.718432	ADVERB PRONOUN	-0.2540411
-2.019463	ADVERB PROPERNAME	0.02058953
-3.399674	ADVERB PROPERNAME-DEF
-2.496584	ADVERB QM	0.9902402
-1.952516	ADVERB QUANTIFIER	-0.09813684
-1.952516	ADVERB QUOT	-0.4214381
-2.621522	ADVERB RRB	-0.04579729
-2.621522	ADVERB SCLN	-0.3589529
-0.8891287	ADVERB VERB	0.07499945
-1.766205	ADVERB VERB-INF	-0.07787979
-2.797614	ADVERB WPREFIX	0.06123504
-1.938434	CLN ADJECTIVE
-2.439333	CLN ADJECTIVE-DEF
-1.536243	CLN ADVERB	-0.07691783
-1.48509	CLN CONJUNCTION	-0.2183146
-2.138303	CLN COPULA
-2.439333	CLN DOT
-1.837273	CLN EXISTENTIAL
-1.39794	CLN INTERROGATIVE	-0.007203311
-1.837273	CLN LRB	-0.3001428
-1.938434	CLN MODAL	0.12135
-2.439333	CLN NEGATION
-1.138303	CLN NOUN	0.1457314
-1.117113	CLN NOUN-CONST	0.09796041
-1.160579	CLN NOUN-DEF	-0.123294
-1.740363	CLN NOUN-POSSESSIVE	-0.1242136
-1.661181	CLN NUMERAL	-0.08645838
-2.439333	CLN PARTICIPLE-CONST
-2.439333	CLN PERC
-1.325389	CLN PREFIX	-0.05464077
-1.740363	CLN PREPOSITION	-0.146032
-1.235213	CLN PRONOUN	-0.2434804
-1.024359	CLN PROPERNAME	-0.4015996
-2.439333	CLN PROPERNAME-DEF
-1.661181	CLN QUANTIFIER	-0.0737973
-0.5760098	CLN QUOT	-0.5465666
-1.536243	CLN VERB	-0.03320646
-1.740363	CLN VERB-INF	0.02874278
-2.439333	CLN WPREFIX
-1.890206	CM ADJECTIVE	-0.4202283
-3.004149	CM ADJECTIVE-CONST	-0.2978226
-2.3809	CM ADJECTIVE-DEF	-0.424388
-1.556991	CM ADVERB	-0.2262491
-3.703119	CM CLN
-2.360697	CM CM	-0.3046333
-0.90309	CM CONJUNCTION	-0.3550236
-1.789305	CM COPULA	-0.08608949
-3.004149	CM DOT	2.9588
-2.146817	CM EXISTENTIAL	-0.2448568
-3.20222	CM INTERJECTION
-2.211758	CM INTERROGATIVE	-0.09749106
-3.101059	CM LRB
-2.101059	CM MODAL	-0.1818495
-1.816629	CM NEGATION	-0.1213602
-1.305179	CM NOUN	-0.5903793
-1.445441	CM NOUN-CONST	-0.4164131
-1.606209	CM NOUN-DEF	-0.4898714
-2.146817	CM NOUN-POSSESSIVE	-0.42039
-2.021878	CM NUMERAL	-0.2859724
-2.305179	CM PARTICIPLE	-0.1051551
-2.18894	CM PARTICIPLE-CONST	-0.3890087
-2.18894	CM PARTICIPLE-DEF	-0.1400969
-0.5232804	CM PREFIX	-0.008001566
-1.211758	CM PREPOSITION	-0.527687
-1.725396	CM PRONOUN	-0.3231688
-1.255961	CM PROPERNAME	-0.4876407
-3.101059	CM PROPERNAME-DEF
-2.225998	CM QUANTIFIER	0.03643486
-1.890206	CM QUOT	-0.4745401
-3.402089	CM RRB
-0.8022063	CM VERB	-0.539385
-1.962757	CM VERB-INF	-0.5286937
-3.101059	CM WPREFIX	0.2045586
-1.689834	CONJUNCTION ADJECTIVE	-0.2184864
-2.425788	CONJUNCTION ADJECTIVE-DEF	-0.05278215
-1.350646	CONJUNCTION ADVERB	-0.0828045
-2.601879	CONJUNCTION CLN	-0.1731906
-1.788966	CONJUNCTION CM	0.02342141
-1.286609	CONJUNCTION CONJUNCTION	0.3059084
-1.788966	CONJUNCTION COPULA	-0.2817701
-3.38003	CONJUNCTION DOT
-1.717272	CONJUNCTION EXISTENTIAL	-0.1694131
-2.425788	CONJUNCTION INTERROGATIVE	-0.2128714
-3.38003	CONJUNCTION LRB
-2.079	CONJUNCTION MODAL	-0.2950366
-1.455751	CONJUNCTION NEGATION	0.09961689
-1.201053	CONJUNCTION NOUN	-0.2392246
-1.286609	CONJUNCTION NOUN-CONST	-0.1483245
-1.098997	CONJUNCTION NOUN-DEF	-0.2107275
-1.756781	CONJUNCTION NOUN-POSSESSIVE	-0.4259647
-2.079	CONJUNCTION NUMERAL	-0.1592769
-2.68106	CONJUNCTION PARTICIPLE	-0.08292751
-2.77797	CONJUNCTION PARTICIPLE-CONST	-0.1497908
-3.38003	CONJUNCTION PARTICIPLE-DEF
-2.879131	CONJUNCTION PERC	1.290415
-0.6741666	CONJUNCTION PREFIX	-0.4765589
-1.230811	CONJUNCTION PREPOSITION	-0.1767079
-1.262759	CONJUNCTION PRONOUN	0.02796865
-1.58069	CONJUNCTION PROPERNAME	-0.09582597
-2.879131	CONJUNCTION PROPERNAME-DEF	-0.1427156
-3.38003	CONJUNCTION QM
-2.037608	CONJUNCTION QUANTIFIER	-0.04586875
-1.902909	CONJUNCTION QUOT	-0.2354855
-0.9267119	CONJUNCTION VERB	-0.360912
-1.249696	CONJUNCTION VERB-INF	-0.1694006
-2.68106	CONJUNCTION WPREFIX	0.03842455
-0.862724	COPULA ADJECTIVE	-0.5925918
-2.789581	COPULA ADJECTIVE-CONST
-2.136368	COPULA ADJECTIVE-DEF	-0.3558405
-1.284431	COPULA ADVERB	-0.2589294
-2.789581	COPULA CLN
-1.835338	COPULA CM	-0.06935164
-1.789581	COPULA CONJUNCTION	-0.2632302
-2.589712	COPULA COPULA	-0.2127938
-2.488551	COPULA DOT	2.69575
-3.090611	COPULA INTERROGATIVE
-1.312459	COPULA MODAL	-0.6209911
-2.589712	COPULA NEGATION
-0.8118571	COPULA NOUN	0.02438629
-1.239352	COPULA NOUN-CONST	0.08810544
-1.305281	COPULA NOUN-DEF	0.03332138
-1.976667	COPULA NOUN-POSSESSIVE	-0.1066729
-1.811857	COPULA NUMERAL	-0.04117152
-1.748188	COPULA PARTICIPLE	-0.1643833
-2.589712	COPULA PARTICIPLE-DEF
-1.029913	COPULA PREFIX	-0.2365965
-1.366335	COPULA PREPOSITION	-0.005602062
-1.768391	COPULA PRONOUN	-0.2409948
-1.599249	COPULA PROPERNAME	-0.09908578
-1.944483	COPULA QUANTIFIER	-0.06079841
-2.049218	COPULA QUOT	-0.1487144
-0.8164529	COPULA VERB	-0.6063436
-1.599249	COPULA VERB-INF	0.2003461
-1.576431	COPULA WPREFIX	0.3787272
-0.6114811	DASH ADJECTIVE	-0.2626781
-2.167487	DASH ADJECTIVE-DEF
-2.066326	DASH ADVERB
-2.668386	DASH CM
-2.668386	DASH DOT
-2.066326	DASH INTERROGATIVE
-1.668386	DASH MODAL	0.008717716
-2.668386	DASH NEGATION
-0.5892047	DASH NOUN	-0.2930813
-1.890235	DASH NOUN-CONST	0.06027395
-0.9523826	DASH NOUN-DEF	0.03046679
-1.890235	DASH NOUN-POSSESSIVE	-0.2106569
-0.7762913	DASH NUMERAL	-0.4478244
-1.890235	DASH PARTICIPLE	-0.05444596
-2.668386	DASH PARTICIPLE-DEF
-1.714143	DASH PREFIX	-0.3850101
-2.066326	DASH PREPOSITION
-1.890235	DASH PRONOUN
-1.288175	DASH PROPERNAME	0.3271995
-2.668386	DASH PROPERNAME-DEF
-2.367356	DASH QUANTIFIER
-2.668386	DASH QUOT
-1.626993	DASH VERB	-0.05719845
-0.0001040351	DOT </s>
-1.169461	EXISTENTIAL ADVERB	-0.6479688
-2.010984	EXISTENTIAL CM
-1.557641	EXISTENTIAL CONJUNCTION	-0.4491928
-2.511883	EXISTENTIAL DOT
-2.210853	EXISTENTIAL INTERROGATIVE
-2.210853	EXISTENTIAL NEGATION
-0.4784596	EXISTENTIAL NOUN	-0.2651224
-1.557641	EXISTENTIAL NOUN-CONST	-0.3033885
-2.210853	EXISTENTIAL NOUN-DEF	-0.5530851
-2.511883	EXISTENTIAL NOUN-POSSESSIVE
-1.909823	EXISTENTIAL NUMERAL	-0.7937243
-2.511883	EXISTENTIAL PARTICIPLE
-0.8397855	EXISTENTIAL PREFIX	-0.3700741
-0.5723641	EXISTENTIAL PREPOSITION	-0.4143785
-2.511883	EXISTENTIAL PROPERNAME
-1.307763	EXISTENTIAL QUANTIFIER	-0.7108359
-2.511883	EXISTENTIAL QUOT
-1.608793	EXISTENTIAL VERB	0.1101171
-1.021189	INTERJECTION ADVERB
-1.021189	INTERJECTION CM
-1.322219	INTERJECTION DOT
-1.021189	INTERJECTION INTERJECTION
-0.8213202	INTERJECTION NOUN	-0.1685257
-1.322219	INTERJECTION NOUN-DEF
-1.322219	INTERJECTION PREFIX
-0.8213202	INTERJECTION PREPOSITION	-0.2616749
-1.322219	INTERJECTION PRONOUN
-1.322219	INTERJECTION PROPERNAME
-1.322219	INTERJECTION QUOT
-1.322219	INTERJECTION VERB
-1.322219	INTERJECTION VERB-INF
-1.758407	INTERROGATIVE ADJECTIVE	-0.05028026
-1.360467	INTERROGATIVE ADVERB	-0.06113631
-2.536558	INTERROGATIVE CLN
-1.758407	INTERROGATIVE CM
-1.934498	INTERROGATIVE CONJUNCTION	-0.8215676
-1.022379	INTERROGATIVE COPULA	-0.4039977
-2.536558	INTERROGATIVE DASH
-2.536558	INTERROGATIVE DOT
-2.536558	INTERROGATIVE EXISTENTIAL
-1.582316	INTERROGATIVE MODAL	0.1592951
-1.934498	INTERROGATIVE NEGATION	0.0394007
-1.332438	INTERROGATIVE NOUN	0.0469816
-1.39043	INTERROGATIVE NOUN-CONST	-0.431216
-1.281286	INTERROGATIVE NOUN-DEF	0.0008168817
-2.235528	INTERROGATIVE NUMERAL
-2.536558	INTERROGATIVE PARTICIPLE
-2.536558	INTERROGATIVE PARTICIPLE-DEF
-0.5365584	INTERROGATIVE PREFIX	-0.2874896
-1.360467	INTERROGATIVE PREPOSITION	-0.1198714
-1.235528	INTERROGATIVE PRONOUN	-0.3690934
-1.934498	INTERROGATIVE PROPERNAME
-1.934498	INTERROGATIVE QM	1.019576
-2.035659	INTERROGATIVE QUANTIFIER
-2.235528	INTERROGATIVE QUOT
-0.8833459	INTERROGATIVE VERB	-0.0101673
-1.281286	INTERROGATIVE VERB-INF	0.04655316
-1.465713	LRB ADJECTIVE	-0.3334849
-2.419956	LRB ADJECTIVE-DEF
-1.465713	LRB ADVERB	-0.04065257
-1.641804	LRB CM	-0.2794724
-0.9057764	LRB CONJUNCTION	-0.05735229
-2.118926	LRB EXISTENTIAL
-2.419956	LRB INTERROGATIVE
-2.118926	LRB NEGATION
-1.077533	LRB NOUN	-0.05823243
-1.340775	LRB NOUN-CONST	0.04009205
-1.465713	LRB NOUN-DEF	-0.2291885
-2.118926	LRB NOUN-POSSESSIVE	-0.4351644
-0.9575577	LRB NUMERAL	-0.848428
-2.419956	LRB PARTICIPLE
-2.419956	LRB PARTICIPLE-CONST
-2.419956	LRB PARTICIPLE-DEF
-0.8884768	LRB PREFIX	-0.02763203
-1.141202	LRB PREPOSITION	0.02229169
-2.118926	LRB PRONOUN
-0.9575577	LRB PROPERNAME	-1.100763
-2.118926	LRB QUANTIFIER
-1.378563	LRB QUOT	-0.3177727
-1.039744	LRB RRB	-0.2607615
-2.118926	LRB VERB
-1.605151	MODAL ADVERB	-0.6615022
-2.25038	MODAL CM	-0.1308069
-1.2371	MODAL CONJUNCTION	-0.1354178
-0.9878511	MODAL COPULA	-0.4717947
-2.751279	MODAL NEGATION
-2.052309	MODAL NOUN	-0.1437766
-2.25038	MODAL NOUN-CONST	-0.3168919
-2.450249	MODAL NOUN-DEF	-0.5499866
-2.751279	MODAL PARTICIPLE-DEF
-1.274158	MODAL PREFIX	-0.2013566
-1.2371	MODAL PREPOSITION	-0.09637571
-1.2371	MODAL PROPERNAME	-0.1554488
-2.751279	MODAL PROPERNAME-DEF
-2.751279	MODAL QM
-2.751279	MODAL QUANTIFIER
-2.450249	MODAL QUOT
-0.215985	MODAL VERB-INF	-0.051898
-1.324335	NEGATION ADJECTIVE	-0.2247884
-2.9154	NEGATION ADJECTIVE-DEF
-1.10922	NEGATION ADVERB	-0.2686537
-2.9154	NEGATION CM
-2.21643	NEGATION CONJUNCTION	-0.2008883
-1.023305	NEGATION COPULA	-0.2261277
-1.593181	NEGATION DASH	-0.7856073
-1.961157	NEGATION DOT	2.620656
-2.137249	NEGATION EXISTENTIAL	-0.2827445
-2.9154	NEGATION INTERJECTION
-1.535189	NEGATION MODAL	-0.2392889
-1.453002	NEGATION NOUN	-0.004706711
-1.874007	NEGATION NOUN-CONST	-0.1290818
-1.836219	NEGATION NOUN-DEF	-0.2175842
-2.31334	NEGATION NOUN-POSSESSIVE	-0.1138868
-2.01231	NEGATION NUMERAL	-0.1960764
-1.401221	NEGATION PARTICIPLE	-0.122943
-1.359097	NEGATION PREFIX	-0.3808551
-1.684951	NEGATION PREPOSITION	-0.08211276
-1.468242	NEGATION PRONOUN	-0.2598152
-2.31334	NEGATION PROPERNAME	-0.2803724
-1.961157	NEGATION QUANTIFIER	0.01469558
-2.21643	NEGATION QUOT	-0.1110291
-0.3801057	NEGATION VERB	-0.5312617
-1.371332	NEGATION VERB-INF	-0.2409503
-0.60913	NOUN ADJECTIVE	-0.6510599
-2.512823	NOUN ADJECTIVE-CONST	-0.3904219
-2.546247	NOUN ADJECTIVE-DEF	-0.2297276
-1.891108	NOUN ADVERB	-0.2134704
-2.195998	NOUN CLN	-0.02695423
-1.048212	NOUN CM	-0.1352057
-1.798058	NOUN CONJUNCTION	-0.2344021
-2.151795	NOUN COPULA	-0.1196681
-2.439036	NOUN DASH	-0.1667882
-1.095382	NOUN DOT	0.7712371
-2.798059	NOUN EXISTENTIAL	0.1874728
-3.041096	NOUN INTERROGATIVE	-0.1069058
-2.452825	NOUN LRB	-0.02966669
-2.989944	NOUN MODAL	-0.07023445
-2.262945	NOUN NEGATION	-0.4278896
-1.966463	NOUN NOUN	-0.2903601
-2.245216	NOUN NOUN-CONST	-0.03535968
-2.512823	NOUN NOUN-DEF	-0.1161618
-2.902794	NOUN NOUN-POSSESSIVE	0.0268667
-1.7163	NOUN NUMERAL	-0.3235182
-2.014768	NOUN PARTICIPLE	-0.3216693
-3.041096	NOUN PARTICIPLE-CONST	-0.2543684
-3.443287	NOUN PARTICIPLE-DEF	-0.1690312
-3.342126	NOUN PERC	0.9201917
-0.62675	NOUN PREFIX	0.6749382
-1.055446	NOUN PREPOSITION	-0.06012058
-1.477319	NOUN PRONOUN	-0.01810062
-1.645333	NOUN PROPERNAME	0.0619632
-3.342126	NOUN PROPERNAME-DEF	-0.1128016
-2.430007	NOUN QM	1.098468
-2.865005	NOUN QUANTIFIER	-0.3585092
-1.740067	NOUN QUOT	-0.4578301
-2.331403	NOUN RRB	-0.08216029
-2.546247	NOUN SCLN	-0.1439537
-1.374813	NOUN VERB	-0.1437114
-1.994796	NOUN VERB-INF	-0.05623543
-2.310718	NOUN WPREFIX	-0.3437645
-2.801404	NOUN-CONST ADJECTIVE	-0.1923195
-3.454616	NOUN-CONST ADJECTIVE-CONST
-2.476893	NOUN-CONST ADJECTIVE-DEF	-0.1370535
-3.153586	NOUN-CONST ADVERB	-0.1347343
-2.433427	NOUN-CONST CM	-0.3722271
-3.254747	NOUN-CONST CONJUNCTION
-3.454616	NOUN-CONST COPULA
-1.662225	NOUN-CONST DASH	-0.7748458
-2.801404	NOUN-CONST DOT	2.620656
-3.755646	NOUN-CONST EXISTENTIAL
-3.254747	NOUN-CONST INTERROGATIVE	-0.1363682
-3.454616	NOUN-CONST LRB
-3.755646	NOUN-CONST MODAL
-0.6354014	NOUN-CONST NOUN	-0.0660367
-0.9413986	NOUN-CONST NOUN-CONST	-0.05110228
-0.3750732	NOUN-CONST NOUN-DEF	0.02931952
-1.483805	NOUN-CONST NOUN-POSSESSIVE	-0.1248724
-1.726262	NOUN-CONST NUMERAL	-0.1834922
-3.254747	NOUN-CONST PARTICIPLE
-2.801404	NOUN-CONST PARTICIPLE-CONST	-0.3401514
-2.525197	NOUN-CONST PARTICIPLE-DEF	-0.152544
-3.755646	NOUN-CONST PERC
-1.738613	NOUN-CONST PREFIX	-0.2864226
-2.755646	NOUN-CONST PREPOSITION	-0.1743403
-2.641703	NOUN-CONST PRONOUN	-0.07250717
-1.053216	NOUN-CONST PROPERNAME	-0.2746383
-1.977495	NOUN-CONST PROPERNAME-DEF	-0.1624836
-2.293248	NOUN-CONST QUANTIFIER	0.05076045
-1.977495	NOUN-CONST QUOT	-0.7144944
-3.755646	NOUN-CONST SCLN
-2.609518	NOUN-CONST VERB	-0.1084024
-3.755646	NOUN-CONST VERB-INF
-3.254747	NOUN-CONST WPREFIX
-2.03119	NOUN-DEF ADJECTIVE	-0.1365901
-2.82124	NOUN-DEF ADJECTIVE-CONST	-1.162267
-0.7459978	NOUN-DEF ADJECTIVE-DEF	0.5389483
-1.986608	NOUN-DEF ADVERB	-0.2850816
-2.237664	NOUN-DEF CLN	-0.1227901
-0.9808207	NOUN-DEF CM	0.08640504
-1.91365	NOUN-DEF CONJUNCTION	0.08826393
-1.61262	NOUN-DEF COPULA	-0.02643692
-2.946179	NOUN-DEF DASH	-0.2881875
-1.02536	NOUN-DEF DOT	0.7450166
-2.621668	NOUN-DEF EXISTENTIAL	-0.07529278
-2.946179	NOUN-DEF INTERROGATIVE	-0.1347271
-2.298362	NOUN-DEF LRB	0.06124896
-2.309357	NOUN-DEF MODAL	-0.3531863
-2.055324	NOUN-DEF NEGATION	-0.4568946
-1.981344	NOUN-DEF NOUN	-0.2494971
-2.40906	NOUN-DEF NOUN-CONST	0.3031664
-2.395272	NOUN-DEF NOUN-DEF	0.02172053
-3.599392	NOUN-DEF NOUN-POSSESSIVE
-1.832236	NOUN-DEF NUMERAL	-0.3534843
-2.786479	NOUN-DEF PARTICIPLE	-0.2446869
-3.298362	NOUN-DEF PARTICIPLE-CONST	-0.2189743
-2.502482	NOUN-DEF PARTICIPLE-DEF	0.0963577
-3.900422	NOUN-DEF PERC
-0.6766663	NOUN-DEF PREFIX	-0.4064891
-1.063465	NOUN-DEF PREPOSITION	-0.2398317
-1.757407	NOUN-DEF PRONOUN	0.1142034
-1.637971	NOUN-DEF PROPERNAME	-0.2143264
-3.399523	NOUN-DEF PROPERNAME-DEF	-0.2035805
-2.621668	NOUN-DEF QM	0.6434526
-2.669973	NOUN-DEF QUANTIFIER	-0.115593
-1.704522	NOUN-DEF QUOT	-0.1979092
-2.669973	NOUN-DEF RRB	0.04659247
-2.485448	NOUN-DEF SCLN	0.1027697
-0.964411	NOUN-DEF VERB	-0.01504993
-1.786478	NOUN-DEF VERB-INF	-0.3113047
-2.453264	NOUN-DEF WPREFIX	-0.4526211
-1.96708	NOUN-POSSESSIVE ADJECTIVE	-0.1418269
-2.767211	NOUN-POSSESSIVE ADJECTIVE-CONST	-0.1591333
-0.9870763	NOUN-POSSESSIVE ADJECTIVE-DEF	-0.2994218
-2.012837	NOUN-POSSESSIVE ADVERB	-0.09281135
-2.489959	NOUN-POSSESSIVE CLN	-0.2505064
-1.01769	NOUN-POSSESSIVE CM	0.1259573
-1.853136	NOUN-POSSESSIVE CONJUNCTION	0.02336034
-1.724042	NOUN-POSSESSIVE COPULA	0.04521546
-2.96708	NOUN-POSSESSIVE DASH
-0.9670798	NOUN-POSSESSIVE DOT	1.31746
-2.767211	NOUN-POSSESSIVE EXISTENTIAL
-2.56914	NOUN-POSSESSIVE LRB	-0.2276401
-2.489959	NOUN-POSSESSIVE MODAL	-0.2262306
-1.94589	NOUN-POSSESSIVE NEGATION	-0.1156152
-1.577914	NOUN-POSSESSIVE NOUN	-0.1299537
-2.092018	NOUN-POSSESSIVE NOUN-CONST	0.2335957
-2.226717	NOUN-POSSESSIVE NOUN-DEF	-0.04137526
-2.66605	NOUN-POSSESSIVE NOUN-POSSESSIVE	-0.1451837
-2.154166	NOUN-POSSESSIVE NUMERAL	0.02101469
-2.56914	NOUN-POSSESSIVE PARTICIPLE
-2.767211	NOUN-POSSESSIVE PARTICIPLE-DEF	-0.497096
-0.7697992	NOUN-POSSESSIVE PREFIX	-0.1259941
-0.6110539	NOUN-POSSESSIVE PREPOSITION	-0.5471961
-2.012837	NOUN-POSSESSIVE PRONOUN	-0.0852243
-1.94589	NOUN-POSSESSIVE PROPERNAME	0.2737294
-3.26811	NOUN-POSSESSIVE PROPERNAME-DEF
-2.56914	NOUN-POSSESSIVE QM	1.282626
-2.767211	NOUN-POSSESSIVE QUANTIFIER	-0.3624286
-1.776748	NOUN-POSSESSIVE QUOT	-0.2917279
-2.313867	NOUN-POSSESSIVE RRB	0.06913155
-2.66605	NOUN-POSSESSIVE SCLN
-1.154166	NOUN-POSSESSIVE VERB	0.1989864
-1.605352	NOUN-POSSESSIVE VERB-INF	0.05176419
-2.96708	NOUN-POSSESSIVE WPREFIX	-0.1578295
-2.119868	NUMERAL ADJECTIVE	-0.0481784
-2.964966	NUMERAL ADJECTIVE-CONST	-0.3249389
-2.265996	NUMERAL ADJECTIVE-DEF	-0.1800529
-2.061876	NUMERAL ADVERB	-0.1824371
-2.224604	NUMERAL CLN	-0.198321
-1.158786	NUMERAL CM	-0.2780142
-2.487845	NUMERAL CONJUNCTION
-2.186815	NUMERAL COPULA	-0.08439103
-1.751817	NUMERAL DASH	-0.2756957
-1.104628	NUMERAL DOT	1.456304
-2.964966	NUMERAL INTERROGATIVE
-2.663936	NUMERAL LRB	-0.1847353
-2.765097	NUMERAL MODAL	0.12135
-1.751817	NUMERAL NEGATION	-0.6109394
-0.5838513	NUMERAL NOUN	-0.2748863
-1.466656	NUMERAL NOUN-CONST	0.0009814501
-1.176091	NUMERAL NOUN-DEF	-0.1849911
-2.152053	NUMERAL NOUN-POSSESSIVE	-0.1052849
-1.132457	NUMERAL NUMERAL	-0.5433999
-3.265996	NUMERAL PARTICIPLE
-2.964966	NUMERAL PARTICIPLE-CONST
-2.362906	NUMERAL PARTICIPLE-DEF	-0.03945027
-0.8081145	NUMERAL PREFIX	-0.6489114
-1.172575	NUMERAL PREPOSITION	-0.1524745
-2.224604	NUMERAL PRONOUN	-0.2752162
-1.964966	NUMERAL PROPERNAME	-0.3900139
-2.311754	NUMERAL QUOT	-0.3172857
-1.788875	NUMERAL RRB	-0.3122615
-2.152053	NUMERAL SCLN	-0.4515169
-1.253159	NUMERAL VERB	0.1520908
-2.964966	NUMERAL VERB-INF
-1.536558	PARTICIPLE ADJECTIVE	-0.3424598
-2.536558	PARTICIPLE ADJECTIVE-CONST
-2.035659	PARTICIPLE ADJECTIVE-DEF
-1.457377	PARTICIPLE ADVERB	-0.1131863
-2.035659	PARTICIPLE CLN
-1.0894	PARTICIPLE CM	-0.1952495
-1.022379	PARTICIPLE CONJUNCTION	-0.2007416
-2.035659	PARTICIPLE COPULA	-0.2791448
-0.8931057	PARTICIPLE DOT	1.967444
-2.235528	PARTICIPLE EXISTENTIAL
-2.536558	PARTICIPLE INTERROGATIVE
-2.536558	PARTICIPLE NEGATION
-1.536558	PARTICIPLE NOUN	0.03959815
-1.934498	PARTICIPLE NOUN-CONST	-0.08038745
-1.633469	PARTICIPLE NOUN-DEF	-0.08899964
-2.536558	PARTICIPLE NUMERAL
-2.536558	PARTICIPLE PARTICIPLE
-0.5322371	PARTICIPLE PREFIX	-0.1113154
-0.8553172	PARTICIPLE PREPOSITION	-0.1714873
-1.934498	PARTICIPLE PRONOUN
-2.035659	PARTICIPLE PROPERNAME
-2.235528	PARTICIPLE PROPERNAME-DEF	-0.4143249
-2.536558	PARTICIPLE QUANTIFIER
-1.758407	PARTICIPLE QUOT	-0.3011694
-2.536558	PARTICIPLE RRB
-2.536558	PARTICIPLE SCLN
-2.035659	PARTICIPLE VERB
-1.633469	PARTICIPLE VERB-INF	-0.06090394
-2.08636	PARTICIPLE-CONST ADJECTIVE
-2.08636	PARTICIPLE-CONST CLN
-2.08636	PARTICIPLE-CONST CM
-1.308209	PARTICIPLE-CONST DASH	-0.2551779
-0.5678459	PARTICIPLE-CONST NOUN	-0.1179313
-1.007179	PARTICIPLE-CONST NOUN-CONST	-0.06724042
-0.5678459	PARTICIPLE-CONST NOUN-DEF	0.01589733
-1.78533	PARTICIPLE-CONST NOUN-POSSESSIVE
-0.5721805	PARTICIPLE-CONST PROPERNAME	-0.0465592
-2.184691	PARTICIPLE-DEF ADJECTIVE
-1.184691	PARTICIPLE-DEF ADJECTIVE-DEF	-0.00378035
-1.485721	PARTICIPLE-DEF ADVERB	-0.1068362
-1.883661	PARTICIPLE-DEF CLN
-1.10551	PARTICIPLE-DEF CM	-0.04864097
-1.582631	PARTICIPLE-DEF CONJUNCTION
-1.683792	PARTICIPLE-DEF COPULA	-0.2597583
-2.184691	PARTICIPLE-DEF DASH
-1.143299	PARTICIPLE-DEF DOT	2.541475
-2.184691	PARTICIPLE-DEF INTERROGATIVE
-2.184691	PARTICIPLE-DEF MODAL
-2.184691	PARTICIPLE-DEF NEGATION
-1.883661	PARTICIPLE-DEF NOUN	-0.4345387
-2.184691	PARTICIPLE-DEF NOUN-CONST
-0.6283889	PARTICIPLE-DEF PREFIX	-0.3524922
-0.9059379	PARTICIPLE-DEF PREPOSITION	-0.2543109
-2.184691	PARTICIPLE-DEF PROPERNAME
-1.683792	PARTICIPLE-DEF QUOT
-0.6705121	PARTICIPLE-DEF VERB	-0.06969263
-1.485721	PARTICIPLE-DEF VERB-INF	0.02874278
-0.006248949	PERC NUMERAL	-0.6050296
-1.848327	PREFIX ADJECTIVE	-0.1182373
-2.771312	PREFIX ADJECTIVE-CONST	-0.03792018
-2.294191	PREFIX ADJECTIVE-DEF	-0.3174999
-1.815063	PREFIX ADVERB	-0.2598207
-3.850493	PREFIX CM
-1.765917	PREFIX CONJUNCTION	0.1198411
-1.952866	PREFIX COPULA	-0.3040719
-2.33861	PREFIX DASH	-1.064728
-3.850493	PREFIX DOT	3.06351
-2.306425	PREFIX EXISTENTIAL	-0.5390273
-3.650624	PREFIX INTERJECTION
-2.518055	PREFIX INTERROGATIVE	-0.3483678
-4.151523	PREFIX LRB
-2.312674	PREFIX MODAL	-0.09350789
-1.964002	PREFIX NEGATION	-0.1959059
-0.7187141	PREFIX NOUN	-0.1552179
-0.7630666	PREFIX NOUN-CONST	0.2972205
-0.79416	PREFIX NOUN-DEF	0.1527641
-1.223127	PREFIX NOUN-POSSESSIVE	0.07365215
-1.577492	PREFIX NUMERAL	-0.5992284
-2.470282	PREFIX PARTICIPLE	-0.1072344
-2.771312	PREFIX PARTICIPLE-CONST	-0.1854373
-3.650624	PREFIX PARTICIPLE-DEF
-2.660161	PREFIX PERC	0.3399481
-1.459558	PREFIX PREFIX	-0.7497481
-1.629079	PREFIX PREPOSITION	-0.06896222
-1.475745	PREFIX PRONOUN	0.1726809
-1.182107	PREFIX PROPERNAME	0.4758475
-2.829304	PREFIX PROPERNAME-DEF	0.2806949
-1.616229	PREFIX QUANTIFIER	-0.4584975
-2.2882	PREFIX QUOT	-0.7113311
-4.151523	PREFIX SCLN
-1.044313	PREFIX VERB	0.1951219
-2.098445	PREFIX VERB-INF	-0.1298175
-2.720159	PREFIX WPREFIX	-0.1013061
-2.330287	PREPOSITION ADJECTIVE	-0.03717041
-3.136467	PREPOSITION ADJECTIVE-CONST	-0.1197918
-2.344075	PREPOSITION ADJECTIVE-DEF	0.1785547
-1.782358	PREPOSITION ADVERB	-0.3175545
-2.881194	PREPOSITION CLN	-0.1136104
-1.63678	PREPOSITION CM	-0.0584234
-2.095074	PREPOSITION CONJUNCTION	-0.1885411
-2.455226	PREPOSITION COPULA	0.05381525
-2.631317	PREPOSITION DASH	-0.1426956
-1.597391	PREPOSITION DOT	1.380107
-2.835437	PREPOSITION EXISTENTIAL	-0.2225164
-3.835437	PREPOSITION INTERJECTION
-2.303958	PREPOSITION INTERROGATIVE	-0.1428894
-3.233377	PREPOSITION LRB
-2.721493	PREPOSITION MODAL	-0.8309678
-2.721493	PREPOSITION NEGATION	-0.5887417
-0.8230215	PREPOSITION NOUN	-0.00366354
-0.7901139	PREPOSITION NOUN-CONST	-0.05898905
-0.6788877	PREPOSITION NOUN-DEF	-0.05938292
-1.177426	PREPOSITION NOUN-POSSESSIVE	-0.1920149
-1.498977	PREPOSITION NUMERAL	-0.4768376
-2.721493	PREPOSITION PARTICIPLE	-0.02177876
-2.631317	PREPOSITION PARTICIPLE-CONST	0.1810336
-2.404073	PREPOSITION PARTICIPLE-DEF	-0.3207646
-2.604988	PREPOSITION PERC	0.5898255
-1.271956	PREPOSITION PREFIX	-0.1708908
-1.686218	PREPOSITION PREPOSITION	-0.07894862
-1.623249	PREPOSITION PRONOUN	-0.323069
-1.067539	PREPOSITION PROPERNAME	-0.1361338
-2.388279	PREPOSITION PROPERNAME-DEF	-0.2302583
-3.233377	PREPOSITION QM	1.019576
-1.683149	PREPOSITION QUANTIFIER	-0.2824809
-1.926952	PREPOSITION QUOT	-0.4322202
-2.321258	PREPOSITION RRB	-0.2319108
-2.321258	PREPOSITION SCLN	-0.08355407
-1.570619	PREPOSITION VERB	0.05048239
-2.029257	PREPOSITION VERB-INF	-0.1127664
-2.756256	PREPOSITION WPREFIX	-0.07780471
-1.569025	PRONOUN ADJECTIVE	-0.6409899
-2.546748	PRONOUN ADJECTIVE-CONST	-0.1522805
-2.72284	PRONOUN ADJECTIVE-DEF
-1.416414	PRONOUN ADVERB	-0.1378829
-1.81072	PRONOUN CLN	-0.06595584
-1.126242	PRONOUN CM	-0.004938245
-1.53957	PRONOUN CONJUNCTION	-0.1813169
-1.234994	PRONOUN COPULA	-0.2648305
-3.324899	PRONOUN DASH
-1.316299	PRONOUN DOT	1.607819
-2.370657	PRONOUN EXISTENTIAL	0.05885522
-2.72284	PRONOUN INTERROGATIVE
-3.02387	PRONOUN LRB	-0.4970258
-1.51872	PRONOUN MODAL	-0.4116888
-1.511986	PRONOUN NEGATION	-0.3879563
-1.287473	PRONOUN NOUN	-0.1968854
-1.893536	PRONOUN NOUN-CONST	-0.2245806
-1.671687	PRONOUN NOUN-DEF	0.1078041
-2.283507	PRONOUN NOUN-POSSESSIVE	-0.1041459
-2.324899	PRONOUN NUMERAL	-0.2562109
-1.944688	PRONOUN PARTICIPLE	-0.1490252
-3.324899	PRONOUN PARTICIPLE-CONST
-3.02387	PRONOUN PARTICIPLE-DEF
-1.048438	PRONOUN PREFIX	0.1908319
-1.461577	PRONOUN PREPOSITION	-0.1520607
-1.963172	PRONOUN PRONOUN	-0.2150549
-2.324899	PRONOUN PROPERNAME	-0.1506483
-2.421809	PRONOUN QM	0.9902402
-2.421809	PRONOUN QUANTIFIER	-0.05999407
-2.069627	PRONOUN QUOT	-0.3166719
-3.02387	PRONOUN RRB
-3.02387	PRONOUN SCLN
-0.4423749	PRONOUN VERB	-0.1138233
-2.148808	PRONOUN VERB-INF	-0.5356556
-2.824	PRONOUN WPREFIX	0.1137798
-2.019777	PROPERNAME ADJECTIVE	0.03372842
-1.981988	PROPERNAME ADJECTIVE-DEF	-0.5330186
-2.050446	PROPERNAME ADVERB	-0.245648
-2.301502	PROPERNAME CLN	-0.4151818
-0.6938137	PROPERNAME CM	-0.1217347
-2.119162	PROPERNAME CONJUNCTION	-0.1251586
-1.699442	PROPERNAME COPULA	-0.2246982
-2.487138	PROPERNAME DASH	-0.7515828
-0.9660003	PROPERNAME DOT	0.9225559
-2.584048	PROPERNAME EXISTENTIAL	-0.4780591
-3.3622	PROPERNAME INTERROGATIVE
-1.843686	PROPERNAME LRB	-0.3848357
-2.248256	PROPERNAME MODAL	-0.2740509
-2.15808	PROPERNAME NEGATION	-0.7599398
-1.899802	PROPERNAME NOUN	-0.1831188
-2.34101	PROPERNAME NOUN-CONST	0.4105468
-2.45911	PROPERNAME NOUN-DEF	0.02410118
-2.96426	PROPERNAME NOUN-POSSESSIVE	-0.02621254
-1.754745	PROPERNAME NUMERAL	-0.5276944
-2.885078	PROPERNAME PARTICIPLE	-0.2335355
-3.06117	PROPERNAME PARTICIPLE-CONST
-3.66323	PROPERNAME PARTICIPLE-DEF
-3.66323	PROPERNAME PERC
-0.8410615	PROPERNAME PREFIX	-0.1581926
-1.461833	PROPERNAME PREPOSITION	-0.2240466
-2.487138	PROPERNAME PRONOUN	-0.2049144
-0.7267159	PROPERNAME PROPERNAME	-0.1621737
-3.3622	PROPERNAME PROPERNAME-DEF	-0.497967
-2.885078	PROPERNAME QM	1.099385
-2.885078	PROPERNAME QUANTIFIER	-0.001967981
-1.549286	PROPERNAME QUOT	-0.4915389
-1.922867	PROPERNAME RRB	-0.03933054
-2.517102	PROPERNAME SCLN	-0.1581077
-0.905075	PROPERNAME VERB	-0.317443
-1.930836	PROPERNAME VERB-INF	0.04313856
-3.162331	PROPERNAME WPREFIX	-0.1553661
-1.49693	PROPERNAME-DEF ADJECTIVE-DEF	-0.1393448
-1.89487	PROPERNAME-DEF ADVERB
-2.1959	PROPERNAME-DEF CLN
-0.7809263	PROPERNAME-DEF CM	0.06516963
-1.89487	PROPERNAME-DEF COPULA
-1.116718	PROPERNAME-DEF DOT	2.506713
-2.1959	PROPERNAME-DEF EXISTENTIAL
-2.1959	PROPERNAME-DEF LRB
-1.89487	PROPERNAME-DEF NOUN
-2.1959	PROPERNAME-DEF NUMERAL
-0.7645359	PROPERNAME-DEF PREFIX	-0.1932361
-1.417748	PROPERNAME-DEF PREPOSITION	-0.04288494
-2.1959	PROPERNAME-DEF PRONOUN
-0.552447	PROPERNAME-DEF PROPERNAME	-0.3244608
-2.1959	PROPERNAME-DEF PROPERNAME-DEF
-2.1959	PROPERNAME-DEF QUOT
-0.8948697	PROPERNAME-DEF VERB	-0.1300246
-1.695001	PROPERNAME-DEF VERB-INF	-0.1085998
-0.004963419	QM </s>
-1.816241	QUANTIFIER ADJECTIVE	-0.14202
-2.962369	QUANTIFIER ADJECTIVE-CONST
-2.46147	QUANTIFIER ADJECTIVE-DEF	-0.2214383
-1.499971	QUANTIFIER ADVERB	-0.1568109
-1.600641	QUANTIFIER CM	-0.04979396
-2.360309	QUANTIFIER CONJUNCTION	-0.2347428
-1.962369	QUANTIFIER COPULA	-0.1869513
-2.661339	QUANTIFIER DASH
-2.059279	QUANTIFIER DOT	2.666414
-2.661339	QUANTIFIER EXISTENTIAL
-1.73192	QUANTIFIER INTERROGATIVE	-0.8621415
-2.661339	QUANTIFIER MODAL
-2.661339	QUANTIFIER NEGATION
-0.4464955	QUANTIFIER NOUN	-0.1181297
-1.081556	QUANTIFIER NOUN-CONST	-0.2164384
-0.9985815	QUANTIFIER NOUN-DEF	-0.0805006
-1.73192	QUANTIFIER NOUN-POSSESSIVE	-0.2974725
-1.406067	QUANTIFIER NUMERAL	-0.07562277
-2.661339	QUANTIFIER PARTICIPLE
-2.46147	QUANTIFIER PARTICIPLE-CONST	-0.148567
-2.059279	QUANTIFIER PARTICIPLE-DEF	-0.1749445
-2.962369	QUANTIFIER PERC
-1.198941	QUANTIFIER PREFIX	-0.1193727
-1.707097	QUANTIFIER PREPOSITION	0.05638215
-1.515211	QUANTIFIER PRONOUN	-0.1256157
-1.44819	QUANTIFIER PROPERNAME	-0.05074989
-1.44819	QUANTIFIER QUANTIFIER	-0.06288148
-2.008127	QUANTIFIER QUOT	0.002456963
-1.238093	QUANTIFIER VERB	-0.2904616
-2.46147	QUANTIFIER VERB-INF	-0.1397466
-2.661339	QUANTIFIER WPREFIX	-0.1578295
-1.725585	QUOT ADJECTIVE	-0.228131
-2.009582	QUOT ADJECTIVE-DEF	-0.09286246
-1.676367	QUOT ADVERB	0.01712775
-2.622626	QUOT CLN
-0.822495	QUOT CM	-0.4734241
-1.708552	QUOT CONJUNCTION	-0.06456792
-1.761797	QUOT COPULA	-0.2711204
-3.123525	QUOT DASH
-0.758037	QUOT DOT	1.253301
-2.220435	QUOT EXISTENTIAL	-0.1003187
-2.822495	QUOT INTERJECTION
-2.123525	QUOT INTERROGATIVE	-0.09352237
-1.947434	QUOT LRB	-0.1835699
-2.424555	QUOT MODAL	-0.2549695
-2.123525	QUOT NEGATION	-0.3314746
-1.019721	QUOT NOUN	-0.4102588
-1.36765	QUOT NOUN-CONST	-0.2772458
-1.260202	QUOT NOUN-DEF	-0.5565414
-2.009582	QUOT NOUN-POSSESSIVE	-0.08562224
-2.424555	QUOT NUMERAL	-0.01701224
-2.424555	QUOT PARTICIPLE	-0.0952431
-3.123525	QUOT PARTICIPLE-CONST
-1.123525	QUOT PREFIX	-0.01005447
-1.521465	QUOT PREPOSITION	0.003136098
-1.480072	QUOT PRONOUN	-0.3358723
-1.086098	QUOT PROPERNAME	-0.6940178
-3.123525	QUOT QM
-2.345374	QUOT QUANTIFIER
-1.579457	QUOT QUOT	-0.1563497
-1.822495	QUOT RRB	-0.3451819
-2.622626	QUOT SCLN
-1.242711	QUOT VERB	0.05505723
-2.123525	QUOT VERB-INF	-0.01726776
-2.822495	QUOT WPREFIX
-2.131939	RRB ADVERB
-1.733999	RRB CLN
-0.6068945	RRB CM	-0.1934571
-1.830909	RRB CONJUNCTION
-2.131939	RRB COPULA
-0.50869	RRB DOT	1.691238
-2.432969	RRB INTERROGATIVE
-2.432969	RRB MODAL
-2.432969	RRB NEGATION
-1.733999	RRB NOUN	-0.03118313
-1.654818	RRB NOUN-CONST	0.06027395
-2.432969	RRB NOUN-DEF
-2.131939	RRB PARTICIPLE-CONST
-2.432969	RRB PARTICIPLE-DEF
-2.432969	RRB PERC
-1.090547	RRB PREFIX	0.01707554
-0.91879	RRB PREPOSITION	-0.1211144
-1.733999	RRB PROPERNAME	-0.05795231
-2.131939	RRB QUOT
-2.432969	RRB SCLN
-1.071241	RRB VERB	0.1229924
-2.131939	RRB VERB-INF
-1.616372	SCLN ADJECTIVE
-1.418301	SCLN ADVERB	-0.08817067
-1.003328	SCLN CONJUNCTION	-0.1310306
-2.117271	SCLN COPULA
-2.117271	SCLN LRB
-1.418301	SCLN NEGATION	-0.1326149
-1.418301	SCLN NOUN	-0.03118313
-1.003328	SCLN NOUN-CONST	0.02316418
-1.33912	SCLN NOUN-DEF	-0.07177092
-1.418301	SCLN NOUN-POSSESSIVE	-0.2463572
-2.117271	SCLN NUMERAL
-1.816241	SCLN PERC	1.287952
-0.7555435	SCLN PREFIX	-0.04269108
-1.03809	SCLN PREPOSITION	-0.3304401
-1.163029	SCLN PRONOUN	-0.282861
-0.8868224	SCLN PROPERNAME	-0.4141999
-1.816241	SCLN PROPERNAME-DEF
-2.117271	SCLN RRB
-1.33912	SCLN VERB	0.03218316
-2.355841	VERB ADJECTIVE	-0.3147548
-3.847202	VERB ADJECTIVE-CONST
-3.346303	VERB ADJECTIVE-DEF
-1.165057	VERB ADVERB	-0.5219895
-2.546172	VERB CLN	-0.3771254
-1.527056	VERB CM	-0.1966286
-1.360064	VERB CONJUNCTION	0.04929805
-2.370081	VERB COPULA	0.05741772
-3.546172	VERB DASH
-1.662511	VERB DOT	1.433136
-3.346303	VERB INTERJECTION
-2.50478	VERB INTERROGATIVE	0.05110762
-3.245142	VERB LRB
-3.546172	VERB MODAL	-0.1502593
-2.449262	VERB NEGATION	-0.3552156
-1.055512	VERB NOUN	-0.08679307
-1.487367	VERB NOUN-CONST	-0.1830165
-1.400044	VERB NOUN-DEF	-0.09848833
-2.069051	VERB NOUN-POSSESSIVE	-0.2070774
-1.851567	VERB NUMERAL	-0.5184335
-2.333023	VERB PARTICIPLE	-0.06358346
-3.546172	VERB PARTICIPLE-CONST
-3.069051	VERB PARTICIPLE-DEF	-0.1615432
-3.546172	VERB PERC	1.287952
-0.529975	VERB PREFIX	0.5489452
-0.6792945	VERB PREPOSITION	-0.3624221
-2.20375	VERB PRONOUN	-0.04512852
-1.568449	VERB PROPERNAME	-0.5531515
-2.80581	VERB PROPERNAME-DEF	-0.09268999
-3.148232	VERB QM	1.282626
-2.054811	VERB QUANTIFIER	-0.5730333
-2.157006	VERB QUOT	-0.1373215
-3.148232	VERB SCLN	-0.1623477
-2.223953	VERB VERB	-0.03852427
-1.192064	VERB VERB-INF	-0.2278658
-3.546172	VERB WPREFIX	-0.1578295
-2.954001	VERB-INF ADJECTIVE
-1.397699	VERB-INF ADVERB	-0.5563755
-2.556061	VERB-INF CLN	-0.1171015
-1.530755	VERB-INF CM	-0.1838093
-1.601819	VERB-INF CONJUNCTION	0.003007889
-2.954001	VERB-INF COPULA
-1.506843	VERB-INF DOT	1.864782
-3.255031	VERB-INF EXISTENTIAL
-2.07894	VERB-INF INTERROGATIVE	-0.004569501
-3.255031	VERB-INF LRB
-3.255031	VERB-INF NEGATION
-0.8712158	VERB-INF NOUN	-0.3829952
-1.611578	VERB-INF NOUN-CONST	-1.301046
-2.213639	VERB-INF NOUN-DEF	0.02042648
-2.17585	VERB-INF NOUN-POSSESSIVE	-0.262572
-2.255031	VERB-INF NUMERAL	-0.2335123
-3.255031	VERB-INF PARTICIPLE
-3.255031	VERB-INF PERC
-0.5449138	VERB-INF PREFIX	-0.2262323
-0.4754347	VERB-INF PREPOSITION	-0.4990165
-1.954001	VERB-INF PRONOUN	-0.1955947
-2.47688	VERB-INF PROPERNAME	-0.02150398
-3.255031	VERB-INF QM
-1.976278	VERB-INF QUANTIFIER	-0.1117796
-2.141088	VERB-INF QUOT	-0.1905275
-2.954001	VERB-INF RRB
-1.740852	VERB-INF VERB	-0.009904861
-2.07894	VERB-INF VERB-INF	0.299949
-3.255031	VERB-INF WPREFIX
-0.7072954	WPREFIX ADJECTIVE	-0.1141992
-2.198657	WPREFIX CM
-0.2209335	WPREFIX DASH	-0.8395926
-2.198657	WPREFIX DOT
-1.295567	WPREFIX MODAL	-0.1951732
-1.697758	WPREFIX NOUN	-0.1629294
-1.897627	WPREFIX NOUN-CONST
-1.697758	WPREFIX NOUN-DEF
-1.897627	WPREFIX NOUN-POSSESSIVE
-1.244415	WPREFIX PARTICIPLE	0.01512615
-1.897627	WPREFIX PROPERNAME	-0.4669041

\3-grams:
-1.318045	<s> ADJECTIVE ADVERB
-1.106115	<s> ADJECTIVE CM
-0.4490925	<s> ADJECTIVE PREFIX
-0.8749086	<s> ADJECTIVE PREPOSITION
-0.7501225	<s> ADJECTIVE VERB-INF
-1.87702	ADJECTIVE ADJECTIVE ADJECTIVE
-1.309098	ADJECTIVE ADJECTIVE ADVERB
-2.052163	ADJECTIVE ADJECTIVE CLN
-0.7972143	ADJECTIVE ADJECTIVE CM
-0.5994037	ADJECTIVE ADJECTIVE DOT
-1.87702	ADJECTIVE ADJECTIVE LRB
-0.5046175	ADJECTIVE ADJECTIVE PREFIX
-1.170795	ADJECTIVE ADJECTIVE PREPOSITION
-2.052163	ADJECTIVE ADJECTIVE QUOT
-2.052163	ADJECTIVE ADJECTIVE RRB
-1.434036	ADJECTIVE ADJECTIVE VERB
-0.6850732	ADJECTIVE-DEF ADJECTIVE ADVERB
-1.276968	ADVERB ADJECTIVE ADVERB
-1.709207	ADVERB ADJECTIVE CLN
-0.9149892	ADVERB ADJECTIVE CM
-0.7231037	ADVERB ADJECTIVE DOT
-0.5682017	ADVERB ADJECTIVE PREFIX
-0.7900504	ADVERB ADJECTIVE PREPOSITION
-1.709207	ADVERB ADJECTIVE QUOT
-1.322135	ADVERB ADJECTIVE VERB-INF
-0.8586708	CM ADJECTIVE ADVERB
-0.8586708	CM ADJECTIVE CM
-1.652889	CM ADJECTIVE CONJUNCTION
-0.2814344	CM ADJECTIVE PREFIX
-1.477746	CM ADJECTIVE PREPOSITION
-0.6901961	CONJUNCTION ADJECTIVE ADVERB
-0.9118922	CONJUNCTION ADJECTIVE CM
-0.9118922	CONJUNCTION ADJECTIVE DOT
-1.143099	CONJUNCTION ADJECTIVE NOUN
-0.6110148	CONJUNCTION ADJECTIVE PREFIX
-1.355029	CONJUNCTION ADJECTIVE VERB
-0.7093728	COPULA ADJECTIVE ADVERB
-1.68079	COPULA ADJECTIVE CLN
-1.051795	COPULA ADJECTIVE CM
-1.449735	COPULA ADJECTIVE CONJUNCTION
-0.9268567	COPULA ADJECTIVE DOT
-1.68079	COPULA ADJECTIVE NOUN
-0.4497355	COPULA ADJECTIVE PREFIX
-1.148705	COPULA ADJECTIVE PREPOSITION
-1.892719	COPULA ADJECTIVE QUANTIFIER
-1.635623	COPULA ADJECTIVE QUOT
-1.892719	COPULA ADJECTIVE VERB-INF
-1.278601	DASH ADJECTIVE ADJECTIVE
-1.721737	DASH ADJECTIVE ADJECTIVE-DEF
-1.056905	DASH ADJECTIVE CM
-1.721737	DASH ADJECTIVE CONJUNCTION
-1.464641	DASH ADJECTIVE COPULA
-1.509808	DASH ADJECTIVE DASH
-0.5797836	DASH ADJECTIVE DOT
-0.6766936	DASH ADJECTIVE PREFIX
-0.9777236	DASH ADJECTIVE PREPOSITION
-1.509808	DASH ADJECTIVE PRONOUN
-1.89688	DASH ADJECTIVE PROPERNAME
-1.89688	DASH ADJECTIVE QUOT
-1.464641	DASH ADJECTIVE VERB
-0.4429838	INTERROGATIVE ADJECTIVE PREFIX
-0.1759386	LRB ADJECTIVE PREFIX
-1.43104	NEGATION ADJECTIVE ADVERB
-1.255897	NEGATION ADJECTIVE CM
-1.43104	NEGATION ADJECTIVE CONJUNCTION
-0.5910646	NEGATION ADJECTIVE DOT
-1.43104	NEGATION ADJECTIVE NOUN
-0.6879746	NEGATION ADJECTIVE PREFIX
-0.6879746	NEGATION ADJECTIVE PREPOSITION
-1.43104	NEGATION ADJECTIVE VERB-INF
-1.179721	NOUN ADJECTIVE ADJECTIVE
-1.318023	NOUN ADJECTIVE ADVERB
-1.973329	NOUN ADJECTIVE CLN
-0.8048568	NOUN ADJECTIVE CM
-1.711807	NOUN ADJECTIVE CONJUNCTION
-2.188928	NOUN ADJECTIVE COPULA
-2.158965	NOUN ADJECTIVE DASH
-0.8925768	NOUN ADJECTIVE DOT
-2.556905	NOUN ADJECTIVE EXISTENTIAL
-2.012837	NOUN ADJECTIVE LRB
-2.293664	NOUN ADJECTIVE MODAL
-2.556905	NOUN ADJECTIVE NEGATION
-2.293664	NOUN ADJECTIVE NOUN
-2.293664	NOUN ADJECTIVE NOUN-CONST
-2.380814	NOUN ADJECTIVE NUMERAL
-3.175032	NOUN ADJECTIVE PARTICIPLE
-0.5576297	NOUN ADJECTIVE PREFIX
-0.9268166	NOUN ADJECTIVE PREPOSITION
-1.973329	NOUN ADJECTIVE PRONOUN
-2.380814	NOUN ADJECTIVE PROPERNAME
-2.556905	NOUN ADJECTIVE QM
-1.636086	NOUN ADJECTIVE QUOT
-2.188928	NOUN ADJECTIVE RRB
-2.188928	NOUN ADJECTIVE SCLN
-1.227847	NOUN ADJECTIVE VERB
-1.973329	NOUN ADJECTIVE VERB-INF
-0.6190751	NOUN-CONST ADJECTIVE CM
-0.4071454	NOUN-CONST ADJECTIVE PREFIX
-0.7552884	NOUN-DEF ADJECTIVE ADVERB
-1.276968	NOUN-DEF ADJECTIVE CM
-1.709207	NOUN-DEF ADJECTIVE CONJUNCTION
-0.9661418	NOUN-DEF ADJECTIVE DOT
-1.534064	NOUN-DEF ADJECTIVE NOUN
-0.4712917	NOUN-DEF ADJECTIVE PREFIX
-1.322135	NOUN-DEF ADJECTIVE PREPOSITION
-1.534064	NOUN-DEF ADJECTIVE PROPERNAME
-1.534064	NOUN-DEF ADJECTIVE SCLN
-1.709207	NOUN-DEF ADJECTIVE VERB-INF
-0.7539329	NOUN-POSSESSIVE ADJECTIVE CM
-0.9658625	NOUN-POSSESSIVE ADJECTIVE DOT
-0.39794	NOUN-POSSESSIVE ADJECTIVE PREFIX
-0.9861032	NUMERAL ADJECTIVE DOT
-0.8109606	NUMERAL ADJECTIVE PREPOSITION
-0.9861032	NUMERAL ADJECTIVE VERB
-0.4529029	PARTICIPLE ADJECTIVE ADVERB
-0.4529029	PARTICIPLE ADJECTIVE PREFIX
-1.710932	PREFIX ADJECTIVE ADJECTIVE
-2.143171	PREFIX ADJECTIVE ADJECTIVE-DEF
-1.047924	PREFIX ADJECTIVE ADVERB
-1.968029	PREFIX ADJECTIVE CLN
-0.7234125	PREFIX ADJECTIVE CM
-2.143171	PREFIX ADJECTIVE CONJUNCTION
-2.143171	PREFIX ADJECTIVE COPULA
-0.6904122	PREFIX ADJECTIVE DOT
-2.143171	PREFIX ADJECTIVE NOUN
-0.6904122	PREFIX ADJECTIVE PREFIX
-1.024442	PREFIX ADJECTIVE PREPOSITION
-2.143171	PREFIX ADJECTIVE PRONOUN
-1.524892	PREFIX ADJECTIVE QUOT
-1.348954	PREFIX ADJECTIVE VERB
-1.524892	PREFIX ADJECTIVE VERB-INF
-1.169983	PREPOSITION ADJECTIVE ADVERB
-0.7269987	PREPOSITION ADJECTIVE CM
-1.345125	PREPOSITION ADJECTIVE DOT
-1.345125	PREPOSITION ADJECTIVE NOUN-CONST
-0.4637573	PREPOSITION ADJECTIVE PREFIX
-1.345125	PREPOSITION ADJECTIVE PREPOSITION
-1.345125	PREPOSITION ADJECTIVE VERB-INF
-0.7558749	PRONOUN ADJECTIVE ADVERB
-0.8016323	PRONOUN ADJECTIVE CM
-0.9777236	PRONOUN ADJECTIVE DOT
-0.4134522	PRONOUN ADJECTIVE PREFIX
-1.208778	PRONOUN ADJECTIVE PREPOSITION
-1.59585	PRONOUN ADJECTIVE QUOT
-1.420707	PRONOUN ADJECTIVE VERB-INF
-0.8651488	PROPERNAME ADJECTIVE ADVERB
-0.8651488	PROPERNAME ADJECTIVE CM
-1.483428	PROPERNAME ADJECTIVE CONJUNCTION
-0.8651488	PROPERNAME ADJECTIVE DOT
-0.7403627	PROPERNAME ADJECTIVE PREFIX
-1.308285	PROPERNAME ADJECTIVE PREPOSITION
-1.483428	PROPERNAME ADJECTIVE PROPERNAME
-1.483428	PROPERNAME ADJECTIVE QUOT
-1.308285	PROPERNAME ADJECTIVE VERB-INF
-0.9861032	QUANTIFIER ADJECTIVE ADVERB
-0.3679768	QUANTIFIER ADJECTIVE PREFIX
-1.062773	QUOT ADJECTIVE PREFIX
-1.062773	QUOT ADJECTIVE PREPOSITION
-0.3187588	QUOT ADJECTIVE QUOT
-0.8990977	VERB ADJECTIVE ADVERB
-1.331337	VERB ADJECTIVE CM
-1.156194	VERB ADJECTIVE DOT
-0.2872417	VERB ADJECTIVE PREFIX
-0.9442646	VERB ADJECTIVE PREPOSITION
-0.5882717	WPREFIX ADJECTIVE CM
-1.156194	WPREFIX ADJECTIVE DOT
-1.331337	WPREFIX ADJECTIVE MODAL
-0.7130578	WPREFIX ADJECTIVE PREFIX
-0.9442646	WPREFIX ADJECTIVE PREPOSITION
-1.331337	WPREFIX ADJECTIVE PRONOUN
-1.331337	WPREFIX ADJECTIVE QUOT
-0.3170964	<s> ADJECTIVE-CONST NOUN-DEF
-0.1410051	ADVERB ADJECTIVE-CONST NOUN
-0.1518729	CM ADJECTIVE-CONST NOUN
-0.6530598	NOUN ADJECTIVE-CONST DASH
-0.2852357	NOUN ADJECTIVE-CONST NOUN
-1.271339	NOUN ADJECTIVE-CONST QUANTIFIER
-1.271339	NOUN ADJECTIVE-CONST QUOT
-0.5320842	NOUN-DEF ADJECTIVE-CONST DASH
-0.1760913	NOUN-DEF ADJECTIVE-CONST NOUN-DEF
-0.3170964	NOUN-POSSESSIVE ADJECTIVE-CONST NOUN-DEF
-0.1410051	NUMERAL ADJECTIVE-CONST NOUN
-1.220186	PREFIX ADJECTIVE-CONST DASH
-0.3802112	PREFIX ADJECTIVE-CONST NOUN
-0.4259687	PREFIX ADJECTIVE-CONST NOUN-DEF
-0.3638026	PREPOSITION ADJECTIVE-CONST NOUN-DEF
-0.2310542	PRONOUN ADJECTIVE-CONST NOUN
-0.298001	ADJECTIVE ADJECTIVE-DEF PREFIX
-1.333717	ADJECTIVE-DEF ADJECTIVE-DEF ADVERB
-0.6255411	ADJECTIVE-DEF ADJECTIVE-DEF CM
-0.8808136	ADJECTIVE-DEF ADJECTIVE-DEF DOT
-0.5585943	ADJECTIVE-DEF ADJECTIVE-DEF PREFIX
-0.8808136	ADJECTIVE-DEF ADJECTIVE-DEF PREPOSITION
-1.28855	ADJECTIVE-DEF ADJECTIVE-DEF PROPERNAME
-1.720789	ADJECTIVE-DEF ADJECTIVE-DEF QUOT
-1.545646	ADJECTIVE-DEF ADJECTIVE-DEF VERB
-0.3170964	ADVERB ADJECTIVE-DEF PREFIX
-0.9870518	CM ADJECTIVE-DEF ADVERB
-0.9870518	CM ADJECTIVE-DEF CM
-0.3222193	CM ADJECTIVE-DEF PREFIX
-0.9870518	CM ADJECTIVE-DEF VERB-INF
-0.7942176	CONJUNCTION ADJECTIVE-DEF CM
-0.7942176	CONJUNCTION ADJECTIVE-DEF VERB
-0.3619786	COPULA ADJECTIVE-DEF ADVERB
-0.6190751	COPULA ADJECTIVE-DEF PREFIX
-0.39794	NOUN ADJECTIVE-DEF PREFIX
-1.062773	NOUN ADJECTIVE-DEF PREPOSITION
-0.8508429	NOUN ADJECTIVE-DEF VERB-INF
-1.118729	NOUN-CONST ADJECTIVE-DEF ADJECTIVE-DEF
-0.7316565	NOUN-CONST ADJECTIVE-DEF CM
-0.9435861	NOUN-CONST ADJECTIVE-DEF DOT
-0.9435861	NOUN-CONST ADJECTIVE-DEF PREFIX
-0.7316565	NOUN-CONST ADJECTIVE-DEF PROPERNAME
-2.56216	NOUN-DEF ADJECTIVE-DEF ADJECTIVE
-1.321915	NOUN-DEF ADJECTIVE-DEF ADJECTIVE-DEF
-1.398549	NOUN-DEF ADJECTIVE-DEF ADVERB
-2.113031	NOUN-DEF ADJECTIVE-DEF CLN
-0.8363606	NOUN-DEF ADJECTIVE-DEF CM
-1.899151	NOUN-DEF ADJECTIVE-DEF CONJUNCTION
-1.531175	NOUN-DEF ADJECTIVE-DEF COPULA
-2.008296	NOUN-DEF ADJECTIVE-DEF DASH
-0.8666223	NOUN-DEF ADJECTIVE-DEF DOT
-2.994399	NOUN-DEF ADJECTIVE-DEF EXISTENTIAL
-2.56216	NOUN-DEF ADJECTIVE-DEF LRB
-2.994399	NOUN-DEF ADJECTIVE-DEF MODAL
-2.075243	NOUN-DEF ADJECTIVE-DEF NEGATION
-2.040481	NOUN-DEF ADJECTIVE-DEF NOUN
-2.376273	NOUN-DEF ADJECTIVE-DEF NOUN-CONST
-2.376273	NOUN-DEF ADJECTIVE-DEF NOUN-DEF
-2.994399	NOUN-DEF ADJECTIVE-DEF NOUN-POSSESSIVE
-2.56216	NOUN-DEF ADJECTIVE-DEF NUMERAL
-2.819257	NOUN-DEF ADJECTIVE-DEF PARTICIPLE
-0.6561134	NOUN-DEF ADJECTIVE-DEF PREFIX
-0.8599578	NOUN-DEF ADJECTIVE-DEF PREPOSITION
-1.832205	NOUN-DEF ADJECTIVE-DEF PRONOUN
-1.663062	NOUN-DEF ADJECTIVE-DEF PROPERNAME
-2.994399	NOUN-DEF ADJECTIVE-DEF QM
-2.607327	NOUN-DEF ADJECTIVE-DEF QUANTIFIER
-1.677303	NOUN-DEF ADJECTIVE-DEF QUOT
-2.56216	NOUN-DEF ADJECTIVE-DEF RRB
-2.994399	NOUN-DEF ADJECTIVE-DEF SCLN
-1.05062	NOUN-DEF ADJECTIVE-DEF VERB
-1.923975	NOUN-DEF ADJECTIVE-DEF VERB-INF
-1.945866	NOUN-POSSESSIVE ADJECTIVE-DEF ADJECTIVE-DEF
-1.502882	NOUN-POSSESSIVE ADJECTIVE-DEF ADVERB
-2.121009	NOUN-POSSESSIVE ADJECTIVE-DEF CLN
-0.7012498	NOUN-POSSESSIVE ADJECTIVE-DEF CM
-1.377943	NOUN-POSSESSIVE ADJECTIVE-DEF COPULA
-1.945866	NOUN-POSSESSIVE ADJECTIVE-DEF DASH
-0.8186353	NOUN-POSSESSIVE ADJECTIVE-DEF DOT
-2.121009	NOUN-POSSESSIVE ADJECTIVE-DEF MODAL
-2.121009	NOUN-POSSESSIVE ADJECTIVE-DEF NEGATION
-0.7896717	NOUN-POSSESSIVE ADJECTIVE-DEF PREFIX
-0.5820634	NOUN-POSSESSIVE ADJECTIVE-DEF PREPOSITION
-2.121009	NOUN-POSSESSIVE ADJECTIVE-DEF PROPERNAME
-1.502882	NOUN-POSSESSIVE ADJECTIVE-DEF VERB
-2.121009	NOUN-POSSESSIVE ADJECTIVE-DEF VERB-INF
-0.4077361	NUMERAL ADJECTIVE-DEF PREFIX
-0.8399752	NUMERAL ADJECTIVE-DEF VERB
-0.6648325	PARTICIPLE-DEF ADJECTIVE-DEF PREFIX
-0.8399752	PARTICIPLE-DEF ADJECTIVE-DEF PREPOSITION
-1.079181	PREFIX ADJECTIVE-DEF ADVERB
-0.7433891	PREFIX ADJECTIVE-DEF CM
-1.697308	PREFIX ADJECTIVE-DEF COPULA
-1.697308	PREFIX ADJECTIVE-DEF DASH
-1.079181	PREFIX ADJECTIVE-DEF DOT
-0.60206	PREFIX ADJECTIVE-DEF PREFIX
-0.9542425	PREFIX ADJECTIVE-DEF PREPOSITION
-0.8159398	PREFIX ADJECTIVE-DEF VERB
-1.331337	PREPOSITION ADJECTIVE-DEF ADJECTIVE-DEF
-1.156194	PREPOSITION ADJECTIVE-DEF ADVERB
-0.7130578	PREPOSITION ADJECTIVE-DEF CM
-1.156194	PREPOSITION ADJECTIVE-DEF DOT
-0.7130578	PREPOSITION ADJECTIVE-DEF PREFIX
-1.156194	PREPOSITION ADJECTIVE-DEF PREPOSITION
-1.331337	PREPOSITION ADJECTIVE-DEF VERB
-0.3802112	PROPERNAME ADJECTIVE-DEF CM
-0.7781513	PROPERNAME ADJECTIVE-DEF DOT
-0.6398485	PROPERNAME ADJECTIVE-DEF PREFIX
-1.521216	PROPERNAME ADJECTIVE-DEF PREPOSITION
-1.134144	PROPERNAME ADJECTIVE-DEF VERB
-0.3638026	PROPERNAME-DEF ADJECTIVE-DEF PREFIX
-0.3170964	QUANTIFIER ADJECTIVE-DEF PREPOSITION
-0.9539185	QUOT ADJECTIVE-DEF CM
-0.7787759	QUOT ADJECTIVE-DEF PREPOSITION
-0.7787759	QUOT ADJECTIVE-DEF QUOT
-1.64673	<s> ADVERB ADJECTIVE
-1.3457	<s> ADVERB ADVERB
-0.8685791	<s> ADVERB CM
-1.646578	<s> ADVERB CONJUNCTION
-1.521792	<s> ADVERB COPULA
-1.832618	<s> ADVERB DOT
-2.089714	<s> ADVERB EXISTENTIAL
-2.264857	<s> ADVERB INTERROGATIVE
-2.089714	<s> ADVERB MODAL
-1.424882	<s> ADVERB NEGATION
-1.310938	<s> ADVERB NOUN
-1.832618	<s> ADVERB NOUN-CONST
-1.521792	<s> ADVERB NOUN-DEF
-2.264857	<s> ADVERB NOUN-POSSESSIVE
-2.089714	<s> ADVERB NUMERAL
-1.082459	<s> ADVERB PREFIX
-1.278754	<s> ADVERB PREPOSITION
-1.24879	<s> ADVERB PRONOUN
-1.832618	<s> ADVERB PROPERNAME
-1.832618	<s> ADVERB QUANTIFIER
-0.5217916	<s> ADVERB VERB
-2.22379	ADJECTIVE ADVERB ADVERB
-1.605664	ADJECTIVE ADVERB CLN
-0.6762452	ADJECTIVE ADVERB CM
-1.304634	ADJECTIVE ADVERB CONJUNCTION
-0.6936193	ADJECTIVE ADVERB DOT
-1.836718	ADJECTIVE ADVERB NOUN
-0.6203874	ADJECTIVE ADVERB PREFIX
-1.041393	ADJECTIVE ADVERB PREPOSITION
-1.429573	ADJECTIVE ADVERB QUOT
-2.22379	ADJECTIVE ADVERB RRB
-2.22379	ADJECTIVE ADVERB SCLN
-1.342423	ADJECTIVE ADVERB VERB
-1.480725	ADJECTIVE ADVERB VERB-INF
-0.7333389	ADJECTIVE-DEF ADVERB CM
-1.62862	ADJECTIVE-DEF ADVERB COPULA
-0.7876965	ADJECTIVE-DEF ADVERB DOT
-0.4074853	ADJECTIVE-DEF ADVERB PREFIX
-0.9223952	ADJECTIVE-DEF ADVERB PREPOSITION
-1.371524	ADJECTIVE-DEF ADVERB VERB
-1.625305	ADVERB ADVERB ADJECTIVE
-1.625305	ADVERB ADVERB CM
-1.007026	ADVERB ADVERB DOT
-1.625305	ADVERB ADVERB NEGATION
-1.450162	ADVERB ADVERB NOUN
-1.625305	ADVERB ADVERB NUMERAL
-0.6713865	ADVERB ADVERB PREFIX
-1.193066	ADVERB ADVERB PREPOSITION
-1.450162	ADVERB ADVERB QM
-0.6392018	ADVERB ADVERB VERB
-0.5679225	CLN ADVERB VERB
-1.367824	CM ADVERB ADJECTIVE
-1.986103	CM ADVERB ADJECTIVE-DEF
-0.845098	CM ADVERB CM
-1.191885	CM ADVERB CONJUNCTION
-1.810961	CM ADVERB DOT
-1.191885	CM ADVERB NEGATION
-1.599031	CM ADVERB NOUN
-1.986103	CM ADVERB NOUN-CONST
-1.810961	CM ADVERB NOUN-DEF
-1.986103	CM ADVERB NUMERAL
-0.6547663	CM ADVERB PREFIX
-0.8908556	CM ADVERB PREPOSITION
-1.810961	CM ADVERB PRONOUN
-1.986103	CM ADVERB PROPERNAME
-1.986103	CM ADVERB QUANTIFIER
-0.8908556	CM ADVERB VERB
-1.869359	CONJUNCTION ADVERB ADJECTIVE
-1.694216	CONJUNCTION ADVERB ADVERB
-1.029384	CONJUNCTION ADVERB CM
-1.694216	CONJUNCTION ADVERB CONJUNCTION
-1.482287	CONJUNCTION ADVERB COPULA
-1.126294	CONJUNCTION ADVERB DOT
-1.694216	CONJUNCTION ADVERB MODAL
-1.482287	CONJUNCTION ADVERB NEGATION
-1.251233	CONJUNCTION ADVERB NOUN
-1.869359	CONJUNCTION ADVERB NOUN-DEF
-1.869359	CONJUNCTION ADVERB NUMERAL
-0.8252638	CONJUNCTION ADVERB PREFIX
-1.43712	CONJUNCTION ADVERB PREPOSITION
-1.694216	CONJUNCTION ADVERB PRONOUN
-1.694216	CONJUNCTION ADVERB QUANTIFIER
-0.5522625	CONJUNCTION ADVERB VERB
-0.8519375	COPULA ADVERB ADJECTIVE
-1.213916	COPULA ADVERB ADVERB
-1.646155	COPULA ADVERB CM
-1.646155	COPULA ADVERB DOT
-0.6922366	COPULA ADVERB NOUN
-1.259083	COPULA ADVERB NOUN-CONST
-1.646155	COPULA ADVERB NOUN-DEF
-0.7647873	COPULA ADVERB PREFIX
-1.471012	COPULA ADVERB PREPOSITION
-1.646155	COPULA ADVERB PROPERNAME
-1.646155	COPULA ADVERB QUANTIFIER
-1.471012	COPULA ADVERB QUOT
-0.30103	EXISTENTIAL ADVERB NOUN
-0.5642715	EXISTENTIAL ADVERB PREFIX
-1.182398	EXISTENTIAL ADVERB QUANTIFIER
-1.016066	INTERROGATIVE ADVERB NOUN
-1.016066	INTERROGATIVE ADVERB PREFIX
-0.8409238	INTERROGATIVE ADVERB QM
-0.8409238	INTERROGATIVE ADVERB VERB
-0.6190751	LRB ADVERB PREFIX
-0.7942176	LRB ADVERB VERB
-0.1047354	MODAL ADVERB VERB-INF
-1.259083	NEGATION ADVERB ADJECTIVE
-1.471012	NEGATION ADVERB CONJUNCTION
-1.471012	NEGATION ADVERB DOT
-1.646155	NEGATION ADVERB NOUN
-1.213916	NEGATION ADVERB NOUN-CONST
-0.3290587	NEGATION ADVERB PREFIX
-1.027876	NEGATION ADVERB PREPOSITION
-1.646155	NEGATION ADVERB PRONOUN
-1.471012	NEGATION ADVERB VERB
-0.797806	NOUN ADVERB ADJECTIVE
-1.011686	NOUN ADVERB CM
-1.717911	NOUN ADVERB CONJUNCTION
-1.893054	NOUN ADVERB COPULA
-0.8489584	NOUN ADVERB DOT
-1.893054	NOUN ADVERB LRB
-1.274927	NOUN ADVERB NEGATION
-1.893054	NOUN ADVERB NOUN
-1.893054	NOUN ADVERB NUMERAL
-0.7743248	NOUN ADVERB PREFIX
-1.274775	NOUN ADVERB PREPOSITION
-1.717911	NOUN ADVERB PRONOUN
-1.274775	NOUN ADVERB QUOT
-1.053078	NOUN ADVERB VERB
-0.4420351	NOUN-CONST ADVERB VERB
-1.32155	NOUN-DEF ADVERB ADJECTIVE
-1.366717	NOUN-DEF ADVERB ADVERB
-0.7998705	NOUN-DEF ADVERB CM
-1.366717	NOUN-DEF ADVERB COPULA
-1.32155	NOUN-DEF ADVERB DOT
-0.9595714	NOUN-DEF ADVERB NEGATION
-1.753789	NOUN-DEF ADVERB PARTICIPLE
-0.9138138	NOUN-DEF ADVERB PREFIX
-1.753789	NOUN-DEF ADVERB PREPOSITION
-1.753789	NOUN-DEF ADVERB PRONOUN
-1.753789	NOUN-DEF ADVERB SCLN
-0.6585413	NOUN-DEF ADVERB VERB
-1.753789	NOUN-DEF ADVERB VERB-INF
-0.6630086	NOUN-POSSESSIVE ADVERB CM
-1.095248	NOUN-POSSESSIVE ADVERB NEGATION
-1.095248	NOUN-POSSESSIVE ADVERB PREFIX
-0.7081754	NOUN-POSSESSIVE ADVERB VERB
-0.8689525	NUMERAL ADVERB CM
-0.4259687	NUMERAL ADVERB DOT
-1.044095	NUMERAL ADVERB PREFIX
-0.9191564	PARTICIPLE ADVERB CM
-0.7440138	PARTICIPLE ADVERB DOT
-0.7440138	PARTICIPLE ADVERB PREFIX
-0.9191564	PARTICIPLE ADVERB PREPOSITION
-0.5389451	PARTICIPLE-DEF ADVERB PREPOSITION
-1.744196	PREFIX ADVERB ADJECTIVE
-1.558308	PREFIX ADVERB ADVERB
-1.190332	PREFIX ADVERB CM
-1.222516	PREFIX ADVERB CONJUNCTION
-1.558308	PREFIX ADVERB COPULA
-1.33646	PREFIX ADVERB DOT
-2.176435	PREFIX ADVERB EXISTENTIAL
-2.001292	PREFIX ADVERB MODAL
-1.13234	PREFIX ADVERB NEGATION
-1.190332	PREFIX ADVERB NOUN
-2.176435	PREFIX ADVERB NOUN-CONST
-2.176435	PREFIX ADVERB NOUN-DEF
-2.176435	PREFIX ADVERB NUMERAL
-0.8313097	PREFIX ADVERB PREFIX
-1.160368	PREFIX ADVERB PREPOSITION
-1.160368	PREFIX ADVERB PRONOUN
-2.176435	PREFIX ADVERB PROPERNAME
-2.176435	PREFIX ADVERB QM
-2.176435	PREFIX ADVERB QUANTIFIER
-0.6552185	PREFIX ADVERB VERB
-2.176435	PREFIX ADVERB WPREFIX
-1.011686	PREPOSITION ADVERB CM
-1.893054	PREPOSITION ADVERB COPULA
-0.6728672	PREPOSITION ADVERB DOT
-1.274927	PREPOSITION ADVERB NEGATION
-1.011686	PREPOSITION ADVERB NOUN
-1.717911	PREPOSITION ADVERB NUMERAL
-0.7520484	PREPOSITION ADVERB PREFIX
-1.274927	PREPOSITION ADVERB PREPOSITION
-1.717911	PREPOSITION ADVERB QUANTIFIER
-0.9069504	PREPOSITION ADVERB VERB
-1.893054	PREPOSITION ADVERB WPREFIX
-1.74846	PRONOUN ADVERB ADJECTIVE
-1.573318	PRONOUN ADVERB ADVERB
-1.74846	PRONOUN ADVERB CONJUNCTION
-1.573318	PRONOUN ADVERB COPULA
-1.573318	PRONOUN ADVERB DOT
-1.573318	PRONOUN ADVERB MODAL
-1.005395	PRONOUN ADVERB NEGATION
-1.316221	PRONOUN ADVERB NOUN
-1.573318	PRONOUN ADVERB NOUN-CONST
-1.316221	PRONOUN ADVERB NOUN-DEF
-0.8293038	PRONOUN ADVERB PREFIX
-1.573318	PRONOUN ADVERB PREPOSITION
-1.74846	PRONOUN ADVERB QUOT
-0.5660623	PRONOUN ADVERB VERB
-1.452759	PROPERNAME ADVERB ADJECTIVE
-1.277616	PROPERNAME ADVERB CM
-1.02052	PROPERNAME ADVERB DOT
-1.02052	PROPERNAME ADVERB NEGATION
-1.02052	PROPERNAME ADVERB PREFIX
-0.4086639	PROPERNAME ADVERB VERB
-1.302373	QUANTIFIER ADVERB ADJECTIVE
-1.127231	QUANTIFIER ADVERB NOUN
-0.462398	QUANTIFIER ADVERB PREFIX
-0.9153009	QUANTIFIER ADVERB PREPOSITION
-1.127231	QUANTIFIER ADVERB VERB
-0.900061	QUOT ADVERB CM
-1.287133	QUOT ADVERB CONJUNCTION
-1.111991	QUOT ADVERB DOT
-1.287133	QUOT ADVERB NEGATION
-0.900061	QUOT ADVERB PREFIX
-1.111991	QUOT ADVERB QUOT
-1.111991	QUOT ADVERB VERB
-0.5389451	SCLN ADVERB VERB
-2.346978	VERB ADVERB ADJECTIVE
-1.451696	VERB ADVERB ADVERB
-2.135048	VERB ADVERB CLN
-1.234987	VERB ADVERB CM
-1.234987	VERB ADVERB CONJUNCTION
-2.346978	VERB ADVERB DASH
-1.219747	VERB ADVERB DOT
-2.52212	VERB ADVERB INTERROGATIVE
-2.346978	VERB ADVERB LRB
-2.52212	VERB ADVERB NEGATION
-1.069361	VERB ADVERB NOUN
-1.506054	VERB ADVERB NOUN-CONST
-1.640752	VERB ADVERB NOUN-DEF
-2.52212	VERB ADVERB NOUN-POSSESSIVE
-1.478025	VERB ADVERB NUMERAL
-0.4807479	VERB ADVERB PREFIX
-0.7956544	VERB ADVERB PREPOSITION
-1.779055	VERB ADVERB PROPERNAME
-2.089881	VERB ADVERB QUANTIFIER
-2.52212	VERB ADVERB QUOT
-1.779055	VERB ADVERB VERB
-1.536017	VERB ADVERB VERB-INF
-1.697308	VERB-INF ADVERB ADVERB
-1.697308	VERB-INF ADVERB CONJUNCTION
-0.9542425	VERB-INF ADVERB DOT
-1.697308	VERB-INF ADVERB INTERROGATIVE
-1.079181	VERB-INF ADVERB NOUN
-0.4423591	VERB-INF ADVERB PREFIX
-0.5785789	VERB-INF ADVERB PREPOSITION
-1.697308	VERB-INF ADVERB VERB
-1.419759	ADJECTIVE CLN INTERROGATIVE
-0.9875197	ADJECTIVE CLN NOUN
-1.244616	ADJECTIVE CLN NOUN-CONST
-0.8016323	ADJECTIVE CLN NOUN-DEF
-1.419759	ADJECTIVE CLN NUMERAL
-1.419759	ADJECTIVE CLN PREFIX
-1.032686	ADJECTIVE CLN PRONOUN
-1.244616	ADJECTIVE CLN PROPERNAME
-0.9875197	ADJECTIVE CLN QUOT
-1.016066	ADJECTIVE-DEF CLN NOUN-CONST
-0.8409238	ADJECTIVE-DEF CLN NOUN-DEF
-1.016066	ADJECTIVE-DEF CLN PROPERNAME
-1.016066	ADJECTIVE-DEF CLN QUOT
-0.9191564	ADVERB CLN PRONOUN
-0.9191564	ADVERB CLN QUOT
-0.4429838	CONJUNCTION CLN PREFIX
-1.588163	NOUN CLN ADJECTIVE
-1.588163	NOUN CLN ADVERB
-1.413021	NOUN CLN CONJUNCTION
-1.588163	NOUN CLN LRB
-0.9698841	NOUN CLN NOUN
-0.845098	NOUN CLN NOUN-CONST
-1.588163	NOUN CLN PREPOSITION
-1.155924	NOUN CLN PRONOUN
-1.413021	NOUN CLN PROPERNAME
-1.588163	NOUN CLN QUANTIFIER
-0.748188	NOUN CLN QUOT
-1.588163	NOUN CLN VERB-INF
-1.32759	NOUN-DEF CLN INTERROGATIVE
-1.32759	NOUN-DEF CLN NOUN
-1.115661	NOUN-DEF CLN NOUN-CONST
-1.32759	NOUN-DEF CLN NOUN-DEF
-1.502733	NOUN-DEF CLN NOUN-POSSESSIVE
-1.32759	NOUN-DEF CLN NUMERAL
-1.32759	NOUN-DEF CLN PREFIX
-0.6627578	NOUN-DEF CLN PROPERNAME
-0.6627578	NOUN-DEF CLN QUOT
-0.2310542	NOUN-POSSESSIVE CLN QUOT
-0.8813679	NUMERAL CLN INTERROGATIVE
-0.4942956	NUMERAL CLN PROPERNAME
-0.3619786	PREPOSITION CLN QUOT
-0.6850732	PRONOUN CLN NOUN-CONST
-1.201703	PROPERNAME CLN LRB
-0.2155998	PROPERNAME CLN QUOT
-1.201703	PROPERNAME CLN VERB
-1.141005	VERB CLN NOUN
-0.1870866	VERB CLN QUOT
-0.5389451	VERB-INF CLN NOUN-DEF
-0.7430651	<s> CM NOUN
-0.7430651	<s> CM PROPERNAME
-1.365998	ADJECTIVE CM ADJECTIVE
-2.161324	ADJECTIVE CM ADJECTIVE-CONST
-1.407391	ADJECTIVE CM ADVERB
-0.8276073	ADJECTIVE CM CONJUNCTION
-1.930117	ADJECTIVE CM COPULA
-2.373253	ADJECTIVE CM INTERROGATIVE
-1.805331	ADJECTIVE CM MODAL
-1.754178	ADJECTIVE CM NEGATION
-1.407391	ADJECTIVE CM NOUN
-1.594478	ADJECTIVE CM NOUN-CONST
-1.754178	ADJECTIVE CM NOUN-DEF
-2.373253	ADJECTIVE CM NOUN-POSSESSIVE
-2.548396	ADJECTIVE CM NUMERAL
-1.93027	ADJECTIVE CM PARTICIPLE
-0.4678717	ADJECTIVE CM PREFIX
-1.2313	ADJECTIVE CM PREPOSITION
-1.667028	ADJECTIVE CM PRONOUN
-1.594478	ADJECTIVE CM PROPERNAME
-2.373253	ADJECTIVE CM QUOT
-0.8391892	ADJECTIVE CM VERB
-2.548396	ADJECTIVE CM VERB-INF
-2.171338	ADJECTIVE-DEF CM ADJECTIVE
-1.603415	ADJECTIVE-DEF CM ADJECTIVE-DEF
-1.465112	ADJECTIVE-DEF CM ADVERB
-0.9154404	ADJECTIVE-DEF CM CONJUNCTION
-1.914241	ADJECTIVE-DEF CM COPULA
-2.34648	ADJECTIVE-DEF CM EXISTENTIAL
-1.959408	ADJECTIVE-DEF CM NEGATION
-1.465112	ADJECTIVE-DEF CM NOUN
-1.506505	ADJECTIVE-DEF CM NOUN-CONST
-1.465112	ADJECTIVE-DEF CM NOUN-DEF
-2.34648	ADJECTIVE-DEF CM NOUN-POSSESSIVE
-2.34648	ADJECTIVE-DEF CM NUMERAL
-0.4936678	ADJECTIVE-DEF CM PREFIX
-1.059347	ADJECTIVE-DEF CM PREPOSITION
-1.728354	ADJECTIVE-DEF CM PRONOUN
-1.360377	ADJECTIVE-DEF CM PROPERNAME
-1.914241	ADJECTIVE-DEF CM QUOT
-0.8252638	ADJECTIVE-DEF CM VERB
-1.959408	ADJECTIVE-DEF CM VERB-INF
-1.831301	ADVERB CM ADJECTIVE
-1.786134	ADVERB CM ADVERB
-0.8343298	ADVERB CM CONJUNCTION
-1.600247	ADVERB CM COPULA
-2.218373	ADVERB CM EXISTENTIAL
-2.218373	ADVERB CM INTERROGATIVE
-1.786134	ADVERB CM MODAL
-1.600247	ADVERB CM NEGATION
-1.475308	ADVERB CM NOUN
-1.600247	ADVERB CM NOUN-CONST
-1.600094	ADVERB CM NOUN-DEF
-0.4919072	ADVERB CM PREFIX
-1.01667	ADVERB CM PREPOSITION
-1.475308	ADVERB CM PRONOUN
-1.600094	ADVERB CM PROPERNAME
-2.043231	ADVERB CM QUANTIFIER
-1.831301	ADVERB CM QUOT
-0.9981866	ADVERB CM VERB
-1.831301	ADVERB CM VERB-INF
-0.7953256	CM CM PREFIX
-0.3424227	CM CM PROPERNAME
-1.182398	CM CM RRB
-1.43104	CONJUNCTION CM ADVERB
-0.8129134	CONJUNCTION CM CONJUNCTION
-1.255897	CONJUNCTION CM NOUN
-1.043967	CONJUNCTION CM NOUN-CONST
-1.043967	CONJUNCTION CM NOUN-DEF
-0.6879746	CONJUNCTION CM PREFIX
-1.43104	CONJUNCTION CM PREPOSITION
-0.9988007	CONJUNCTION CM VERB
-0.920105	COPULA CM ADVERB
-0.7081754	COPULA CM CONJUNCTION
-0.6630086	COPULA CM PREFIX
-0.6181264	LRB CM CM
-0.6181264	LRB CM NUMERAL
-0.3170964	MODAL CM PREFIX
-1.782031	NOUN CM ADJECTIVE
-2.73595	NOUN CM ADJECTIVE-DEF
-1.691855	NOUN CM ADVERB
-0.866591	NOUN CM CONJUNCTION
-1.854582	NOUN CM COPULA
-2.73595	NOUN CM DOT
-2.117824	NOUN CM EXISTENTIAL
-2.117824	NOUN CM INTERROGATIVE
-2.73595	NOUN CM LRB
-2.348878	NOUN CM MODAL
-1.895975	NOUN CM NEGATION
-0.9274918	NOUN CM NOUN
-1.464611	NOUN CM NOUN-CONST
-2.117671	NOUN CM NOUN-DEF
-2.348878	NOUN CM NOUN-POSSESSIVE
-2.560807	NOUN CM NUMERAL
-2.117824	NOUN CM PARTICIPLE
-2.73595	NOUN CM PARTICIPLE-CONST
-0.4727288	NOUN CM PREFIX
-1.262506	NOUN CM PREPOSITION
-1.719883	NOUN CM PRONOUN
-1.782031	NOUN CM PROPERNAME
-2.117671	NOUN CM QUANTIFIER
-2.348878	NOUN CM QUOT
-0.866591	NOUN CM VERB
-1.941732	NOUN CM VERB-INF
-2.73595	NOUN CM WPREFIX
-1.162194	NOUN-CONST CM CONJUNCTION
-0.243038	NOUN-CONST CM PREFIX
-0.9870518	NOUN-CONST CM PROPERNAME
-0.9870518	NOUN-CONST CM VERB
-2.016511	NOUN-DEF CM ADJECTIVE
-2.759576	NOUN-DEF CM ADJECTIVE-DEF
-1.618571	NOUN-DEF CM ADVERB
-2.584434	NOUN-DEF CM CM
-0.9152796	NOUN-DEF CM CONJUNCTION
-1.618571	NOUN-DEF CM COPULA
-1.919601	NOUN-DEF CM EXISTENTIAL
-2.141297	NOUN-DEF CM INTERROGATIVE
-2.327337	NOUN-DEF CM MODAL
-1.805658	NOUN-DEF CM NEGATION
-1.457203	NOUN-DEF CM NOUN
-1.488237	NOUN-DEF CM NOUN-CONST
-1.428239	NOUN-DEF CM NOUN-DEF
-2.141297	NOUN-DEF CM NOUN-POSSESSIVE
-2.759576	NOUN-DEF CM NUMERAL
-2.759576	NOUN-DEF CM PARTICIPLE-CONST
-2.759576	NOUN-DEF CM PARTICIPLE-DEF
-0.5079813	NOUN-DEF CM PREFIX
-1.179238	NOUN-DEF CM PREPOSITION
-1.773473	NOUN-DEF CM PRONOUN
-1.134271	NOUN-DEF CM PROPERNAME
-2.584434	NOUN-DEF CM PROPERNAME-DEF
-2.016511	NOUN-DEF CM QUANTIFIER
-2.141297	NOUN-DEF CM QUOT
-0.8332412	NOUN-DEF CM VERB
-1.84042	NOUN-DEF CM VERB-INF
-2.090395	NOUN-POSSESSIVE CM ADJECTIVE
-1.703323	NOUN-POSSESSIVE CM ADVERB
-0.8354467	NOUN-POSSESSIVE CM CONJUNCTION
-2.090395	NOUN-POSSESSIVE CM COPULA
-1.658156	NOUN-POSSESSIVE CM EXISTENTIAL
-2.090395	NOUN-POSSESSIVE CM INTERROGATIVE
-2.090395	NOUN-POSSESSIVE CM MODAL
-1.703323	NOUN-POSSESSIVE CM NEGATION
-1.34733	NOUN-POSSESSIVE CM NOUN
-2.090395	NOUN-POSSESSIVE CM NOUN-CONST
-1.658156	NOUN-POSSESSIVE CM NOUN-DEF
-1.658156	NOUN-POSSESSIVE CM NOUN-POSSESSIVE
-2.090395	NOUN-POSSESSIVE CM PARTICIPLE
-0.5344167	NOUN-POSSESSIVE CM PREFIX
-1.296178	NOUN-POSSESSIVE CM PREPOSITION
-1.658156	NOUN-POSSESSIVE CM PRONOUN
-1.209027	NOUN-POSSESSIVE CM PROPERNAME
-1.658156	NOUN-POSSESSIVE CM QUOT
-0.8702087	NOUN-POSSESSIVE CM VERB
-1.560113	NUMERAL CM ADVERB
-0.7454821	NUMERAL CM CONJUNCTION
-1.328906	NUMERAL CM NOUN
-1.947185	NUMERAL CM NOUN-CONST
-1.20412	NUMERAL CM NUMERAL
-1.947185	NUMERAL CM PARTICIPLE
-0.6300887	NUMERAL CM PREFIX
-1.10721	NUMERAL CM PREPOSITION
-1.772043	NUMERAL CM PRONOUN
-1.065817	NUMERAL CM PROPERNAME
-1.772043	NUMERAL CM QUOT
-0.8284563	NUMERAL CM VERB
-1.947185	NUMERAL CM VERB-INF
-1.287133	PARTICIPLE CM ADVERB
-0.900061	PARTICIPLE CM CONJUNCTION
-0.4929155	PARTICIPLE CM PREFIX
-1.111991	PARTICIPLE CM PREPOSITION
-0.6690068	PARTICIPLE CM VERB
-0.9191564	PARTICIPLE-DEF CM CONJUNCTION
-0.4869173	PARTICIPLE-DEF CM PREFIX
-0.7440138	PARTICIPLE-DEF CM VERB
-1.295567	PREPOSITION CM ADVERB
-0.7215359	PREPOSITION CM CONJUNCTION
-1.86349	PREPOSITION CM EXISTENTIAL
-1.65156	PREPOSITION CM MODAL
-2.038632	PREPOSITION CM NEGATION
-1.65156	PREPOSITION CM NOUN
-2.038632	PREPOSITION CM NOUN-CONST
-1.244415	PREPOSITION CM NOUN-DEF
-2.038632	PREPOSITION CM NUMERAL
-2.038632	PREPOSITION CM PARTICIPLE
-0.5174158	PREPOSITION CM PREFIX
-1.420353	PREPOSITION CM PREPOSITION
-1.420506	PREPOSITION CM PRONOUN
-1.606393	PREPOSITION CM PROPERNAME
-1.86349	PREPOSITION CM QUOT
-0.9433846	PREPOSITION CM VERB
-1.65156	PRONOUN CM ADJECTIVE
-2.038632	PRONOUN CM ADJECTIVE-DEF
-1.295567	PRONOUN CM ADVERB
-0.9199035	PRONOUN CM CONJUNCTION
-1.606393	PRONOUN CM COPULA
-1.65156	PRONOUN CM MODAL
-1.65156	PRONOUN CM NEGATION
-2.038632	PRONOUN CM NOUN
-1.86349	PRONOUN CM NOUN-CONST
-1.420353	PRONOUN CM NOUN-DEF
-0.4910869	PRONOUN CM PREFIX
-1.198657	PRONOUN CM PREPOSITION
-1.65156	PRONOUN CM PRONOUN
-1.420506	PRONOUN CM PROPERNAME
-2.038632	PRONOUN CM QUOT
-0.8976271	PRONOUN CM VERB
-1.65156	PRONOUN CM VERB-INF
-2.191265	PROPERNAME CM ADJECTIVE
-2.634248	PROPERNAME CM ADJECTIVE-DEF
-1.738967	PROPERNAME CM ADVERB
-1.928023	PROPERNAME CM CM
-1.136907	PROPERNAME CM CONJUNCTION
-1.738967	PROPERNAME CM COPULA
-2.809391	PROPERNAME CM DOT
-2.634248	PROPERNAME CM EXISTENTIAL
-2.809391	PROPERNAME CM INTERROGATIVE
-2.634248	PROPERNAME CM MODAL
-1.793325	PROPERNAME CM NEGATION
-1.378351	PROPERNAME CM NOUN
-1.156503	PROPERNAME CM NOUN-CONST
-1.589205	PROPERNAME CM NOUN-DEF
-1.928023	PROPERNAME CM NOUN-POSSESSIVE
-1.714143	PROPERNAME CM NUMERAL
-2.422319	PROPERNAME CM PARTICIPLE
-2.809391	PROPERNAME CM PARTICIPLE-CONST
-2.634248	PROPERNAME CM PARTICIPLE-DEF
-0.5544426	PROPERNAME CM PREFIX
-1.288175	PROPERNAME CM PREPOSITION
-2.191265	PROPERNAME CM PRONOUN
-0.94411	PROPERNAME CM PROPERNAME
-1.738967	PROPERNAME CM QUOT
-0.7364198	PROPERNAME CM VERB
-2.015173	PROPERNAME CM VERB-INF
-1.254948	PROPERNAME-DEF CM CONJUNCTION
-1.079806	PROPERNAME-DEF CM NOUN-DEF
-0.4607309	PROPERNAME-DEF CM PREFIX
-1.254948	PROPERNAME-DEF CM PREPOSITION
-1.079806	PROPERNAME-DEF CM PROPERNAME
-1.254948	PROPERNAME-DEF CM VERB
-1.02656	QUANTIFIER CM CONJUNCTION
-1.201703	QUANTIFIER CM INTERROGATIVE
-0.8146307	QUANTIFIER CM NOUN-CONST
-0.5835766	QUANTIFIER CM PREFIX
-1.02656	QUANTIFIER CM VERB
-1.965863	QUOT CM ADVERB
-1.30103	QUOT CM CONJUNCTION
-1.221849	QUOT CM NOUN
-1.522726	QUOT CM NOUN-CONST
-2.141005	QUOT CM NOUN-DEF
-1.708766	QUOT CM NUMERAL
-0.7212464	QUOT CM PREFIX
-1.522879	QUOT CM PREPOSITION
-1.39794	QUOT CM PRONOUN
-2.141005	QUOT CM QUANTIFIER
-1.753933	QUOT CM QUOT
-0.3187588	QUOT CM VERB
-0.9229848	RRB CM CONJUNCTION
-1.66605	RRB CM NOUN
-0.5708023	RRB CM PREFIX
-1.490907	RRB CM PREPOSITION
-0.9229848	RRB CM PROPERNAME
-1.490907	RRB CM QUOT
-0.5956259	RRB CM VERB
-1.278754	VERB CM ADVERB
-0.6299502	VERB CM CONJUNCTION
-2.160121	VERB CM COPULA
-1.773049	VERB CM NEGATION
-1.984979	VERB CM NOUN
-1.773049	VERB CM NOUN-CONST
-0.5348164	VERB CM PREFIX
-0.9584184	VERB CM PREPOSITION
-1.773049	VERB CM PRONOUN
-1.984979	VERB CM PROPERNAME
-1.541842	VERB CM QUANTIFIER
-1.727882	VERB CM QUOT
-0.9584184	VERB CM VERB
-2.160121	VERB CM VERB-INF
-1.389108	VERB-INF CM ADVERB
-0.5781478	VERB-INF CM CONJUNCTION
-1.564251	VERB-INF CM NOUN
-0.5481846	VERB-INF CM PREFIX
-1.564251	VERB-INF CM PRONOUN
-0.9461246	VERB-INF CM VERB
-1.389108	VERB-INF CM VERB-INF
-2.183347	<s> CONJUNCTION ADJECTIVE
-1.23976	<s> CONJUNCTION ADVERB
-1.477121	<s> CONJUNCTION CM
-1.138303	<s> CONJUNCTION CONJUNCTION
-2.183347	<s> CONJUNCTION COPULA
-1.518514	<s> CONJUNCTION EXISTENTIAL
-1.971417	<s> CONJUNCTION INTERROGATIVE
-2.358489	<s> CONJUNCTION MODAL
-1.740363	<s> CONJUNCTION NEGATION
-1.404571	<s> CONJUNCTION NOUN
-1.314394	<s> CONJUNCTION NOUN-CONST
-1.120574	<s> CONJUNCTION NOUN-DEF
-2.358489	<s> CONJUNCTION NOUN-POSSESSIVE
-0.6551911	<s> CONJUNCTION PREFIX
-1.288065	<s> CONJUNCTION PREPOSITION
-1.288065	<s> CONJUNCTION PRONOUN
-1.477121	<s> CONJUNCTION PROPERNAME
-1.92625	<s> CONJUNCTION QUANTIFIER
-0.8025106	<s> CONJUNCTION VERB
-1.477121	<s> CONJUNCTION VERB-INF
-1.04124	ADJECTIVE CONJUNCTION ADJECTIVE
-1.484376	ADJECTIVE CONJUNCTION ADVERB
-1.041393	ADJECTIVE CONJUNCTION CONJUNCTION
-1.659519	ADJECTIVE CONJUNCTION NEGATION
-1.041393	ADJECTIVE CONJUNCTION NOUN
-1.659519	ADJECTIVE CONJUNCTION NOUN-CONST
-1.659519	ADJECTIVE CONJUNCTION NOUN-DEF
-0.6434527	ADJECTIVE CONJUNCTION PREFIX
-1.22728	ADJECTIVE CONJUNCTION PREPOSITION
-1.484376	ADJECTIVE CONJUNCTION PRONOUN
-1.484376	ADJECTIVE CONJUNCTION VERB
-0.819544	ADJECTIVE CONJUNCTION VERB-INF
-0.9658625	ADJECTIVE-DEF CONJUNCTION ADJECTIVE-DEF
-0.9658625	ADJECTIVE-DEF CONJUNCTION ADVERB
-0.708766	ADJECTIVE-DEF CONJUNCTION PREFIX
-1.141005	ADJECTIVE-DEF CONJUNCTION VERB
-0.9658625	ADJECTIVE-DEF CONJUNCTION VERB-INF
-1.175939	ADVERB CONJUNCTION ADVERB
-1.794218	ADVERB CONJUNCTION COPULA
-1.794218	ADVERB CONJUNCTION NEGATION
-1.619075	ADVERB CONJUNCTION NOUN
-1.794218	ADVERB CONJUNCTION NOUN-CONST
-1.407145	ADVERB CONJUNCTION NOUN-DEF
-1.794218	ADVERB CONJUNCTION NOUN-POSSESSIVE
-0.5392691	ADVERB CONJUNCTION PREFIX
-1.175939	ADVERB CONJUNCTION PREPOSITION
-1	ADVERB CONJUNCTION PRONOUN
-1.794218	ADVERB CONJUNCTION PROPERNAME
-1.794218	ADVERB CONJUNCTION QUOT
-0.8750613	ADVERB CONJUNCTION VERB
-1.176091	ADVERB CONJUNCTION VERB-INF
-0.7942176	CLN CONJUNCTION NOUN
-0.7942176	CLN CONJUNCTION NOUN-DEF
-0.7942176	CLN CONJUNCTION PREFIX
-0.7942176	CLN CONJUNCTION PRONOUN
-1.845787	CM CONJUNCTION ADJECTIVE
-2.252932	CM CONJUNCTION ADJECTIVE-DEF
-1.243727	CM CONJUNCTION ADVERB
-2.252932	CM CONJUNCTION CLN
-1.896939	CM CONJUNCTION CM
-1.101059	CM CONJUNCTION CONJUNCTION
-1.896939	CM CONJUNCTION COPULA
-1.896939	CM CONJUNCTION EXISTENTIAL
-2.640004	CM CONJUNCTION INTERROGATIVE
-2.021878	CM CONJUNCTION MODAL
-1.220246	CM CONJUNCTION NEGATION
-1.322908	CM CONJUNCTION NOUN
-1.368666	CM CONJUNCTION NOUN-CONST
-1.137272	CM CONJUNCTION NOUN-DEF
-1.758637	CM CONJUNCTION NOUN-POSSESSIVE
-2.252932	CM CONJUNCTION NUMERAL
-0.6153379	CM CONJUNCTION PREFIX
-1.208965	CM CONJUNCTION PREPOSITION
-1.281515	CM CONJUNCTION PRONOUN
-1.720848	CM CONJUNCTION PROPERNAME
-2.640004	CM CONJUNCTION PROPERNAME-DEF
-2.021878	CM CONJUNCTION QUANTIFIER
-2.021878	CM CONJUNCTION QUOT
-1.000689	CM CONJUNCTION VERB
-1.385056	CM CONJUNCTION VERB-INF
-1.933397	CONJUNCTION CONJUNCTION ADJECTIVE
-1.501158	CONJUNCTION CONJUNCTION ADVERB
-1.315118	CONJUNCTION CONJUNCTION CM
-1.546325	CONJUNCTION CONJUNCTION CONJUNCTION
-1.31527	CONJUNCTION CONJUNCTION COPULA
-1.933397	CONJUNCTION CONJUNCTION EXISTENTIAL
-1.933397	CONJUNCTION CONJUNCTION MODAL
-1.31527	CONJUNCTION CONJUNCTION NEGATION
-1.190332	CONJUNCTION CONJUNCTION NOUN
-1.501158	CONJUNCTION CONJUNCTION NOUN-CONST
-1.052029	CONJUNCTION CONJUNCTION NOUN-DEF
-1.933397	CONJUNCTION CONJUNCTION NOUN-POSSESSIVE
-0.7712024	CONJUNCTION CONJUNCTION PREFIX
-1.139179	CONJUNCTION CONJUNCTION PREPOSITION
-1.501158	CONJUNCTION CONJUNCTION PRONOUN
-1.758254	CONJUNCTION CONJUNCTION PROPERNAME
-1.933397	CONJUNCTION CONJUNCTION QUANTIFIER
-0.8893017	CONJUNCTION CONJUNCTION VERB
-1.31527	CONJUNCTION CONJUNCTION VERB-INF
-0.5228788	COPULA CONJUNCTION NOUN
-0.9658625	COPULA CONJUNCTION NOUN-CONST
-1.141005	COPULA CONJUNCTION NOUN-DEF
-0.708766	COPULA CONJUNCTION PREFIX
-0.1759386	EXISTENTIAL CONJUNCTION NOUN
-0.0549629	INTERROGATIVE CONJUNCTION PREFIX
-0.6850732	LRB CONJUNCTION PREFIX
-0.6850732	LRB CONJUNCTION VERB
-0.5099306	MODAL CONJUNCTION VERB-INF
-0.5389451	NEGATION CONJUNCTION PREFIX
-0.5389451	NEGATION CONJUNCTION VERB
-1.599031	NOUN CONJUNCTION ADVERB
-1.810961	NOUN CONJUNCTION CONJUNCTION
-1.599031	NOUN CONJUNCTION COPULA
-1.553864	NOUN CONJUNCTION EXISTENTIAL
-1.599031	NOUN CONJUNCTION NEGATION
-0.7311547	NOUN CONJUNCTION NOUN
-1.066947	NOUN CONJUNCTION NOUN-CONST
-1.810961	NOUN CONJUNCTION NOUN-DEF
-0.640978	NOUN CONJUNCTION PREFIX
-1.367977	NOUN CONJUNCTION PREPOSITION
-1.599031	NOUN CONJUNCTION PRONOUN
-1.986103	NOUN CONJUNCTION PROPERNAME
-0.9420081	NOUN CONJUNCTION VERB
-0.9700368	NOUN CONJUNCTION VERB-INF
-1.651604	NOUN-DEF CONJUNCTION ADJECTIVE
-1.439675	NOUN-DEF CONJUNCTION ADVERB
-1.20862	NOUN-DEF CONJUNCTION CONJUNCTION
-1.826747	NOUN-DEF CONJUNCTION COPULA
-1.826747	NOUN-DEF CONJUNCTION EXISTENTIAL
-1.826747	NOUN-DEF CONJUNCTION NOUN
-0.9867718	NOUN-DEF CONJUNCTION NOUN-CONST
-0.9867718	NOUN-DEF CONJUNCTION NOUN-DEF
-1.826747	NOUN-DEF CONJUNCTION NOUN-POSSESSIVE
-0.7563228	NOUN-DEF CONJUNCTION PREFIX
-1.651604	NOUN-DEF CONJUNCTION PREPOSITION
-1.651604	NOUN-DEF CONJUNCTION PRONOUN
-1.651604	NOUN-DEF CONJUNCTION PROPERNAME
-1.826747	NOUN-DEF CONJUNCTION QUOT
-0.7563228	NOUN-DEF CONJUNCTION VERB
-1.20862	NOUN-DEF CONJUNCTION VERB-INF
-1.254948	NOUN-POSSESSIVE CONJUNCTION ADVERB
-1.254948	NOUN-POSSESSIVE CONJUNCTION NOUN-CONST
-1.079806	NOUN-POSSESSIVE CONJUNCTION NOUN-DEF
-0.6368221	NOUN-POSSESSIVE CONJUNCTION PREFIX
-1.254948	NOUN-POSSESSIVE CONJUNCTION PRONOUN
-1.254948	NOUN-POSSESSIVE CONJUNCTION VERB
-0.298001	PARTICIPLE CONJUNCTION PREFIX
-1.607455	PREFIX CONJUNCTION ADJECTIVE
-1.344214	PREFIX CONJUNCTION ADVERB
-1.793342	PREFIX CONJUNCTION CM
-1.344214	PREFIX CONJUNCTION CONJUNCTION
-2.050439	PREFIX CONJUNCTION COPULA
-2.050439	PREFIX CONJUNCTION EXISTENTIAL
-1.155157	PREFIX CONJUNCTION NEGATION
-1.271663	PREFIX CONJUNCTION NOUN
-1.344214	PREFIX CONJUNCTION NOUN-CONST
-1.043184	PREFIX CONJUNCTION NOUN-DEF
-1.607302	PREFIX CONJUNCTION NOUN-POSSESSIVE
-2.225581	PREFIX CONJUNCTION NUMERAL
-0.7835463	PREFIX CONJUNCTION PREFIX
-1.155157	PREFIX CONJUNCTION PREPOSITION
-1.181486	PREFIX CONJUNCTION PRONOUN
-1.607302	PREFIX CONJUNCTION PROPERNAME
-2.050439	PREFIX CONJUNCTION QUOT
-0.8174046	PREFIX CONJUNCTION VERB
-1.607302	PREFIX CONJUNCTION VERB-INF
-1.148099	PREPOSITION CONJUNCTION ADVERB
-0.8372727	PREPOSITION CONJUNCTION NOUN
-1.405195	PREPOSITION CONJUNCTION NOUN-CONST
-0.9622114	PREPOSITION CONJUNCTION NOUN-DEF
-1.580338	PREPOSITION CONJUNCTION NOUN-POSSESSIVE
-0.6611814	PREPOSITION CONJUNCTION PREFIX
-1.148099	PREPOSITION CONJUNCTION PREPOSITION
-1.580338	PREPOSITION CONJUNCTION PRONOUN
-1.193266	PREPOSITION CONJUNCTION VERB
-1.148099	PREPOSITION CONJUNCTION VERB-INF
-0.6713865	PRONOUN CONJUNCTION ADJECTIVE
-1.238233	PRONOUN CONJUNCTION CONJUNCTION
-1.625305	PRONOUN CONJUNCTION COPULA
-1.625305	PRONOUN CONJUNCTION MODAL
-1.450162	PRONOUN CONJUNCTION NOUN
-1.625305	PRONOUN CONJUNCTION NOUN-DEF
-1.007179	PRONOUN CONJUNCTION PREFIX
-1.450162	PRONOUN CONJUNCTION PREPOSITION
-1.450162	PRONOUN CONJUNCTION PRONOUN
-0.6092386	PRONOUN CONJUNCTION VERB
-1.450162	PRONOUN CONJUNCTION VERB-INF
-1.208901	PROPERNAME CONJUNCTION COPULA
-1.384043	PROPERNAME CONJUNCTION EXISTENTIAL
-1.208901	PROPERNAME CONJUNCTION NOUN-DEF
-1.208901	PROPERNAME CONJUNCTION NOUN-POSSESSIVE
-0.9518041	PROPERNAME CONJUNCTION PREFIX
-1.208901	PROPERNAME CONJUNCTION PREPOSITION
-0.9518041	PROPERNAME CONJUNCTION VERB
-0.7659168	PROPERNAME CONJUNCTION VERB-INF
-0.2668925	QUANTIFIER CONJUNCTION PREFIX
-1.254948	QUOT CONJUNCTION ADVERB
-1.079806	QUOT CONJUNCTION CONJUNCTION
-1.254948	QUOT CONJUNCTION NOUN
-0.8227094	QUOT CONJUNCTION PREFIX
-1.079806	QUOT CONJUNCTION QUOT
-0.8678762	QUOT CONJUNCTION VERB
-1.254948	QUOT CONJUNCTION VERB-INF
-0.9539185	SCLN CONJUNCTION CONJUNCTION
-0.9539185	SCLN CONJUNCTION NOUN-CONST
-0.5668463	SCLN CONJUNCTION PREFIX
-2.327114	VERB CONJUNCTION ADJECTIVE
-1.940041	VERB CONJUNCTION ADVERB
-2.151971	VERB CONJUNCTION CM
-1.708987	VERB CONJUNCTION CONJUNCTION
-2.327114	VERB CONJUNCTION COPULA
-1.445746	VERB CONJUNCTION EXISTENTIAL
-1.708987	VERB CONJUNCTION MODAL
-1.940041	VERB CONJUNCTION NEGATION
-1.283018	VERB CONJUNCTION NOUN
-1.106927	VERB CONJUNCTION NOUN-CONST
-0.8850784	VERB CONJUNCTION NOUN-DEF
-1.708987	VERB CONJUNCTION NOUN-POSSESSIVE
-1.487138	VERB CONJUNCTION NUMERAL
-2.327114	VERB CONJUNCTION PARTICIPLE-CONST
-0.7237104	VERB CONJUNCTION PREFIX
-1.186108	VERB CONJUNCTION PREPOSITION
-1.144716	VERB CONJUNCTION PRONOUN
-1.283018	VERB CONJUNCTION PROPERNAME
-1.708987	VERB CONJUNCTION QUANTIFIER
-1.487138	VERB CONJUNCTION QUOT
-1.106927	VERB CONJUNCTION VERB
-1.407957	VERB CONJUNCTION VERB-INF
-1.318045	VERB-INF CONJUNCTION NOUN
-1.493188	VERB-INF CONJUNCTION NOUN-CONST
-0.8749086	VERB-INF CONJUNCTION NOUN-DEF
-1.493188	VERB-INF CONJUNCTION NOUN-POSSESSIVE
-1.060949	VERB-INF CONJUNCTION PREFIX
-1.060949	VERB-INF CONJUNCTION PREPOSITION
-1.106115	VERB-INF CONJUNCTION PRONOUN
-1.106115	VERB-INF CONJUNCTION VERB
-0.8749086	VERB-INF CONJUNCTION VERB-INF
-1.43104	<s> COPULA ADJECTIVE
-1.43104	<s> COPULA ADVERB
-1.255897	<s> COPULA MODAL
-0.6368221	<s> COPULA NOUN
-1.255897	<s> COPULA NOUN-CONST
-1.43104	<s> COPULA PREPOSITION
-1.255897	<s> COPULA PRONOUN
-1.43104	<s> COPULA QUANTIFIER
-0.6368221	<s> COPULA VERB
-0.8678762	ADJECTIVE COPULA ADJECTIVE
-1.079806	ADJECTIVE COPULA ADVERB
-0.8678762	ADJECTIVE COPULA NOUN
-1.254948	ADJECTIVE COPULA NOUN-CONST
-0.6368221	ADJECTIVE COPULA VERB
-1.254948	ADJECTIVE COPULA VERB-INF
-0.9620588	ADJECTIVE-DEF COPULA ADJECTIVE
-1.193266	ADJECTIVE-DEF COPULA ADVERB
-1.405195	ADJECTIVE-DEF COPULA CONJUNCTION
-1.580338	ADJECTIVE-DEF COPULA MODAL
-0.7403627	ADJECTIVE-DEF COPULA NOUN
-1.193266	ADJECTIVE-DEF COPULA NOUN-CONST
-1.193266	ADJECTIVE-DEF COPULA NOUN-DEF
-1.580338	ADJECTIVE-DEF COPULA PARTICIPLE
-1.148099	ADJECTIVE-DEF COPULA PREFIX
-1.580338	ADJECTIVE-DEF COPULA PREPOSITION
-1.405195	ADJECTIVE-DEF COPULA PROPERNAME
-1.193266	ADJECTIVE-DEF COPULA VERB
-1.580338	ADJECTIVE-DEF COPULA VERB-INF
-1.032686	ADVERB COPULA ADJECTIVE
-1.419759	ADVERB COPULA ADVERB
-1.419759	ADVERB COPULA CM
-1.032686	ADVERB COPULA MODAL
-1.244616	ADVERB COPULA NOUN
-1.244616	ADVERB COPULA NOUN-CONST
-1.419759	ADVERB COPULA NOUN-DEF
-1.419759	ADVERB COPULA NUMERAL
-1.419759	ADVERB COPULA PREFIX
-1.244616	ADVERB COPULA PRONOUN
-1.419759	ADVERB COPULA PROPERNAME
-1.032686	ADVERB COPULA VERB
-0.9138138	CM COPULA ADJECTIVE
-1.32155	CM COPULA ADVERB
-1.753789	CM COPULA CONJUNCTION
-1.135663	CM COPULA MODAL
-0.7676858	CM COPULA NOUN
-1.13551	CM COPULA NOUN-CONST
-1.366717	CM COPULA NOUN-DEF
-1.753789	CM COPULA NOUN-POSSESSIVE
-1.13551	CM COPULA PREFIX
-1.578646	CM COPULA PREPOSITION
-1.366717	CM COPULA PRONOUN
-1.753789	CM COPULA QUANTIFIER
-0.8346326	CM COPULA VERB
-0.8129134	CONJUNCTION COPULA ADJECTIVE
-0.6879746	CONJUNCTION COPULA MODAL
-0.9988007	CONJUNCTION COPULA NOUN
-1.43104	CONJUNCTION COPULA PARTICIPLE
-1.43104	CONJUNCTION COPULA PREPOSITION
-1.43104	CONJUNCTION COPULA PRONOUN
-0.6879746	CONJUNCTION COPULA VERB
-0.3170964	COPULA COPULA NOUN
-0.5099306	INTERROGATIVE COPULA NOUN-DEF
-0.6850732	INTERROGATIVE COPULA PREFIX
-0.6850732	INTERROGATIVE COPULA VERB
-0.6494846	MODAL COPULA ADJECTIVE
-1.428261	MODAL COPULA CM
-1.603403	MODAL COPULA COPULA
-0.860338	MODAL COPULA NOUN
-1.216331	MODAL COPULA NOUN-DEF
-1.603403	MODAL COPULA PREFIX
-1.428261	MODAL COPULA VERB
-0.4846744	MODAL COPULA VERB-INF
-0.6368221	NEGATION COPULA ADJECTIVE
-0.9890046	NEGATION COPULA ADVERB
-1.344998	NEGATION COPULA MODAL
-0.8129134	NEGATION COPULA NOUN
-1.556927	NEGATION COPULA NOUN-DEF
-1.73207	NEGATION COPULA PARTICIPLE
-1.113943	NEGATION COPULA PREFIX
-1.556927	NEGATION COPULA PREPOSITION
-1.73207	NEGATION COPULA PRONOUN
-1.556927	NEGATION COPULA QUANTIFIER
-1.556927	NEGATION COPULA QUOT
-0.9378521	NEGATION COPULA VERB
-1.245295	NOUN COPULA ADJECTIVE
-1.632367	NOUN COPULA ADVERB
-1.632367	NOUN COPULA MODAL
-0.6462637	NOUN COPULA NOUN
-1.457224	NOUN COPULA NOUN-CONST
-1.457224	NOUN COPULA NOUN-DEF
-0.8893017	NOUN COPULA PREFIX
-1.632367	NOUN COPULA PROPERNAME
-0.5619428	NOUN COPULA VERB
-0.7826517	NOUN-DEF COPULA ADJECTIVE
-2.127777	NOUN-DEF COPULA ADJECTIVE-DEF
-1.246409	NOUN-DEF COPULA ADVERB
-1.952634	NOUN-DEF COPULA CM
-2.127777	NOUN-DEF COPULA CONJUNCTION
-1.509498	NOUN-DEF COPULA MODAL
-0.7964401	NOUN-DEF COPULA NOUN
-1.287802	NOUN-DEF COPULA NOUN-CONST
-1.384712	NOUN-DEF COPULA NOUN-DEF
-1.50965	NOUN-DEF COPULA NUMERAL
-1.952634	NOUN-DEF COPULA PARTICIPLE
-0.856438	NOUN-DEF COPULA PREFIX
-1.287802	NOUN-DEF COPULA PREPOSITION
-1.509498	NOUN-DEF COPULA PROPERNAME
-2.127777	NOUN-DEF COPULA QUOT
-0.9260739	NOUN-DEF COPULA VERB
-1.695538	NOUN-DEF COPULA VERB-INF
-2.127777	NOUN-DEF COPULA WPREFIX
-0.7657641	NOUN-POSSESSIVE COPULA ADJECTIVE
-0.9518041	NOUN-POSSESSIVE COPULA NOUN
-1.208901	NOUN-POSSESSIVE COPULA PREFIX
-1.208901	NOUN-POSSESSIVE COPULA PREPOSITION
-0.996971	NOUN-POSSESSIVE COPULA PROPERNAME
-1.384043	NOUN-POSSESSIVE COPULA VERB
-1.384043	NOUN-POSSESSIVE COPULA VERB-INF
-0.9191564	NUMERAL COPULA NOUN
-0.9191564	NUMERAL COPULA NOUN-DEF
-0.7440138	NUMERAL COPULA PREFIX
-0.3170964	PARTICIPLE COPULA CM
-0.3170964	PARTICIPLE-DEF COPULA NOUN-CONST
-0.7514991	PREFIX COPULA ADJECTIVE
-1.198657	PREFIX COPULA ADVERB
-1.606393	PREFIX COPULA CM
-2.038632	PREFIX COPULA DOT
-1.198657	PREFIX COPULA MODAL
-1.198657	PREFIX COPULA NOUN
-1.244415	PREFIX COPULA NOUN-CONST
-1.86349	PREFIX COPULA NOUN-DEF
-2.038632	PREFIX COPULA NOUN-POSSESSIVE
-1.606393	PREFIX COPULA PARTICIPLE
-1.119476	PREFIX COPULA PREFIX
-1.022566	PREFIX COPULA PREPOSITION
-2.038632	PREFIX COPULA PRONOUN
-2.038632	PREFIX COPULA PROPERNAME
-2.038632	PREFIX COPULA QUANTIFIER
-0.6188735	PREFIX COPULA VERB
-1.220186	PREPOSITION COPULA ADJECTIVE
-1.220186	PREPOSITION COPULA CONJUNCTION
-0.7879473	PREPOSITION COPULA NOUN
-1.220186	PREPOSITION COPULA NOUN-DEF
-0.8331141	PREPOSITION COPULA PREFIX
-1.220186	PREPOSITION COPULA VERB
-0.9138138	PRONOUN COPULA ADJECTIVE
-1.542808	PRONOUN COPULA ADVERB
-1.754738	PRONOUN COPULA CONJUNCTION
-1.311601	PRONOUN COPULA MODAL
-0.8111515	PRONOUN COPULA NOUN
-1.010724	PRONOUN COPULA NOUN-CONST
-1.186815	PRONOUN COPULA NOUN-DEF
-1.92988	PRONOUN COPULA NOUN-POSSESSIVE
-1.542808	PRONOUN COPULA NUMERAL
-1.754738	PRONOUN COPULA PARTICIPLE
-1.010724	PRONOUN COPULA PREFIX
-1.754738	PRONOUN COPULA PROPERNAME
-0.6919651	PRONOUN COPULA VERB
-1.92988	PRONOUN COPULA WPREFIX
-1.060698	PROPERNAME COPULA ADJECTIVE
-1.62862	PROPERNAME COPULA ADJECTIVE-DEF
-1.62862	PROPERNAME COPULA ADVERB
-1.416691	PROPERNAME COPULA CONJUNCTION
-1.371524	PROPERNAME COPULA MODAL
-0.6850342	PROPERNAME COPULA NOUN
-1.060698	PROPERNAME COPULA NOUN-CONST
-1.009545	PROPERNAME COPULA NOUN-DEF
-0.9637879	PROPERNAME COPULA PREFIX
-1.371524	PROPERNAME COPULA PREPOSITION
-0.8846066	PROPERNAME COPULA VERB
-0.6648325	QUANTIFIER COPULA NOUN
-0.8399752	QUANTIFIER COPULA PREPOSITION
-0.6648325	QUANTIFIER COPULA VERB
-1.201703	QUOT COPULA ADJECTIVE
-0.8146307	QUOT COPULA ADVERB
-0.4586379	QUOT COPULA NOUN
-1.201703	QUOT COPULA PREFIX
-0.8146307	QUOT COPULA VERB
-0.9300241	VERB COPULA ADJECTIVE
-1.141954	VERB COPULA NOUN
-1.141954	VERB COPULA NOUN-DEF
-0.69897	VERB COPULA PREFIX
-1.317096	VERB COPULA PREPOSITION
-1.317096	VERB COPULA PROPERNAME
-1.317096	VERB COPULA VERB
-0.09691001	ADJECTIVE DASH ADJECTIVE
-0.8952814	ADJECTIVE-CONST DASH ADJECTIVE
-0.3273589	ADJECTIVE-CONST DASH NOUN
-0.4522977	ADJECTIVE-CONST DASH NOUN-DEF
-0.08715018	ADJECTIVE-DEF DASH ADJECTIVE
-1.182398	ADJECTIVE-DEF DASH ADJECTIVE-DEF
-0.1858873	ADVERB DASH NUMERAL
-0.09177037	NEGATION DASH ADJECTIVE
-1.162194	NEGATION DASH PARTICIPLE
-0.9580529	NOUN DASH ADJECTIVE
-1.345125	NOUN DASH ADVERB
-0.3912066	NOUN DASH NOUN
-0.9580529	NOUN DASH NUMERAL
-0.912886	NOUN DASH PREFIX
-0.3080918	NOUN-CONST DASH NOUN
-0.5023571	NOUN-CONST DASH NOUN-DEF
-1.758254	NOUN-CONST DASH NOUN-POSSESSIVE
-1.546325	NOUN-CONST DASH NUMERAL
-1.093422	NOUN-CONST DASH PROPERNAME
-0.7942176	NOUN-DEF DASH ADJECTIVE
-0.3619786	NOUN-DEF DASH NOUN
-0.7942176	NOUN-DEF DASH VERB
-0.2528341	NUMERAL DASH NUMERAL
-0.2310542	PARTICIPLE-CONST DASH NOUN
-0.04206134	PREFIX DASH NUMERAL
-1.652889	PREFIX DASH PREFIX
-0.611856	PREPOSITION DASH NOUN
-1.044095	PREPOSITION DASH NOUN-DEF
-0.6570229	PREPOSITION DASH PRONOUN
-0.8409238	PROPERNAME DASH NOUN
-0.1346986	PROPERNAME DASH PROPERNAME
-0.2787536	WPREFIX DASH ADJECTIVE
-1.023481	WPREFIX DASH MODAL
-0.69897	WPREFIX DASH NOUN
-1.817699	WPREFIX DASH NOUN-CONST
-1.430627	WPREFIX DASH NOUN-DEF
-1.817699	WPREFIX DASH NOUN-POSSESSIVE
-1.642556	WPREFIX DASH PARTICIPLE
-1.817699	WPREFIX DASH PROPERNAME
-1.430627	WPREFIX DASH VERB
-0.02632894	<s> DOT </s>
-0.0009076168	ADJECTIVE DOT </s>
-0.001673584	ADJECTIVE-DEF DOT </s>
-0.002063161	ADVERB DOT </s>
-0.1067061	CM DOT </s>
-0.0549629	COPULA DOT </s>
-0.04575749	NEGATION DOT </s>
-0.0006147128	NOUN DOT </s>
-0.04575749	NOUN-CONST DOT </s>
-0.0005786736	NOUN-DEF DOT </s>
-0.002166062	NOUN-POSSESSIVE DOT </s>
-0.002984853	NUMERAL DOT </s>
-0.009759837	PARTICIPLE DOT </s>
-0.03778856	PARTICIPLE-DEF DOT </s>
-0.1410051	PREFIX DOT </s>
-0.002503145	PREPOSITION DOT </s>
-0.004237053	PRONOUN DOT </s>
-0.0008712029	PROPERNAME DOT </s>
-0.03476211	PROPERNAME-DEF DOT </s>
-0.05115252	QUANTIFIER DOT </s>
-0.001867936	QUOT DOT </s>
-0.00513964	RRB DOT </s>
-0.00282929	VERB DOT </s>
-0.007686829	VERB-INF DOT </s>
-1.588163	<s> EXISTENTIAL CONJUNCTION
-0.3864602	<s> EXISTENTIAL NOUN
-0.7939455	<s> EXISTENTIAL PREFIX
-0.6342447	<s> EXISTENTIAL PREPOSITION
-1.413021	<s> EXISTENTIAL QUANTIFIER
-1.588163	<s> EXISTENTIAL VERB
-0.6181264	ADJECTIVE EXISTENTIAL NOUN
-0.6181264	ADJECTIVE EXISTENTIAL PREFIX
-0.3170964	ADJECTIVE-DEF EXISTENTIAL NOUN
-0.9191564	ADVERB EXISTENTIAL ADVERB
-0.5320842	ADVERB EXISTENTIAL NOUN
-0.9191564	ADVERB EXISTENTIAL PREFIX
-0.9191564	ADVERB EXISTENTIAL PREPOSITION
-0.7781513	CM EXISTENTIAL ADVERB
-0.5563025	CM EXISTENTIAL NOUN
-0.7781513	CM EXISTENTIAL PREFIX
-0.60206	CM EXISTENTIAL PREPOSITION
-1.221135	CM EXISTENTIAL QUANTIFIER
-1.115661	CONJUNCTION EXISTENTIAL ADVERB
-0.5488145	CONJUNCTION EXISTENTIAL NOUN
-0.8846066	CONJUNCTION EXISTENTIAL PREFIX
-0.4323089	CONJUNCTION EXISTENTIAL PREPOSITION
-1.32759	CONJUNCTION EXISTENTIAL QUANTIFIER
-0.1858873	NEGATION EXISTENTIAL NOUN
-0.599031	NOUN EXISTENTIAL NOUN
-0.9861032	NOUN EXISTENTIAL PREFIX
-0.599031	NOUN EXISTENTIAL PREPOSITION
-0.9435861	NOUN-DEF EXISTENTIAL ADVERB
-0.5004497	NOUN-DEF EXISTENTIAL NOUN
-1.118729	NOUN-DEF EXISTENTIAL NUMERAL
-0.6690068	PREFIX EXISTENTIAL NOUN
-1.685073	PREFIX EXISTENTIAL NOUN-CONST
-0.6690068	PREFIX EXISTENTIAL PREFIX
-0.3265841	PREFIX EXISTENTIAL PREPOSITION
-1.685073	PREFIX EXISTENTIAL VERB
-0.2218488	PREPOSITION EXISTENTIAL NOUN
-0.7942176	PRONOUN EXISTENTIAL NOUN
-0.6190751	PRONOUN EXISTENTIAL PREFIX
-0.9191564	PROPERNAME EXISTENTIAL CONJUNCTION
-0.1760913	PROPERNAME EXISTENTIAL NOUN
-0.7430651	QUOT EXISTENTIAL NOUN
-0.5679225	QUOT EXISTENTIAL PREPOSITION
-0.5679225	QUOT EXISTENTIAL QUANTIFIER
-1.265069	<s> INTERROGATIVE ADVERB
-1.697308	<s> INTERROGATIVE CM
-1.522165	<s> INTERROGATIVE CONJUNCTION
-1.265069	<s> INTERROGATIVE NOUN
-1.310235	<s> INTERROGATIVE NOUN-CONST
-1.265069	<s> INTERROGATIVE NOUN-DEF
-0.6532125	<s> INTERROGATIVE PREFIX
-1.265069	<s> INTERROGATIVE PREPOSITION
-0.9542425	<s> INTERROGATIVE PRONOUN
-1.697308	<s> INTERROGATIVE PROPERNAME
-1.522165	<s> INTERROGATIVE QM
-0.90309	<s> INTERROGATIVE VERB
-1.697308	<s> INTERROGATIVE VERB-INF
-0.4869173	ADVERB INTERROGATIVE PREFIX
-0.7062252	CLN INTERROGATIVE MODAL
-0.8813679	CLN INTERROGATIVE PREFIX
-1.331337	CM INTERROGATIVE ADJECTIVE
-1.331337	CM INTERROGATIVE NOUN
-1.331337	CM INTERROGATIVE NOUN-CONST
-1.156194	CM INTERROGATIVE NOUN-DEF
-0.8990977	CM INTERROGATIVE PREFIX
-0.4913617	CM INTERROGATIVE VERB
-1.331337	CM INTERROGATIVE VERB-INF
-0.7942176	CONJUNCTION INTERROGATIVE ADVERB
-0.7942176	CONJUNCTION INTERROGATIVE NOUN-DEF
-0.7942176	CONJUNCTION INTERROGATIVE PRONOUN
-0.7430651	NOUN INTERROGATIVE VERB
-0.7430651	NOUN INTERROGATIVE VERB-INF
-0.3170964	NOUN-CONST INTERROGATIVE PREFIX
-0.6190751	NOUN-DEF INTERROGATIVE VERB
-0.7942176	NOUN-DEF INTERROGATIVE VERB-INF
-1.473444	PREFIX INTERROGATIVE ADVERB
-1.298301	PREFIX INTERROGATIVE NOUN-CONST
-1.473444	PREFIX INTERROGATIVE NOUN-DEF
-0.2717406	PREFIX INTERROGATIVE PREFIX
-1.041205	PREFIX INTERROGATIVE VERB
-1.086371	PREFIX INTERROGATIVE VERB-INF
-1.196311	PREPOSITION INTERROGATIVE ADJECTIVE
-1.371454	PREPOSITION INTERROGATIVE ADVERB
-0.3553877	PREPOSITION INTERROGATIVE PREFIX
-1.371454	PREPOSITION INTERROGATIVE PREPOSITION
-1.196311	PREPOSITION INTERROGATIVE PRONOUN
-1.371454	PREPOSITION INTERROGATIVE VERB
-1.371454	PREPOSITION INTERROGATIVE VERB-INF
-0.08432089	QUANTIFIER INTERROGATIVE PREFIX
-1.070424	QUANTIFIER INTERROGATIVE PREPOSITION
-0.8399752	QUOT INTERROGATIVE ADVERB
-0.8399752	QUOT INTERROGATIVE NOUN-DEF
-0.6648325	QUOT INTERROGATIVE PREFIX
-1.182398	VERB INTERROGATIVE CM
-1.182398	VERB INTERROGATIVE NOUN
-1.182398	VERB INTERROGATIVE NOUN-DEF
-1.007255	VERB INTERROGATIVE PREFIX
-0.7501587	VERB INTERROGATIVE VERB
-1.182398	VERB INTERROGATIVE VERB-INF
-1.016066	VERB-INF INTERROGATIVE MODAL
-1.016066	VERB-INF INTERROGATIVE PREFIX
-0.5838273	VERB-INF INTERROGATIVE VERB
-0.5099306	<s> LRB RRB
-0.900061	ADJECTIVE LRB ADVERB
-1.111991	ADJECTIVE LRB NOUN
-1.287133	ADJECTIVE LRB NUMERAL
-0.544068	ADJECTIVE LRB PREFIX
-1.287133	ADJECTIVE LRB PREPOSITION
-1.287133	ADJECTIVE LRB RRB
-0.6190751	ADJECTIVE-DEF LRB PREFIX
-0.7942176	ADJECTIVE-DEF LRB PREPOSITION
-0.5099306	ADVERB LRB NUMERAL
-0.5099306	ADVERB LRB PREPOSITION
-0.2668925	CLN LRB NOUN
-0.8990977	NOUN LRB NOUN
-1.331337	NOUN LRB NOUN-DEF
-1.156194	NOUN LRB NUMERAL
-0.7132105	NOUN LRB PREFIX
-1.331337	NOUN LRB PREPOSITION
-1.156194	NOUN LRB RRB
-1.266893	NOUN-DEF LRB CONJUNCTION
-1.054963	NOUN-DEF LRB NOUN
-1.009796	NOUN-DEF LRB NOUN-CONST
-1.054963	NOUN-DEF LRB NOUN-DEF
-1.054963	NOUN-DEF LRB NUMERAL
-1.009796	NOUN-DEF LRB PREFIX
-1.266893	NOUN-DEF LRB PREPOSITION
-1.009796	NOUN-DEF LRB PROPERNAME
-0.3638026	NOUN-POSSESSIVE LRB QUOT
-0.4420351	NUMERAL LRB CM
-0.1410051	PRONOUN LRB PREFIX
-1.04124	PROPERNAME LRB ADJECTIVE
-1.484376	PROPERNAME LRB NOUN
-1.659519	PROPERNAME LRB NOUN-CONST
-1.659519	PROPERNAME LRB NOUN-POSSESSIVE
-0.819544	PROPERNAME LRB NUMERAL
-1.272447	PROPERNAME LRB PREFIX
-1.272447	PROPERNAME LRB PREPOSITION
-0.615424	PROPERNAME LRB PROPERNAME
-1.659519	PROPERNAME LRB QUOT
-0.7056006	PROPERNAME LRB RRB
-1.016066	QUOT LRB CM
-1.016066	QUOT LRB CONJUNCTION
-0.8409238	QUOT LRB NUMERAL
-0.8409238	QUOT LRB PREFIX
-0.8409238	QUOT LRB QUOT
-1.396278	<s> MODAL ADVERB
-0.9640386	<s> MODAL PREFIX
-0.1249387	<s> MODAL VERB-INF
-0.9861032	ADJECTIVE MODAL COPULA
-0.1918855	ADJECTIVE MODAL VERB-INF
-0.0549629	ADJECTIVE-DEF MODAL VERB-INF
-1.070424	ADVERB MODAL PREFIX
-1.070424	ADVERB MODAL PROPERNAME
-0.1512677	ADVERB MODAL VERB-INF
-0.3170964	CLN MODAL VERB-INF
-1.442035	CM MODAL ADVERB
-0.8237561	CM MODAL COPULA
-0.8239087	CM MODAL PREFIX
-0.2798407	CM MODAL VERB-INF
-1.141005	CONJUNCTION MODAL COPULA
-0.9658625	CONJUNCTION MODAL PREFIX
-0.154902	CONJUNCTION MODAL VERB-INF
-1.618126	COPULA MODAL CONJUNCTION
-1	COPULA MODAL COPULA
-1	COPULA MODAL PREFIX
-0.1346986	COPULA MODAL VERB-INF
-0.2216961	DASH MODAL VERB-INF
-0.3619786	INTERROGATIVE MODAL VERB-INF
-0.6019073	NEGATION MODAL COPULA
-0.2340832	NEGATION MODAL VERB-INF
-0.1760913	NOUN MODAL VERB-INF
-0.8127607	NOUN-DEF MODAL COPULA
-0.1439066	NOUN-DEF MODAL VERB-INF
-0.6181264	NOUN-POSSESSIVE MODAL COPULA
-0.2310542	NOUN-POSSESSIVE MODAL VERB-INF
-0.3170964	NUMERAL MODAL VERB-INF
-1.678824	PREFIX MODAL CONJUNCTION
-1.246585	PREFIX MODAL COPULA
-1.291752	PREFIX MODAL PREFIX
-1.678824	PREFIX MODAL PREPOSITION
-0.1228457	PREFIX MODAL VERB-INF
-0.9539185	PREPOSITION MODAL COPULA
-0.07255067	PREPOSITION MODAL VERB-INF
-1.646155	PRONOUN MODAL ADVERB
-1.027876	PRONOUN MODAL COPULA
-0.10721	PRONOUN MODAL VERB-INF
-0.6366695	PROPERNAME MODAL COPULA
-0.2108534	PROPERNAME MODAL VERB-INF
-0.1067061	QUOT MODAL VERB-INF
-0.1410051	VERB MODAL VERB-INF
-0.1249387	WPREFIX MODAL VERB-INF
-1.59585	<s> NEGATION ADJECTIVE
-0.7144822	<s> NEGATION ADVERB
-0.8016323	<s> NEGATION COPULA
-1.420707	<s> NEGATION DOT
-1.59585	<s> NEGATION NOUN
-1.420707	<s> NEGATION NOUN-CONST
-1.208778	<s> NEGATION NOUN-DEF
-1.59585	<s> NEGATION PREPOSITION
-1.208778	<s> NEGATION PRONOUN
-0.6419315	<s> NEGATION VERB
-0.6850732	ADJECTIVE NEGATION ADJECTIVE
-0.298001	ADJECTIVE NEGATION VERB
-0.8409238	ADJECTIVE-DEF NEGATION MODAL
-0.2730013	ADJECTIVE-DEF NEGATION VERB
-1.161215	ADVERB NEGATION ADJECTIVE
-1.604352	ADVERB NEGATION ADVERB
-0.9395192	ADVERB NEGATION COPULA
-1.604352	ADVERB NEGATION DOT
-1.392422	ADVERB NEGATION PREFIX
-1.604352	ADVERB NEGATION PRONOUN
-0.2319491	ADVERB NEGATION VERB
-1.779494	ADVERB NEGATION VERB-INF
-1.551323	CM NEGATION ADJECTIVE
-0.9834008	CM NEGATION ADVERB
-0.9834008	CM NEGATION COPULA
-1.551323	CM NEGATION MODAL
-1.726466	CM NEGATION NOUN
-1.551323	CM NEGATION NOUN-DEF
-1.726466	CM NEGATION NOUN-POSSESSIVE
-1.294227	CM NEGATION PREFIX
-1.551323	CM NEGATION PREPOSITION
-1.108187	CM NEGATION PRONOUN
-0.4240927	CM NEGATION VERB
-1.332015	CONJUNCTION NEGATION ADJECTIVE
-1.589112	CONJUNCTION NEGATION ADVERB
-1.764254	CONJUNCTION NEGATION CONJUNCTION
-0.9700368	CONJUNCTION NEGATION COPULA
-1.332015	CONJUNCTION NEGATION MODAL
-1.332015	CONJUNCTION NEGATION NOUN
-1.589112	CONJUNCTION NEGATION NOUN-CONST
-1.021189	CONJUNCTION NEGATION PREFIX
-1.589112	CONJUNCTION NEGATION PREPOSITION
-1.377182	CONJUNCTION NEGATION PRONOUN
-1.589112	CONJUNCTION NEGATION QUANTIFIER
-0.509306	CONJUNCTION NEGATION VERB
-1.589112	CONJUNCTION NEGATION VERB-INF
-0.4420351	INTERROGATIVE NEGATION VERB
-0.60206	NOUN NEGATION ADJECTIVE
-1.521216	NOUN NEGATION ADVERB
-1.346074	NOUN NEGATION COPULA
-1.134144	NOUN NEGATION DASH
-1.134144	NOUN NEGATION PARTICIPLE
-0.3802112	NOUN NEGATION VERB
-1.685073	NOUN-DEF NEGATION ADVERB
-1.066947	NOUN-DEF NEGATION COPULA
-0.845098	NOUN-DEF NEGATION DASH
-1.685073	NOUN-DEF NEGATION MODAL
-0.2218488	NOUN-DEF NEGATION VERB
-1.685073	NOUN-DEF NEGATION VERB-INF
-0.7299554	NOUN-POSSESSIVE NEGATION ADVERB
-1.162194	NOUN-POSSESSIVE NEGATION COPULA
-1.162194	NOUN-POSSESSIVE NEGATION DASH
-0.4191293	NOUN-POSSESSIVE NEGATION VERB
-0.06694679	NUMERAL NEGATION VERB
-1.852353	PREFIX NEGATION ADJECTIVE
-1.233278	PREFIX NEGATION ADVERB
-1.073577	PREFIX NEGATION COPULA
-1.852353	PREFIX NEGATION EXISTENTIAL
-1.852353	PREFIX NEGATION MODAL
-1.409369	PREFIX NEGATION NOUN
-1.852353	PREFIX NEGATION NOUN-CONST
-2.027496	PREFIX NEGATION NUMERAL
-1.041393	PREFIX NEGATION PREFIX
-2.027496	PREFIX NEGATION PREPOSITION
-1.284431	PREFIX NEGATION PRONOUN
-2.027496	PREFIX NEGATION QUANTIFIER
-1.852353	PREFIX NEGATION QUOT
-0.447158	PREFIX NEGATION VERB
-0.8257929	PREFIX NEGATION VERB-INF
-0.7787759	PREPOSITION NEGATION NOUN
-0.1597008	PREPOSITION NEGATION VERB
-1.265816	PRONOUN NEGATION ADJECTIVE
-1.477746	PRONOUN NEGATION ADVERB
-1.034762	PRONOUN NEGATION COPULA
-1.265816	PRONOUN NEGATION MODAL
-1.652889	PRONOUN NEGATION NOUN
-1.477746	PRONOUN NEGATION NOUN-DEF
-1.477746	PRONOUN NEGATION PREPOSITION
-0.2447116	PRONOUN NEGATION VERB
-0.60206	PROPERNAME NEGATION COPULA
-1.345125	PROPERNAME NEGATION MODAL
-0.20412	PROPERNAME NEGATION VERB
-0.8399752	QUOT NEGATION NOUN
-0.2218488	QUOT NEGATION VERB
-0.5389451	SCLN NEGATION NOUN
-0.3187588	VERB NEGATION ADVERB
-1.237915	VERB NEGATION CONJUNCTION
-1.237915	VERB NEGATION NUMERAL
-1.237915	VERB NEGATION PREPOSITION
-1.237915	VERB NEGATION QUANTIFIER
-1.062773	VERB NEGATION VERB
-0.5122349	<s> NOUN ADJECTIVE
-1.942861	<s> NOUN ADVERB
-2.154791	<s> NOUN CLN
-1.489959	<s> NOUN CM
-1.897695	<s> NOUN CONJUNCTION
-2.154791	<s> NOUN COPULA
-1.711655	<s> NOUN NEGATION
-1.448566	<s> NOUN NOUN
-1.942861	<s> NOUN NOUN-CONST
-1.410777	<s> NOUN NUMERAL
-0.8465058	<s> NOUN PREFIX
-1.25951	<s> NOUN PREPOSITION
-0.8771746	<s> NOUN PRONOUN
-1.285838	<s> NOUN PROPERNAME
-1.02756	<s> NOUN VERB
-2.329934	<s> NOUN WPREFIX
-0.4522977	ADJECTIVE NOUN ADJECTIVE
-1.371454	ADJECTIVE NOUN DOT
-0.753175	ADJECTIVE NOUN PREFIX
-0.753175	ADJECTIVE NOUN PREPOSITION
-1.02052	ADJECTIVE-CONST NOUN ADJECTIVE
-0.6585413	ADJECTIVE-CONST NOUN CM
-0.7096938	ADJECTIVE-CONST NOUN DOT
-0.6585413	ADJECTIVE-CONST NOUN PREFIX
-1.452759	ADJECTIVE-CONST NOUN PREPOSITION
-1.452759	ADJECTIVE-CONST NOUN SCLN
-1.452759	ADJECTIVE-CONST NOUN VERB
-0.6630086	ADJECTIVE-DEF NOUN ADJECTIVE
-0.920105	ADJECTIVE-DEF NOUN CM
-0.920105	ADJECTIVE-DEF NOUN PREFIX
-0.5672979	ADVERB NOUN ADJECTIVE
-1.20412	ADVERB NOUN CM
-1.611265	ADVERB NOUN COPULA
-1.611265	ADVERB NOUN DOT
-1.380211	ADVERB NOUN NUMERAL
-1.998338	ADVERB NOUN PARTICIPLE
-0.5248941	ADVERB NOUN PREFIX
-0.8573325	ADVERB NOUN PREPOSITION
-1.998338	ADVERB NOUN PRONOUN
-1.823195	ADVERB NOUN PROPERNAME
-1.998338	ADVERB NOUN QUOT
-1.823195	ADVERB NOUN VERB
-1.998338	ADVERB NOUN VERB-INF
-1.141005	CLN NOUN ADJECTIVE
-0.708766	CLN NOUN CM
-1.141005	CLN NOUN COPULA
-0.9658625	CLN NOUN PREFIX
-1.141005	CLN NOUN PREPOSITION
-1.141005	CLN NOUN VERB
-0.7351822	CM NOUN ADJECTIVE
-2.062773	CM NOUN ADJECTIVE-CONST
-2.237915	CM NOUN ADVERB
-0.8416375	CM NOUN CM
-1.619789	CM NOUN CONJUNCTION
-2.237915	CM NOUN NEGATION
-1.619636	CM NOUN NOUN
-2.237915	CM NOUN NOUN-CONST
-1.39794	CM NOUN NUMERAL
-2.237915	CM NOUN PARTICIPLE
-0.5287083	CM NOUN PREFIX
-1.167491	CM NOUN PREPOSITION
-1.19382	CM NOUN PROPERNAME
-2.237915	CM NOUN QUOT
-1.251812	CM NOUN VERB
-2.237915	CM NOUN VERB-INF
-1.805676	CM NOUN WPREFIX
-0.5068791	CONJUNCTION NOUN ADJECTIVE
-2.018952	CONJUNCTION NOUN ADVERB
-1.137584	CONJUNCTION NOUN CM
-2.018952	CONJUNCTION NOUN COPULA
-1.137584	CONJUNCTION NOUN DOT
-1.400826	CONJUNCTION NOUN NEGATION
-1.843809	CONJUNCTION NOUN NUMERAL
-0.7318189	CONJUNCTION NOUN PREFIX
-1.137584	CONJUNCTION NOUN PREPOSITION
-1.065034	CONJUNCTION NOUN PRONOUN
-2.018952	CONJUNCTION NOUN PROPERNAME
-1.400673	CONJUNCTION NOUN VERB
-1.843809	CONJUNCTION NOUN VERB-INF
-0.5797836	COPULA NOUN ADJECTIVE
-2.118729	COPULA NOUN ADJECTIVE-DEF
-1.943586	COPULA NOUN ADVERB
-1.102662	COPULA NOUN CM
-2.118729	COPULA NOUN CONJUNCTION
-1.048305	COPULA NOUN DOT
-2.118729	COPULA NOUN NEGATION
-1.731657	COPULA NOUN NOUN
-1.943586	COPULA NOUN NOUN-CONST
-2.118729	COPULA NOUN NUMERAL
-2.118729	COPULA NOUN PARTICIPLE
-0.6353009	COPULA NOUN PREFIX
-0.9777236	COPULA NOUN PREPOSITION
-1.943586	COPULA NOUN PROPERNAME
-1.731657	COPULA NOUN QUOT
-2.118729	COPULA NOUN SCLN
-1.943586	COPULA NOUN VERB
-1.943586	COPULA NOUN WPREFIX
-0.90309	DASH NOUN ADJECTIVE
-0.8487324	DASH NOUN CM
-1.744014	DASH NOUN DASH
-0.8487324	DASH NOUN DOT
-1.919156	DASH NOUN PARTICIPLE
-0.5878196	DASH NOUN PREFIX
-0.90309	DASH NOUN PREPOSITION
-1.919156	DASH NOUN PRONOUN
-1.919156	DASH NOUN QUOT
-1.176091	DASH NOUN VERB
-1.919156	DASH NOUN WPREFIX
-0.542062	EXISTENTIAL NOUN ADJECTIVE
-1.873399	EXISTENTIAL NOUN ADVERB
-1.698256	EXISTENTIAL NOUN CM
-1.255273	EXISTENTIAL NOUN CONJUNCTION
-1.44116	EXISTENTIAL NOUN DOT
-0.5149098	EXISTENTIAL NOUN PREFIX
-1.255273	EXISTENTIAL NOUN PREPOSITION
-1.486327	EXISTENTIAL NOUN QUOT
-1.486327	EXISTENTIAL NOUN VERB
-1.130334	EXISTENTIAL NOUN VERB-INF
-0.3170964	INTERJECTION NOUN PREFIX
-0.8689525	INTERROGATIVE NOUN ADJECTIVE
-1.044095	INTERROGATIVE NOUN PREFIX
-0.611856	INTERROGATIVE NOUN VERB
-0.7953256	LRB NOUN ADJECTIVE
-1.182398	LRB NOUN CM
-1.007255	LRB NOUN NUMERAL
-1.007255	LRB NOUN PREFIX
-1.182398	LRB NOUN PROPERNAME
-0.7501587	LRB NOUN RRB
-0.5389451	MODAL NOUN VERB-INF
-0.559308	NEGATION NOUN ADJECTIVE
-0.9153009	NEGATION NOUN DOT
-0.6840941	NEGATION NOUN PREFIX
-1.302373	NEGATION NOUN PREPOSITION
-0.8637803	NOUN NOUN ADJECTIVE
-1.023481	NOUN NOUN CM
-1.642556	NOUN NOUN DASH
-1.817699	NOUN NOUN NOUN
-1.817699	NOUN NOUN NOUN-CONST
-0.8016323	NOUN NOUN NUMERAL
-0.6555043	NOUN NOUN PREFIX
-0.8637803	NOUN NOUN PREPOSITION
-1.817699	NOUN NOUN PROPERNAME
-1.19942	NOUN NOUN VERB
-0.6824942	NOUN-CONST NOUN ADJECTIVE
-2.342093	NOUN-CONST NOUN ADJECTIVE-CONST
-2.342093	NOUN-CONST NOUN ADJECTIVE-DEF
-2.041064	NOUN-CONST NOUN ADVERB
-2.166002	NOUN-CONST NOUN CLN
-0.9134189	NOUN-CONST NOUN CM
-1.889796	NOUN-CONST NOUN CONJUNCTION
-2.120245	NOUN-CONST NOUN COPULA
-0.9384012	NOUN-CONST NOUN DOT
-2.573148	NOUN-CONST NOUN EXISTENTIAL
-2.341941	NOUN-CONST NOUN LRB
-2.785077	NOUN-CONST NOUN NEGATION
-2.120245	NOUN-CONST NOUN NOUN
-2.785077	NOUN-CONST NOUN NOUN-CONST
-2.527981	NOUN-CONST NOUN NOUN-DEF
-2.041064	NOUN-CONST NOUN NUMERAL
-2.006301	NOUN-CONST NOUN PARTICIPLE
-2.96022	NOUN-CONST NOUN PERC
-0.5497019	NOUN-CONST NOUN PREFIX
-1.12461	NOUN-CONST NOUN PREPOSITION
-1.841491	NOUN-CONST NOUN PRONOUN
-1.864972	NOUN-CONST NOUN PROPERNAME
-2.96022	NOUN-CONST NOUN QUANTIFIER
-1.841491	NOUN-CONST NOUN QUOT
-2.785077	NOUN-CONST NOUN RRB
-2.527981	NOUN-CONST NOUN SCLN
-1.314065	NOUN-CONST NOUN VERB
-2.96022	NOUN-CONST NOUN VERB-INF
-2.527981	NOUN-CONST NOUN WPREFIX
-0.5041047	NOUN-DEF NOUN ADJECTIVE
-1.140927	NOUN-DEF NOUN CM
-1.015988	NOUN-DEF NOUN DOT
-1.759053	NOUN-DEF NOUN NUMERAL
-0.7729501	NOUN-DEF NOUN PREFIX
-0.8051347	NOUN-DEF NOUN PREPOSITION
-1.326814	NOUN-DEF NOUN PROPERNAME
-1.759053	NOUN-DEF NOUN VERB
-1.759053	NOUN-DEF NOUN VERB-INF
-0.4860761	NOUN-POSSESSIVE NOUN ADJECTIVE
-1.530171	NOUN-POSSESSIVE NOUN CM
-1.530171	NOUN-POSSESSIVE NOUN DOT
-1.530171	NOUN-POSSESSIVE NOUN NOUN
-0.5141048	NOUN-POSSESSIVE NOUN PREFIX
-1.097932	NOUN-POSSESSIVE NOUN PREPOSITION
-1.530171	NOUN-POSSESSIVE NOUN QUOT
-1.530171	NOUN-POSSESSIVE NOUN VERB
-0.9831751	NUMERAL NOUN ADJECTIVE
-1.451696	NUMERAL NOUN ADVERB
-1.903841	NUMERAL NOUN CLN
-0.7527261	NUMERAL NOUN CM
-2.52212	NUMERAL NOUN CONJUNCTION
-2.52212	NUMERAL NOUN COPULA
-0.7578658	NUMERAL NOUN DOT
