
\data\
ngram 1=45
ngram 2=1118
ngram 3=5648

\1-grams:
-1.323497	</s>
-99	<s>	-2.968784
-1.42963	ADJECTIVE	-1.613009
-2.977891	ADJECTIVE-CONST	-1.59033
-1.67543	ADJECTIVE-DEF	-3.429192
-1.576361	ADVERB	-1.128983
-3.772745	APOS	-1.16925
-2.498047	CLN	-1.451071
-1.243379	CM	-1.812687
-1.606475	CONJUNCTION	-2.503227
-1.885595	COPULA	-2.461488
-2.060198	DASH	-1.959133
-1.336586	DOT	-3.64558
-3.889249	EXCL	-1.211716
-2.440905	EXISTENTIAL	-1.94708
-4.526055	FOREIGN	-0.526094
-3.827102	INTERJECTION	-0.9631506
-2.442096	INTERROGATIVE	-1.440821
-2.486001	LRB	-1.42652
-2.285527	MODAL	-2.360156
-1.604043	MW	-2.282701
-2.065179	NEGATION	-2.536243
-1.061637	NOUN	-3.926615
-1.288281	NOUN-CONST	-2.496362
-1.108937	NOUN-DEF	-2.566067
-1.736966	NOUN-POSSESSIVE	-2.199603
-1.655868	NUMERAL	-1.760171
-3.068698	PARTICIPLE	-2.51395
-2.977891	PARTICIPLE-CONST	-2.164814
-4.304215	PARTICIPLE-DEF	-1.011976
-2.950119	PERC	-2.047205
-0.8389638	PREFIX	-3.008589
-1.147255	PREPOSITION	-2.832305
-1.654893	PRONOUN	-2.398053
-1.358956	PROPERNAME	-1.128823
-2.942499	PROPERNAME-DEF	-1.797915
-2.973813	QM	-2.118635
-2.03565	QUANTIFIER	-1.712873
-1.808129	QUOT	-0.8613112
-2.482059	RRB	-1.728333
-2.818506	SCLN	-1.522642
-3.605255	TITLE	-1.654939
-1.150901	VERB	-3.158859
-1.735088	VERB-INF	-2.084622
-2.821354	WPREFIX	-2.016343

\2-grams:
-1.867422	<s> ADJECTIVE	-0.4082151
-3.049894	<s> ADJECTIVE-CONST	-0.1859733
-2.534208	<s> ADJECTIVE-DEF	-0.05085596
-1.196036	<s> ADVERB	-0.1724454
-3.049894	<s> CLN
-2.248972	<s> CM	0.005184144
-1.138756	<s> CONJUNCTION	-0.05595064
-1.999094	<s> COPULA	0.008031905
-2.902184	<s> DASH	-0.1788645
-2.534208	<s> DOT	2.490614
-1.895006	<s> EXISTENTIAL	-0.1290957
-3.078275	<s> INTERJECTION
-1.777246	<s> INTERROGATIVE	-0.08297396
-2.504244	<s> LRB	-0.3129398
-2.017578	<s> MODAL	-0.1652711
-1.495644	<s> MW	-1.65392
-1.854261	<s> NEGATION	0.1316456
-1.165788	<s> NOUN	-0.6822252
-1.198893	<s> NOUN-CONST	-0.1587293
-0.9321475	<s> NOUN-DEF	-0.7235227
-1.756056	<s> NOUN-POSSESSIVE	-0.6141471
-1.693564	<s> NUMERAL	-0.5400692
-2.886157	<s> PARTICIPLE	-0.08605485
-2.777246	<s> PARTICIPLE-CONST	0.009865761
-3.270414	<s> PERC	1.504386
-0.8408574	<s> PREFIX	-0.5247968
-1.294729	<s> PREPOSITION	-0.3489577
-1.077191	<s> PRONOUN	-0.6901398
-1.135028	<s> PROPERNAME	-0.67591
-3.270414	<s> PROPERNAME-DEF
-3.270414	<s> QM	0.4435152
-1.847827	<s> QUANTIFIER	-0.1939684
-1.501359	<s> QUOT	-0.4518716
-3.078275	<s> RRB	-0.02825871
-3.049894	<s> TITLE	0.2280028
-1.368582	<s> VERB	-0.0303005
-2.680336	<s> VERB-INF	0.206101
-2.835238	<s> WPREFIX	-0.06851375
-3.574031	ADJECTIVE </s>
-1.338503	ADJECTIVE ADJECTIVE	-0.1112882
-3.574031	ADJECTIVE ADJECTIVE-CONST
-2.369911	ADJECTIVE ADJECTIVE-DEF	-0.008391887
-1.165791	ADJECTIVE ADVERB	-0.6836716
-1.920819	ADJECTIVE CLN	0.05531469
-0.8227522	ADJECTIVE CM	-0.3105727
-1.735182	ADJECTIVE CONJUNCTION	-0.06550807
-2.09691	ADJECTIVE COPULA	-0.004823148
-2.231609	ADJECTIVE DASH	-0.5751148
-0.8613816	ADJECTIVE DOT	0.9532146
-2.94359	ADJECTIVE EXCL
-2.779853	ADJECTIVE EXISTENTIAL
-3.574031	ADJECTIVE FOREIGN
-2.94359	ADJECTIVE INTERROGATIVE
-2.082669	ADJECTIVE LRB	-0.07242095
-2.343582	ADJECTIVE MODAL	-0.00246042
-2.176091	ADJECTIVE MW	-1.097255
-2.728933	ADJECTIVE NEGATION	-0.07639426
-1.961247	ADJECTIVE NOUN	-0.2171864
-2.251812	ADJECTIVE NOUN-CONST	-0.08959123
-2.427903	ADJECTIVE NOUN-DEF	-0.1452546
-2.670941	ADJECTIVE NOUN-POSSESSIVE	-0.008940533
-2.49485	ADJECTIVE NUMERAL	-0.01016626
-3.574031	ADJECTIVE PARTICIPLE
-3.574031	ADJECTIVE PERC
-0.5735972	ADJECTIVE PREFIX	0.03718948
-0.9612474	ADJECTIVE PREPOSITION	0.1818337
-1.950782	ADJECTIVE PRONOUN	-0.1100909
-2.427903	ADJECTIVE PROPERNAME	-0.2829433
-2.39794	ADJECTIVE QM	-0.1800575
-2.670941	ADJECTIVE QUANTIFIER	-0.3726692
-1.59176	ADJECTIVE QUOT	-0.4957032
-2.212303	ADJECTIVE RRB	-0.07355386
-2.273001	ADJECTIVE SCLN	0.008667052
-3.574031	ADJECTIVE TITLE
-1.338503	ADJECTIVE VERB	-0.2466215
-1.788701	ADJECTIVE VERB-INF	-0.2249229
-3.574031	ADJECTIVE WPREFIX
-2.037426	ADJECTIVE-CONST ADJECTIVE
-2.037426	ADJECTIVE-CONST ADVERB
-1.259275	ADJECTIVE-CONST CM
-0.7586729	ADJECTIVE-CONST DASH	-0.7574074
-2.037426	ADJECTIVE-CONST DOT
-2.037426	ADJECTIVE-CONST MW
-0.4463619	ADJECTIVE-CONST NOUN	0.0190087
-1.435367	ADJECTIVE-CONST NOUN-CONST
-0.6950038	ADJECTIVE-CONST NOUN-DEF	-0.04242635
-2.037426	ADJECTIVE-CONST NOUN-POSSESSIVE
-1.627505	ADJECTIVE-CONST PREFIX
-1.627505	ADJECTIVE-CONST PREPOSITION
-2.037426	ADJECTIVE-CONST PRONOUN
-2.037426	ADJECTIVE-CONST PROPERNAME
-2.037426	ADJECTIVE-CONST QM
-1.627505	ADJECTIVE-CONST QUANTIFIER	-0.3775871
-1.627505	ADJECTIVE-CONST QUOT	-0.5171579
-2.374748	ADJECTIVE-DEF ADJECTIVE	-0.005856007
-3.328991	ADJECTIVE-DEF ADJECTIVE-CONST
-1.436896	ADJECTIVE-DEF ADJECTIVE-DEF	-0.1943912
-1.279773	ADJECTIVE-DEF ADVERB	-0.6201766
-2.124871	ADJECTIVE-DEF CLN	-0.03048179
-0.7949647	ADJECTIVE-DEF CM	-0.2282511
-2.006772	ADJECTIVE-DEF CONJUNCTION	-0.2323133
-1.588628	ADJECTIVE-DEF COPULA	0.06391299
-1.986568	ADJECTIVE-DEF DASH	-0.7969636
-0.9024796	ADJECTIVE-DEF DOT	1.23857
-2.726931	ADJECTIVE-DEF EXISTENTIAL	-0.3723109
-2.050237	ADJECTIVE-DEF LRB	0.02670908
-2.534812	ADJECTIVE-DEF MODAL	0.2268342
-2.425901	ADJECTIVE-DEF MW	-0.578904
-2.098542	ADJECTIVE-DEF NEGATION	-0.09867179
-2.006772	ADJECTIVE-DEF NOUN	0.1187851
-2.534812	ADJECTIVE-DEF NOUN-CONST
-2.328991	ADJECTIVE-DEF NOUN-DEF	-0.02592961
-2.91907	ADJECTIVE-DEF NOUN-POSSESSIVE
-2.425901	ADJECTIVE-DEF NUMERAL	-0.01872736
-2.91907	ADJECTIVE-DEF PARTICIPLE
-0.657818	ADJECTIVE-DEF PREFIX	-0.1526759
-0.8252002	ADJECTIVE-DEF PREPOSITION	-0.1115971
-1.881833	ADJECTIVE-DEF PRONOUN	0.05306432
-1.784923	ADJECTIVE-DEF PROPERNAME	-0.467192
-2.726931	ADJECTIVE-DEF QM	0.2862664
-2.534812	ADJECTIVE-DEF QUANTIFIER	0.02746244
-1.666233	ADJECTIVE-DEF QUOT	-0.1897628
-2.425901	ADJECTIVE-DEF RRB	-0.04305504
-2.91907	ADJECTIVE-DEF SCLN
-3.328991	ADJECTIVE-DEF TITLE
-1.133091	ADJECTIVE-DEF VERB	0.01173818
-1.897627	ADJECTIVE-DEF VERB-INF	-0.1242718
-2.91907	ADJECTIVE-DEF WPREFIX	-0.133039
-3.427324	ADVERB </s>
-1.524234	ADVERB ADJECTIVE	-0.1669194
-3.017402	ADVERB ADJECTIVE-CONST	-0.3601902
-2.427324	ADVERB ADJECTIVE-DEF	-0.1698869
-1.569991	ADVERB ADVERB	-0.1316316
-2.31338	ADVERB CLN	0.07470834
-0.9649258	ADVERB CM	-0.043859
-1.458841	ADVERB CONJUNCTION	-0.1722013
-1.764566	ADVERB COPULA	0.2238208
-2.427324	ADVERB DASH	-0.50748
-1.077076	ADVERB DOT	1.314523
-2.348143	ADVERB EXISTENTIAL	0.1854414
-2.348143	ADVERB INTERROGATIVE	-0.0201928
-2.582226	ADVERB LRB	-0.3197816
-2.126294	ADVERB MODAL	-0.1955384
-2.105104	ADVERB MW	-0.7348936
-1.482841	ADVERB NEGATION	-0.3221378
-1.265956	ADVERB NOUN	-0.04375845
-1.774111	ADVERB NOUN-CONST	-0.2915763
-1.69493	ADVERB NOUN-DEF	-0.1267762
-2.524234	ADVERB NOUN-POSSESSIVE	-0.07217386
-1.746083	ADVERB NUMERAL	-0.1293716
-3.017402	ADVERB PARTICIPLE
-3.427324	ADVERB PERC
-0.6669013	ADVERB PREFIX	-0.209764
-1.004078	ADVERB PREPOSITION	-0.0716809
-1.649173	ADVERB PRONOUN	-0.1733781
-2.065596	ADVERB PROPERNAME	-0.1288893
-2.427324	ADVERB QM	-0.003966153
-2.01235	ADVERB QUANTIFIER	-0.07487088
-1.922174	ADVERB QUOT	-0.30077
-2.582226	ADVERB RRB	0.06852913
-2.582226	ADVERB SCLN	-0.1131921
-0.9359621	ADVERB VERB	0.0009140968
-1.737128	ADVERB VERB-INF	-0.1794739
-2.796883	ADVERB WPREFIX	0.1355991
-0.4771213	APOS </s>
-1.255273	APOS CLN
-0.6532125	APOS CM
-1.255273	APOS MW
-0.6532125	APOS PROPERNAME	-0.7089794
-1.255273	APOS RRB
-1.885433	CLN ADJECTIVE
-2.105953	CLN ADJECTIVE-DEF
-1.561631	CLN ADVERB	-0.1148043
-2.515874	CLN CLN
-2.105953	CLN CM
-1.561631	CLN CONJUNCTION	-0.2241141
-2.105953	CLN COPULA
-2.515874	CLN DOT
-1.721695	CLN EXISTENTIAL	-0.01900432
-1.369746	CLN INTERROGATIVE	0.05479097
-1.913814	CLN LRB	-0.1740351
-1.885433	CLN MODAL
-1.737723	CLN MW	-0.4578814
-2.515874	CLN NEGATION
-1.173451	CLN NOUN	0.06767505
-1.214844	CLN NOUN-CONST	0.04122972
-1.214844	CLN NOUN-DEF	-0.03190231
-1.721695	CLN NOUN-POSSESSIVE	-0.1280915
-1.474481	CLN NUMERAL	-0.08729607
-2.515874	CLN PARTICIPLE
-1.913814	CLN PERC	1.347137
-1.285425	CLN PREFIX	-0.1674637
-1.670776	CLN PREPOSITION	-0.09780768
-1.311754	CLN PRONOUN	-0.2557472
-1.068716	CLN PROPERNAME	-0.2794874
-1.737723	CLN QUANTIFIER	-0.07157911
-0.5864549	CLN QUOT	-0.4770438
-2.105953	CLN RRB
-1.561631	CLN VERB	-0.1057889
-1.913814	CLN VERB-INF	-0.01754121
-2.515874	CLN WPREFIX
-2.857031	CM </s>
-1.810731	CM ADJECTIVE	-0.2362971
-2.965942	CM ADJECTIVE-CONST	-0.2561348
-2.203818	CM ADJECTIVE-DEF	-0.08968621
-1.534811	CM ADVERB	-0.03946483
-1.934046	CM CM	-0.06825858
-0.9321057	CM CONJUNCTION	-0.03098989
-1.801079	CM COPULA	-0.07516211
-2.805878	CM DASH	-0.1821587
-2.216053	CM DOT	2.110403
-2.203818	CM EXISTENTIAL	-0.1699557
-3.760121	CM INTERJECTION
-2.241607	CM INTERROGATIVE	-0.1571658
-2.760121	CM LRB	-0.1617805
-2.106908	CM MODAL	0.2331692
-1.773349	CM MW	-1.597976
-1.830702	CM NEGATION	-0.1223295
-1.296228	CM NOUN	-0.3219047
-1.517083	CM NOUN-CONST	-0.241186
-1.586935	CM NOUN-DEF	-0.1518292
-2.216053	CM NOUN-POSSESSIVE	-0.5055575
-1.890889	CM NUMERAL	-0.3848285
-2.805878	CM PARTICIPLE	-0.02426887
-2.857031	CM PARTICIPLE-CONST	0.08033961
-2.857031	CM PERC	1.102662
-0.5353288	CM PREFIX	-0.4708357
-1.201412	CM PREPOSITION	-0.02285612
-1.68094	CM PRONOUN	-0.440752
-1.240293	CM PROPERNAME	-0.2496504
-3.350199	CM PROPERNAME-DEF
-2.203818	CM QUANTIFIER	-0.1684661
-1.879307	CM QUOT	-0.497259
-3.350199	CM RRB
-3.760121	CM SCLN
-2.98197	CM TITLE	-0.160538
-0.8415663	CM VERB	-0.3267432
-1.934046	CM VERB-INF	-0.564309
-2.965942	CM WPREFIX	-0.02898353
-1.626044	CONJUNCTION ADJECTIVE	-0.2147327
-2.192776	CONJUNCTION ADJECTIVE-DEF	-0.05625167
-1.343818	CONJUNCTION ADVERB	0.08415192
-2.493806	CONJUNCTION CLN	-0.1166096
-1.794836	CONJUNCTION CM	-0.03910023
-1.379863	CONJUNCTION CONJUNCTION	0.01091188
-1.784113	CONJUNCTION COPULA	-0.1372215
-2.794837	CONJUNCTION DASH	-0.1726051
-2.794837	CONJUNCTION DOT	2.956938
-1.680893	CONJUNCTION EXISTENTIAL	-0.2462144
-2.250768	CONJUNCTION INTERROGATIVE	0.06845769
-3.396896	CONJUNCTION LRB
-2.035169	CONJUNCTION MODAL	-0.08853906
-2.118143	CONJUNCTION MW	-0.96772
-1.410125	CONJUNCTION NEGATION	0.0001378655
-1.184709	CONJUNCTION NOUN	-0.1770445
-1.306991	CONJUNCTION NOUN-CONST	-0.04945254
-1.087266	CONJUNCTION NOUN-DEF	-0.04270887
-1.753444	CONJUNCTION NOUN-POSSESSIVE	-0.5317701
-1.998956	CONJUNCTION NUMERAL	-0.1241505
-2.986975	CONJUNCTION PARTICIPLE
-2.794837	CONJUNCTION PARTICIPLE-CONST	-0.1328485
-2.794837	CONJUNCTION PERC	1.347137
-0.7075876	CONJUNCTION PREFIX	-0.3139373
-1.195499	CONJUNCTION PREPOSITION	-0.02349329
-1.273045	CONJUNCTION PRONOUN	0.0616498
-1.570822	CONJUNCTION PROPERNAME	-0.05218309
-3.396896	CONJUNCTION PROPERNAME-DEF
-1.998956	CONJUNCTION QUANTIFIER	0.0057244
-1.905535	CONJUNCTION QUOT	-0.3100932
-3.396896	CONJUNCTION TITLE
-0.9639271	CONJUNCTION VERB	0.001520991
-1.232544	CONJUNCTION VERB-INF	0.01098704
-2.618745	CONJUNCTION WPREFIX	0.1549405
-0.851754	COPULA ADJECTIVE	-0.495572
-3.118926	COPULA ADJECTIVE-CONST
-2.039745	COPULA ADJECTIVE-DEF	-0.3329841
-1.267667	COPULA ADVERB	-0.2907118
-2.488485	COPULA CLN
-1.703952	COPULA CM	-0.05119783
-1.817896	COPULA CONJUNCTION	-0.2017289
-2.516866	COPULA COPULA	-0.1240416
-2.118926	COPULA DOT	2.625312
-2.709004	COPULA INTERROGATIVE	-0.3565602
-1.312746	COPULA MODAL	-0.2018794
-2.118926	COPULA MW	-0.9508039
-2.488485	COPULA NEGATION
-0.8288912	COPULA NOUN	-0.1012451
-1.340775	COPULA NOUN-CONST	0.09290951
-1.249694	COPULA NOUN-DEF	-0.1957198
-2.004982	COPULA NOUN-POSSESSIVE	-0.004413366
-1.757198	COPULA NUMERAL	-0.3204108
-1.972798	COPULA PARTICIPLE	0.04978955
-2.709004	COPULA PERC	1.504386
-1.011716	COPULA PREFIX	-0.2016481
-1.340775	COPULA PREPOSITION	-0.1790285
-1.720986	COPULA PRONOUN	-0.3677862
-1.587447	COPULA PROPERNAME	-0.1755856
-1.972798	COPULA QUANTIFIER	-0.04994565
-1.942834	COPULA QUOT	-0.08775593
-3.118926	COPULA SCLN
-0.8222606	COPULA VERB	-0.5082007
-1.587447	COPULA VERB-INF	0.3136882
-2.118926	COPULA WPREFIX	0.2947105
-2.316993	DASH </s>
-0.836844	DASH ADJECTIVE	-0.2564175
-2.537512	DASH ADJECTIVE-DEF
-2.153255	DASH ADVERB
-1.83349	DASH CM	0.1196745
-2.345374	DASH COPULA
-2.153255	DASH DASH	-0.2455189
-2.044344	DASH DOT	2.712463
-2.153255	DASH INTERROGATIVE	0.04848936
-2.947434	DASH MODAL
-0.4805661	DASH MW	0.1859448
-2.947434	DASH NEGATION
-0.9100072	DASH NOUN	-0.3102413
-2.102336	DASH NOUN-CONST	-0.1883664
-1.391131	DASH NOUN-DEF	-0.1579525
-1.947434	DASH NOUN-POSSESSIVE	-0.1848442
-0.8575286	DASH NUMERAL	-0.3280717
-2.947434	DASH PARTICIPLE
-1.625214	DASH PREFIX	-0.1711715
-2.044344	DASH PREPOSITION	-0.286781
-2.153255	DASH PRONOUN
-1.121359	DASH PROPERNAME	0.05316049
-2.316993	DASH PROPERNAME-DEF
-2.537512	DASH QUANTIFIER
-2.947434	DASH QUOT
-2.947434	DASH RRB
-1.83349	DASH VERB	-0.1130512
-2.947434	DASH VERB-INF
-9.35677e-05	DOT </s>
-0.2218488	EXCL </s>
-0.76617	EXCL QUOT
-0.76617	EXCL RRB
-2.159453	EXISTENTIAL ADJECTIVE
-1.226951	EXISTENTIAL ADVERB	-0.5157279
-1.791223	EXISTENTIAL CM	0.03052687
-1.393283	EXISTENTIAL CONJUNCTION	-0.4477671
-2.569374	EXISTENTIAL DOT
-2.159453	EXISTENTIAL INTERROGATIVE
-2.569374	EXISTENTIAL LRB
-2.159453	EXISTENTIAL MW	-0.3379788
-2.159453	EXISTENTIAL NEGATION
-0.524051	EXISTENTIAL NOUN	-0.1698239
-1.569374	EXISTENTIAL NOUN-CONST	-0.5933219
-1.791223	EXISTENTIAL NOUN-DEF	-0.2288764
-2.569374	EXISTENTIAL NOUN-POSSESSIVE
-1.775195	EXISTENTIAL NUMERAL	-1.139546
-0.845098	EXISTENTIAL PREFIX	-0.428698
-0.5916503	EXISTENTIAL PREPOSITION	-0.3941324
-1.938933	EXISTENTIAL PROPERNAME
-1.338925	EXISTENTIAL QUANTIFIER	-0.4477088
-2.159453	EXISTENTIAL QUOT
-1.615131	EXISTENTIAL VERB	0.1177951
-0.60206	FOREIGN DOT
-0.60206	FOREIGN PROPERNAME
-0.60206	FOREIGN VERB
-0.8453512	INTERJECTION CM
-1.255273	INTERJECTION DOT
-1.255273	INTERJECTION INTERJECTION
-1.255273	INTERJECTION NOUN
-1.255273	INTERJECTION NOUN-DEF
-0.8453512	INTERJECTION PREFIX
-0.8453512	INTERJECTION PREPOSITION	-0.5233756
-1.255273	INTERJECTION PROPERNAME
-1.255273	INTERJECTION QUOT
-0.8453512	INTERJECTION VERB
-1.255273	INTERJECTION VERB-INF
-1.721928	INTERROGATIVE ADJECTIVE	-0.02907401
-2.567026	INTERROGATIVE ADJECTIVE-DEF
-1.453083	INTERROGATIVE ADVERB	-0.07214184
-2.567026	INTERROGATIVE CLN
-1.721928	INTERROGATIVE CM	-0.07178083
-1.788875	INTERROGATIVE CONJUNCTION	-0.2889944
-1.663936	INTERROGATIVE COPULA	-0.2801996
-2.157105	INTERROGATIVE DASH
-2.567026	INTERROGATIVE DOT
-2.157105	INTERROGATIVE EXISTENTIAL
-1.487845	INTERROGATIVE MODAL	0.2614629
-2.157105	INTERROGATIVE MW
-1.721928	INTERROGATIVE NEGATION	0.1065265
-1.362906	INTERROGATIVE NOUN	0.08797242
-1.390935	INTERROGATIVE NOUN-CONST	-0.4839489
-1.311754	INTERROGATIVE NOUN-DEF	-0.1214173
-2.567026	INTERROGATIVE NOUN-POSSESSIVE
-2.157105	INTERROGATIVE NUMERAL
-2.567026	INTERROGATIVE PARTICIPLE
-0.4399216	INTERROGATIVE PREFIX	-0.2780278
-1.612784	INTERROGATIVE PREPOSITION	-0.02077346
-1.224604	INTERROGATIVE PRONOUN	-0.240548
-2.157105	INTERROGATIVE PROPERNAME
-1.788875	INTERROGATIVE QM	0.3236125
-1.936585	INTERROGATIVE QUANTIFIER
-2.567026	INTERROGATIVE QUOT
-0.8949285	INTERROGATIVE VERB	-0.004870296
-1.311754	INTERROGATIVE VERB-INF	0.039489
-2.528917	LRB </s>
-1.352825	LRB ADJECTIVE	-0.2825069
-2.528917	LRB ADJECTIVE-CONST
-1.898476	LRB ADJECTIVE-DEF	-0.176043
-1.528917	LRB ADVERB	-0.08980794
-2.528917	LRB APOS
-2.528917	LRB CLN
-1.750765	LRB CM	-0.3945414
-1.487524	LRB CONJUNCTION	-0.06945369
-2.118995	LRB DASH
-1.898476	LRB EXISTENTIAL	-0.1554157
-2.528917	LRB INTERROGATIVE
-1.926857	LRB MW	-0.1324442
-1.898476	LRB NEGATION
-1.130977	LRB NOUN	-0.1070917
-1.487524	LRB NOUN-CONST	0.0226157
-1.487524	LRB NOUN-DEF	-0.1225156
-2.118995	LRB NOUN-POSSESSIVE	-0.4286717
-0.788554	LRB NUMERAL	-0.7441181
-2.528917	LRB PARTICIPLE-CONST
-1.898476	LRB PERC	1.482431
-0.9378521	LRB PREFIX	0.01056224
-1.206697	LRB PREPOSITION	-0.1045916
-1.926857	LRB PRONOUN
-0.885464	LRB PROPERNAME	-1.107322
-2.118995	LRB QUANTIFIER
-1.414973	LRB QUOT	-0.4061739
-1.023767	LRB RRB	-0.07356542
-1.898476	LRB VERB
-2.528917	LRB VERB-INF
-1.607867	MODAL ADVERB	-0.8048843
-2.119751	MODAL CM	-0.324515
-1.876713	MODAL CONJUNCTION	-0.1377322
-0.9156306	MODAL COPULA	-0.5681667
-2.721811	MODAL INTERROGATIVE
-2.721811	MODAL LRB
-2.311889	MODAL MW	-0.3379788
-2.09137	MODAL NEGATION	-0.5535584
-1.818721	MODAL NOUN	-0.1364142
-2.311889	MODAL NOUN-CONST	-0.3374976
-2.09137	MODAL NOUN-DEF	-0.277353
-1.142027	MODAL PREFIX	-0.2617695
-1.642629	MODAL PREPOSITION	-0.04324566
-1.818721	MODAL PROPERNAME	-0.2418482
-2.721811	MODAL PROPERNAME-DEF
-2.721811	MODAL QM
-2.311889	MODAL QUOT
-0.1752679	MODAL VERB-INF	-0.03427052
-1.868886	MW ADJECTIVE	0.0768846
-3.400365	MW ADJECTIVE-CONST
-1.953207	MW ADJECTIVE-DEF	-0.04902503
-2.121612	MW ADVERB	0.03107712
-2.555267	MW CLN	-0.03366297
-1.046257	MW CM	0.0969044
-2.254237	MW CONJUNCTION	-0.03623053
-2.057943	MW COPULA	-0.0744597
-0.9594562	MW DASH	-2.268101
-1.387528	MW DOT	1.649672
-2.606187	MW EXISTENTIAL	-0.2197299
-2.400365	MW LRB	-0.149533
-2.321184	MW MODAL	-0.001664281
-0.4091392	MW MW	-1.150982
-2.358973	MW NEGATION	-0.1029736
-1.64449	MW NOUN	-0.221048
-1.684362	MW NOUN-CONST	-0.1057395
-1.692795	MW NOUN-DEF	-0.1647765
-2.099335	MW NOUN-POSSESSIVE	0.08653989
-2.020154	MW NUMERAL	-0.1802262
-3.400365	MW PARTICIPLE
-3.400365	MW PERC
-1.036753	MW PREFIX	0.124716
-1.607974	MW PREPOSITION	-0.1105421
-2.038637	MW PRONOUN	-0.0305177
-1.985392	MW PROPERNAME	-0.0156692
-3.400365	MW PROPERNAME-DEF
-2.769924	MW QM	0.42156
-2.224274	MW QUANTIFIER	-0.06706062
-1.832164	MW QUOT	-0.1302325
-2.769924	MW RRB
-2.769924	MW SCLN
-1.335907	MW VERB	-0.04110909
-1.923244	MW VERB-INF	-0.1956455
-2.769924	MW WPREFIX	0.1355991
-1.307048	NEGATION ADJECTIVE	-0.1319352
-2.530595	NEGATION ADJECTIVE-DEF	-0.4446811
-1.089258	NEGATION ADVERB	-0.1842568
-2.095418	NEGATION CM	-0.2502129
-2.146338	NEGATION CONJUNCTION	-0.1188596
-1.021438	NEGATION COPULA	-0.2078699
-1.618297	NEGATION DASH	-0.5902628
-1.899124	NEGATION DOT	2.587524
-2.162365	NEGATION EXISTENTIAL	-0.5180207
-2.940516	NEGATION INTERJECTION
-2.940516	NEGATION INTERROGATIVE
-1.560305	NEGATION MODAL	-0.1311435
-1.986274	NEGATION MW	-0.355882
-1.422003	NEGATION NOUN	-0.1456677
-2.037426	NEGATION NOUN-CONST	-0.282145
-1.736397	NEGATION NOUN-DEF	-0.1593535
-2.338456	NEGATION NOUN-POSSESSIVE	-0.1165313
-1.986274	NEGATION NUMERAL	-0.142746
-2.940516	NEGATION PARTICIPLE
-1.317267	NEGATION PREFIX	-0.4320892
-1.349452	NEGATION PREPOSITION	-0.1095841
-1.409038	NEGATION PRONOUN	-0.2147507
-2.146338	NEGATION PROPERNAME	-0.3022237
-2.940516	NEGATION QM
-1.826573	NEGATION QUANTIFIER	-0.1005465
-2.146338	NEGATION QUOT	-0.1121084
-2.530595	NEGATION SCLN
-0.4220026	NEGATION VERB	-0.3404152
-1.327733	NEGATION VERB-INF	-0.1391507
-0.6134298	NOUN ADJECTIVE	-0.2498074
-2.494652	NOUN ADJECTIVE-CONST	-0.5768962
-2.479411	NOUN ADJECTIVE-DEF	-0.234141
-1.92062	NOUN ADVERB	-0.2103117
-3.311368	NOUN APOS	-0.1077893
-2.163658	NOUN CLN	0.004200697
-1.022208	NOUN CM	0.1150891
-1.85545	NOUN CONJUNCTION	-0.08975971
-2.15648	NOUN COPULA	-0.2032567
-2.350745	NOUN DASH	-0.4294648
-1.067328	NOUN DOT	0.7916439
-3.531888	NOUN EXCL
-2.827866	NOUN EXISTENTIAL	0.07228544
-3.941809	NOUN FOREIGN
-3.096711	NOUN INTERROGATIVE	-0.04082018
-2.385507	NOUN LRB	-0.1060617
-2.900417	NOUN MODAL	-0.08549887
-2.269712	NOUN MW	-1.032796
-2.260568	NOUN NEGATION	-0.4775608
-1.916504	NOUN NOUN	-0.1098779
-2.234239	NOUN NOUN-CONST	-0.02776742
-2.385507	NOUN NOUN-DEF	0.1129715
-3.33975	NOUN NOUN-POSSESSIVE
-1.759966	NOUN NUMERAL	-0.232294
-3.311368	NOUN PARTICIPLE
-3.096711	NOUN PARTICIPLE-CONST	-0.01536036
-3.531888	NOUN PERC	1.504386
-0.6294205	NOUN PREFIX	-0.4377459
-1.029056	NOUN PREPOSITION	-0.2072788
-1.485443	NOUN PRONOUN	0.07942426
-1.817958	NOUN PROPERNAME	-0.2034489
-3.311368	NOUN PROPERNAME-DEF
-3.096711	NOUN QM	0.01869273
-2.941809	NOUN QUANTIFIER	-0.08927004
-1.721701	NOUN QUOT	-0.659166
-2.24284	NOUN RRB	-0.001714587
-2.423295	NOUN SCLN	-0.0731031
-1.375962	NOUN VERB	0.08942711
-1.982768	NOUN VERB-INF	-0.01107919
-2.33975	NOUN WPREFIX	-0.5578563
-2.238548	NOUN-CONST ADJECTIVE	-0.2354319
-3.113609	NOUN-CONST ADJECTIVE-CONST
-2.09242	NOUN-CONST ADJECTIVE-DEF	-0.04179889
-2.636488	NOUN-CONST ADVERB	-0.09110044
-3.715669	NOUN-CONST CLN
-1.858337	NOUN-CONST CM	-0.1938516
-2.715669	NOUN-CONST CONJUNCTION	-0.1019824
-2.92149	NOUN-CONST COPULA
-1.737946	NOUN-CONST DASH	-0.5928143
-1.923277	NOUN-CONST DOT	1.867365
-3.715669	NOUN-CONST EXISTENTIAL
-3.715669	NOUN-CONST FOREIGN
-3.085228	NOUN-CONST INTERROGATIVE	-0.08792205
-2.937518	NOUN-CONST LRB	-0.3663543
-1.766279	NOUN-CONST MW	-1.653558
-3.715669	NOUN-CONST NEGATION
-0.6656763	NOUN-CONST NOUN	0.1255131
-1.029033	NOUN-CONST NOUN-CONST	0.06313336
-0.4083871	NOUN-CONST NOUN-DEF	-0.08094692
-1.522545	NOUN-CONST NOUN-POSSESSIVE	-0.2988231
-1.698636	NOUN-CONST NUMERAL	-0.1885635
-3.715669	NOUN-CONST PARTICIPLE
-2.569541	NOUN-CONST PARTICIPLE-CONST	-0.1763663
-3.085228	NOUN-CONST PERC	1.482431
-1.425635	NOUN-CONST PREFIX	-0.4148254
-2.082201	NOUN-CONST PREPOSITION	0.1070566
-2.636488	NOUN-CONST PRONOUN	-0.1011433
-1.116879	NOUN-CONST PROPERNAME	-0.3995495
-2.147467	NOUN-CONST PROPERNAME-DEF	-0.07614917
-2.317729	NOUN-CONST QUANTIFIER	0.1364219
-1.909489	NOUN-CONST QUOT	-0.6329626
-3.085228	NOUN-CONST RRB	-0.1452621
-3.085228	NOUN-CONST SCLN
-3.305748	NOUN-CONST TITLE	-0.04063529
-2.072217	NOUN-CONST VERB	-0.1167281
-2.812579	NOUN-CONST VERB-INF	0.03374279
-2.92149	NOUN-CONST WPREFIX	-0.02898353
-1.970203	NOUN-DEF ADJECTIVE	-0.1993194
-2.815301	NOUN-DEF ADJECTIVE-CONST	-0.3589802
-0.7561795	NOUN-DEF ADJECTIVE-DEF	0.4912763
-1.903256	NOUN-DEF ADVERB	-0.2822107
-2.251029	NOUN-DEF CLN	-0.04390168
-0.9655745	NOUN-DEF CM	-0.1891755
-1.881645	NOUN-DEF CONJUNCTION	-0.02774596
-1.580615	NOUN-DEF COPULA	-0.006300092
-2.718391	NOUN-DEF DASH	-0.3452254
-1.006303	NOUN-DEF DOT	0.7779641
-3.484561	NOUN-DEF EXCL
-2.593452	NOUN-DEF EXISTENTIAL	-0.1959481
-2.815301	NOUN-DEF INTERROGATIVE	-0.1292867
-2.350414	NOUN-DEF LRB	-0.0896641
-2.24127	NOUN-DEF MODAL	-0.2180029
-2.350414	NOUN-DEF MW	-1.243383
-2.049384	NOUN-DEF NEGATION	-0.4890121
-1.916759	NOUN-DEF NOUN	-0.4541379
-2.447324	NOUN-DEF NOUN-CONST	-0.1297208
-2.326281	NOUN-DEF NOUN-DEF	0.1192145
-3.484561	NOUN-DEF NOUN-POSSESSIVE
-1.90771	NOUN-DEF NUMERAL	-0.2608503
-2.815301	NOUN-DEF PARTICIPLE	-0.07742114
-3.264041	NOUN-DEF PARTICIPLE-CONST	-0.1353104
-3.894482	NOUN-DEF PERC
-0.6966505	NOUN-DEF PREFIX	-0.3424337
-1.039569	NOUN-DEF PREPOSITION	-0.2887207
-1.773908	NOUN-DEF PRONOUN	0.1450007
-1.63921	NOUN-DEF PROPERNAME	-0.166007
-3.894482	NOUN-DEF PROPERNAME-DEF
-2.593452	NOUN-DEF QM	-0.3049962
-2.664033	NOUN-DEF QUANTIFIER	-0.2036609
-1.718391	NOUN-DEF QUOT	-0.1946089
-2.748354	NOUN-DEF RRB	0.09415305
-2.55206	NOUN-DEF SCLN	-0.06882742
-3.484561	NOUN-DEF TITLE	-0.04063529
-0.9849262	NOUN-DEF VERB	0.1046833
-1.826296	NOUN-DEF VERB-INF	0.02066779
-2.479509	NOUN-DEF WPREFIX	-0.2746964
-1.925687	NOUN-POSSESSIVE ADJECTIVE	-0.1411317
-2.858188	NOUN-POSSESSIVE ADJECTIVE-CONST	-0.4546114
-0.980308	NOUN-POSSESSIVE ADJECTIVE-DEF	-0.08044958
-1.94589	NOUN-POSSESSIVE ADVERB	-0.1335351
-2.489959	NOUN-POSSESSIVE CLN	-0.2037833
-0.9962681	NOUN-POSSESSIVE CM	-0.09835315
-1.87017	NOUN-POSSESSIVE CONJUNCTION	-0.003685951
-1.711807	NOUN-POSSESSIVE COPULA	0.001660883
-2.637669	NOUN-POSSESSIVE DASH	-0.2155427
-0.9649137	NOUN-POSSESSIVE DOT	1.361354
-2.473931	NOUN-POSSESSIVE EXISTENTIAL	0.006931409
-2.313867	NOUN-POSSESSIVE LRB	-0.1047523
-2.489959	NOUN-POSSESSIVE MODAL	0.02569157
-2.226717	NOUN-POSSESSIVE MW	-0.8537477
-2.012837	NOUN-POSSESSIVE NEGATION	-0.1457238
-1.624657	NOUN-POSSESSIVE NOUN	-0.1255811
-2.188928	NOUN-POSSESSIVE NOUN-CONST	0.04246801
-2.06399	NOUN-POSSESSIVE NOUN-DEF	-0.07158867
-2.473931	NOUN-POSSESSIVE NOUN-POSSESSIVE	-0.2021015
-2.154166	NOUN-POSSESSIVE NUMERAL	0.02000776
-3.26811	NOUN-POSSESSIVE PARTICIPLE
-0.7881028	NOUN-POSSESSIVE PREFIX	-0.1545751
-0.6053519	NOUN-POSSESSIVE PREPOSITION	-0.3094319
-1.989356	NOUN-POSSESSIVE PRONOUN	0.0556854
-2.154166	NOUN-POSSESSIVE PROPERNAME	0.02872604
-2.473931	NOUN-POSSESSIVE QM	0.5475706
-2.66605	NOUN-POSSESSIVE QUANTIFIER	-0.01881771
-1.87017	NOUN-POSSESSIVE QUOT	-0.4145394
-2.226717	NOUN-POSSESSIVE RRB	-0.04394382
-2.637669	NOUN-POSSESSIVE SCLN
-3.26811	NOUN-POSSESSIVE TITLE
-1.185324	NOUN-POSSESSIVE VERB	0.177792
-1.634641	NOUN-POSSESSIVE VERB-INF	0.09239882
-2.858188	NOUN-POSSESSIVE WPREFIX	-0.133039
-2.74644	NUMERAL </s>
-2.069746	NUMERAL ADJECTIVE	0.120006
-2.938578	NUMERAL ADJECTIVE-CONST	-0.3601902
-2.172408	NUMERAL ADJECTIVE-DEF	-0.164522
-2.069746	NUMERAL ADVERB	-0.2338925
-2.554321	NUMERAL APOS	-0.2133757
-2.269318	NUMERAL CLN	-0.09748783
-1.036746	NUMERAL CM	-0.3066147
-2.307107	NUMERAL CONJUNCTION	-0.02048893
-2.269318	NUMERAL COPULA	-0.1706814
-1.804432	NUMERAL DASH	-0.6613055
-1.045303	NUMERAL DOT	1.361354
-2.938578	NUMERAL EXISTENTIAL	-0.3981181
-2.938578	NUMERAL INTERROGATIVE
-1.986772	NUMERAL LRB	-0.1755157
-2.718059	NUMERAL MODAL	0.194892
-2.14438	NUMERAL MW	-1.154924
-2.503402	NUMERAL NEGATION	-0.2814763
-0.6201458	NUMERAL NOUN	-0.3139713
-1.528956	NUMERAL NOUN-CONST	-0.03648663
-1.221395	NUMERAL NOUN-DEF	-0.192875
-2.202372	NUMERAL NOUN-POSSESSIVE	0.06090546
-1.062942	NUMERAL NUMERAL	-0.09532022
-3.3485	NUMERAL PARTICIPLE
-2.718059	NUMERAL PARTICIPLE-CONST
-2.74644	NUMERAL PERC	1.347137
-0.8585411	NUMERAL PREFIX	-0.4203416
-1.20862	NUMERAL PREPOSITION	-0.142619
-2.394257	NUMERAL PRONOUN	-0.1121665
-1.986772	NUMERAL PROPERNAME	-0.4129475
-2.44541	NUMERAL QUOT	-0.3217605
-1.522425	NUMERAL RRB	-0.04944497
-2.069746	NUMERAL SCLN	-0.397402
-1.32731	NUMERAL VERB	0.1917915
-2.74644	NUMERAL VERB-INF	-0.1707761
-1.959041	PARTICIPLE ADJECTIVE
-1.54912	PARTICIPLE ADJECTIVE-CONST	-0.5279294
-1.164863	PARTICIPLE ADVERB	-0.0421578
-1.959041	PARTICIPLE CLN
-1.356981	PARTICIPLE CM	-0.2929835
-1.3286	PARTICIPLE CONJUNCTION	-0.1890985
-1.959041	PARTICIPLE COPULA
-1.959041	PARTICIPLE DASH
-1.959041	PARTICIPLE DOT
-1.54912	PARTICIPLE MW	-0.5020134
-1.959041	PARTICIPLE NEGATION
-1.113943	PARTICIPLE NOUN	-0.03625119
-1.3286	PARTICIPLE NOUN-CONST	-0.1782324
-0.3679768	PARTICIPLE PREFIX	-0.4868885
-0.8798602	PARTICIPLE PREPOSITION	-0.1203807
-1.959041	PARTICIPLE PRONOUN
-1.959041	PARTICIPLE QUOT
-1.959041	PARTICIPLE VERB-INF
-2.029384	PARTICIPLE-CONST ADJECTIVE
-2.029384	PARTICIPLE-CONST ADJECTIVE-DEF
-2.029384	PARTICIPLE-CONST ADVERB
-2.029384	PARTICIPLE-CONST CLN
-1.029384	PARTICIPLE-CONST DASH	-0.3270652
-0.5380221	PARTICIPLE-CONST NOUN	-0.01567924
-0.8832557	PARTICIPLE-CONST NOUN-CONST	-0.100097
-0.4730813	PARTICIPLE-CONST NOUN-DEF	-0.2159727
-1.619462	PARTICIPLE-CONST NOUN-POSSESSIVE
-2.029384	PARTICIPLE-CONST PRONOUN
-1.184286	PARTICIPLE-CONST PROPERNAME	-0.1354247
-2.029384	PARTICIPLE-CONST QUOT
-0.7781513	PARTICIPLE-DEF ADJECTIVE-DEF
-0.7781513	PARTICIPLE-DEF ADVERB
-0.36823	PARTICIPLE-DEF PREFIX
-0.7781513	PARTICIPLE-DEF VERB
-0.003826408	PERC NUMERAL	-0.1707161
-1.829929	PREFIX ADJECTIVE	-0.06255233
-2.766443	PREFIX ADJECTIVE-CONST	-0.07780421
-2.261293	PREFIX ADJECTIVE-DEF	-0.1914411
-1.795167	PREFIX ADVERB	-0.14609
-3.754461	PREFIX CM
-1.759549	PREFIX CONJUNCTION	-0.05618727
-1.931386	PREFIX COPULA	-0.2184554
-2.229884	PREFIX DASH	-1.120479
-3.370204	PREFIX DOT	2.408086
-2.250569	PREFIX EXISTENTIAL	-0.3528885
-3.754461	PREFIX INTERJECTION
-2.440107	PREFIX INTERROGATIVE	-0.3116135
-2.30705	PREFIX MODAL	-0.02838153
-1.641938	PREFIX MW	-1.883144
-1.944275	PREFIX NEGATION	-0.1088123
-0.7372212	PREFIX NOUN	0.02334785
-0.8122001	PREFIX NOUN-CONST	-0.1021876
-0.8087395	PREFIX NOUN-DEF	-0.006428003
-1.234453	PREFIX NOUN-POSSESSIVE	0.3192518
-1.506371	PREFIX NUMERAL	-0.547418
-3.386231	PREFIX PARTICIPLE	-0.09101285
-2.701985	PREFIX PARTICIPLE-CONST	0.0006420612
-3.370204	PREFIX PARTICIPLE-DEF	0.09537911
-2.551599	PREFIX PERC	0.4336555
-1.486776	PREFIX PREFIX	-0.861972
-1.644555	PREFIX PREPOSITION	0.08499312
-1.431989	PREFIX PRONOUN	0.09076452
-1.221383	PREFIX PROPERNAME	0.0499059
-2.541133	PREFIX PROPERNAME-DEF	-0.1129696
-1.586891	PREFIX QUANTIFIER	-0.02792037
-2.099925	PREFIX QUOT	-0.7876571
-4.164382	PREFIX SCLN
-3.754461	PREFIX TITLE	-0.04063529
-1.037278	PREFIX VERB	0.06737494
-2.103685	PREFIX VERB-INF	-0.06239152
-2.90911	PREFIX WPREFIX	0.100661
-2.131849	PREPOSITION ADJECTIVE	0.09624064
-3.011026	PREPOSITION ADJECTIVE-CONST	-0.06602329
-2.056784	PREPOSITION ADJECTIVE-DEF	0.08417898
-1.769765	PREPOSITION ADVERB	-0.2632195
-2.776943	PREPOSITION CLN	-0.1901916
-1.51568	PREPOSITION CM	0.1445748
-2.202912	PREPOSITION CONJUNCTION	-0.2654056
-2.312056	PREPOSITION COPULA	0.0506545
-2.625675	PREPOSITION DASH	-0.3127007
-1.474107	PREPOSITION DOT	1.28289
-3.856124	PREPOSITION EXCL
-2.742181	PREPOSITION EXISTENTIAL	-0.2249129
-3.856124	PREPOSITION INTERJECTION
-2.299822	PREPOSITION INTERROGATIVE	-0.1517067
-2.953034	PREPOSITION LRB
-2.856124	PREPOSITION MODAL	-0.5212274
-1.773339	PREPOSITION MW	-1.801698
-2.577371	PREPOSITION NEGATION	-0.4929875
-0.8374239	PREPOSITION NOUN	0.0952642
-0.8715971	PREPOSITION NOUN-CONST	-0.2048141
-0.6829382	PREPOSITION NOUN-DEF	0.06667471
-1.199069	PREPOSITION NOUN-POSSESSIVE	-0.07539451
-1.41208	PREPOSITION NUMERAL	-0.1910719
-3.254065	PREPOSITION PARTICIPLE
-2.625675	PREPOSITION PARTICIPLE-CONST	0.01627618
-2.475913	PREPOSITION PERC	0.6589648
-1.187739	PREPOSITION PREFIX	-0.2151548
-1.633408	PREPOSITION PREPOSITION	0.08560354
-1.818698	PREPOSITION PRONOUN	-0.1356481
-1.077973	PREPOSITION PROPERNAME	-0.2785301
-3.011026	PREPOSITION PROPERNAME-DEF	-0.06803235
-3.061946	PREPOSITION QM	-0.2625856
-1.706905	PREPOSITION QUANTIFIER	-0.09138763
-1.818698	PREPOSITION QUOT	-0.4232126
-2.953034	PREPOSITION RRB	-0.2518633
-2.953034	PREPOSITION SCLN	-0.06966437
-3.225683	PREPOSITION TITLE	0.2280028
-1.620596	PREPOSITION VERB	0.1434784
-1.998792	PREPOSITION VERB-INF	0.01909035
-2.814732	PREPOSITION WPREFIX	0.05363545
-1.491751	PRONOUN ADJECTIVE	-0.5081964
-2.570932	PRONOUN ADJECTIVE-CONST	-0.006132334
-2.394841	PRONOUN ADJECTIVE-DEF	0.03283665
-1.37136	PRONOUN ADVERB	0.02624142
-2.394841	PRONOUN CLN	-0.08187398
-1.161562	PRONOUN CM	0.03064072
-1.556692	PRONOUN CONJUNCTION	-0.1734958
-1.228509	PRONOUN COPULA	-0.1844413
-2.939162	PRONOUN DASH
-1.280897	PRONOUN DOT	1.594823
-3.349083	PRONOUN EXCL
-2.394841	PRONOUN EXISTENTIAL	0.08597162
-2.503985	PRONOUN INTERROGATIVE	0.03202797
-3.349083	PRONOUN LRB
-1.516574	PRONOUN MODAL	0.01551032
-2.570932	PRONOUN MW	-0.8688414
-1.542903	PRONOUN NEGATION	-0.2650216
-1.292178	PRONOUN NOUN	-0.1433244
-2.00666	PRONOUN NOUN-CONST	-0.173539
-1.641513	PRONOUN NOUN-DEF	0.08039963
-2.269902	PRONOUN NOUN-POSSESSIVE	0.07575943
-2.30769	PRONOUN NUMERAL	-0.3700227
-2.269902	PRONOUN PARTICIPLE	-0.359022
-2.939162	PRONOUN PARTICIPLE-CONST
-1.012623	PRONOUN PREFIX	0.247115
-1.349083	PRONOUN PREPOSITION	-0.0007671118
-1.968872	PRONOUN PRONOUN	-0.08973637
-2.269902	PRONOUN PROPERNAME	-0.00518623
-2.349083	PRONOUN QM	-0.003966153
-2.394841	PRONOUN QUANTIFIER	-0.03099954
-2.026864	PRONOUN QUOT	-0.2895383
-2.939162	PRONOUN RRB
-2.939162	PRONOUN SCLN
-0.4620288	PRONOUN VERB	0.06243682
-2.026864	PRONOUN VERB-INF	-0.7004324
-2.718642	PRONOUN WPREFIX	0.1355991
-2.741644	PROPERNAME </s>
-1.928731	PROPERNAME ADJECTIVE	0.1671071
-1.945764	PROPERNAME ADJECTIVE-DEF	-0.4346769
-1.945764	PROPERNAME ADVERB	-0.03481787
-2.799636	PROPERNAME APOS	0.03337234
-2.264523	PROPERNAME CLN	-0.3641896
-0.675318	PROPERNAME CM	-0.2859854
-2.088431	PROPERNAME CONJUNCTION	-0.008714378
-1.736249	PROPERNAME COPULA	-0.2153031
-1.881306	PROPERNAME DASH	-0.4923254
-1.00925	PROPERNAME DOT	1.030217
-3.644734	PROPERNAME EXCL
-2.603341	PROPERNAME EXISTENTIAL	-0.2114437
-3.234813	PROPERNAME INTERROGATIVE
-1.73092	PROPERNAME LRB	-0.1001718
-2.36598	PROPERNAME MODAL	-0.496536
-1.928731	PROPERNAME MW	-1.114289
-2.167613	PROPERNAME NEGATION	-0.4334383
-1.831821	PROPERNAME NOUN	-0.1436777
-2.468643	PROPERNAME NOUN-CONST	0.08402562
-2.440614	PROPERNAME NOUN-DEF	-0.03616883
-2.866583	PROPERNAME NOUN-POSSESSIVE	-0.21891
-1.715315	PROPERNAME NUMERAL	-0.6582282
-3.042674	PROPERNAME PARTICIPLE	-0.4667293
-3.014293	PROPERNAME PARTICIPLE-CONST
-3.644734	PROPERNAME PERC
-0.8753566	PROPERNAME PREFIX	-0.1040463
-1.416847	PROPERNAME PREPOSITION	-0.1127675
-2.565553	PROPERNAME PRONOUN	-0.01322037
-0.7702521	PROPERNAME PROPERNAME	0.03893816
-2.741644	PROPERNAME QM	0.4900471
-2.850555	PROPERNAME QUANTIFIER	-0.07700682
-1.486371	PROPERNAME QUOT	-0.4172472
-1.873882	PROPERNAME RRB	-0.08464283
-2.603341	PROPERNAME SCLN	-0.173623
-3.234813	PROPERNAME TITLE
-0.9545379	PROPERNAME VERB	-0.2324442
-1.972636	PROPERNAME VERB-INF	-0.1923738
-3.234813	PROPERNAME WPREFIX	-0.133039
-2.08636	PROPERNAME-DEF ADJECTIVE
-1.455919	PROPERNAME-DEF ADJECTIVE-DEF
-1.455919	PROPERNAME-DEF ADVERB	-0.1785692
-2.08636	PROPERNAME-DEF CLN
-0.7439371	PROPERNAME-DEF CM	-0.07378381
-1.676439	PROPERNAME-DEF CONJUNCTION
-1.676439	PROPERNAME-DEF COPULA
-0.8822398	PROPERNAME-DEF DOT	2.436256
-2.08636	PROPERNAME-DEF EXISTENTIAL
-2.08636	PROPERNAME-DEF NEGATION
-1.676439	PROPERNAME-DEF NOUN
-1.676439	PROPERNAME-DEF NOUN-CONST
-2.08636	PROPERNAME-DEF NOUN-DEF
-0.8559109	PROPERNAME-DEF PREFIX	-0.07950574
-1.241262	PROPERNAME-DEF PREPOSITION
-1.455919	PROPERNAME-DEF PROPERNAME	-0.2031021
-0.9724165	PROPERNAME-DEF QUOT	-0.1646505
-2.08636	PROPERNAME-DEF RRB
-0.9102685	PROPERNAME-DEF VERB	0.05437312
-1.676439	PROPERNAME-DEF VERB-INF
-0.04620042	QM </s>
-1.243248	QM QUOT	-0.2642251
-1.435367	QM RRB	-0.05513087
-1.539448	QUANTIFIER ADJECTIVE	0.1127089
-2.970812	QUANTIFIER ADJECTIVE-CONST
-2.176633	QUANTIFIER ADJECTIVE-DEF	-0.2975369
-1.465662	QUANTIFIER ADVERB	-0.01419002
-2.368752	QUANTIFIER CLN
-1.715539	QUANTIFIER CM	-0.2693108
-2.125714	QUANTIFIER CONJUNCTION	-0.1911931
-1.89163	QUANTIFIER COPULA	-0.288536
-2.34037	QUANTIFIER DASH
-1.628389	QUANTIFIER DOT	2.304977
-2.970812	QUANTIFIER EXCL
-2.34037	QUANTIFIER EXISTENTIAL	-0.12948
-1.648592	QUANTIFIER INTERROGATIVE	-1.126261
-2.970812	QUANTIFIER LRB
-2.368752	QUANTIFIER MODAL
-2.56089	QUANTIFIER MW
-2.56089	QUANTIFIER NEGATION
-0.4794499	QUANTIFIER NOUN	-0.06400323
-1.073184	QUANTIFIER NOUN-CONST	-0.1788045
-0.9840399	QUANTIFIER NOUN-DEF	-0.02819377
-1.669782	QUANTIFIER NOUN-POSSESSIVE	-0.0930016
-1.337343	QUANTIFIER NUMERAL	0.01456612
-2.56089	QUANTIFIER PARTICIPLE-CONST
-2.970812	QUANTIFIER PERC
-1.089998	QUANTIFIER PREFIX	-0.4310791
-1.740363	QUANTIFIER PREPOSITION	0.04197316
-1.47945	QUANTIFIER PRONOUN	-0.1274313
-2.19266	QUANTIFIER PROPERNAME	-0.1233041
-2.016569	QUANTIFIER QUANTIFIER	-0.03735891
-1.970812	QUANTIFIER QUOT	-0.02678296
-2.970812	QUANTIFIER RRB
-1.254808	QUANTIFIER VERB	-0.1660689
-2.125714	QUANTIFIER VERB-INF	-0.3500119
-2.56089	QUANTIFIER WPREFIX	-0.133039
-2.566288	QUOT </s>
-1.705367	QUOT ADJECTIVE	-0.3629795
-1.96628	QUOT ADJECTIVE-DEF	-0.2282025
-1.749571	QUOT ADVERB	-0.1199895
-2.566288	QUOT CLN
-0.8201517	QUOT CM	-0.2476393
-1.691579	QUOT CONJUNCTION	-0.03104776
-1.816517	QUOT COPULA	-0.1747218
-2.786807	QUOT DASH	-0.5183688
-0.7637594	QUOT DOT	1.232136
-3.196729	QUOT EXCL
-2.155336	QUOT EXISTENTIAL	-0.2693876
-2.786807	QUOT INTERJECTION
-2.082785	QUOT INTERROGATIVE	0.06532948
-1.895699	QUOT LRB	-0.3144402
-2.418577	QUOT MODAL	-0.6046087
-1.691579	QUOT MW	-1.509696
-2.082785	QUOT NEGATION	-0.1385686
-1.106824	QUOT NOUN	-0.6085179
-1.411399	QUOT NOUN-CONST	-0.294207
-1.333406	QUOT NOUN-DEF	-0.6193126
-2.293639	QUOT NOUN-POSSESSIVE	-0.09172137
-2.351631	QUOT NUMERAL	0.01908305
-3.196729	QUOT PARTICIPLE
-3.196729	QUOT PARTICIPLE-CONST
-1.163305	QUOT PREFIX	0.1089244
-1.480725	QUOT PREPOSITION	-0.07736963
-1.497759	QUOT PRONOUN	-0.2036315
-1.106824	QUOT PROPERNAME	-0.4649042
-2.196729	QUOT PROPERNAME-DEF	-0.9924594
-2.786807	QUOT QM	0.4435152
-2.293639	QUOT QUANTIFIER	-0.09215543
-1.333406	QUOT QUOT	-0.3379845
-1.854306	QUOT RRB	-0.3023355
-2.40255	QUOT SCLN
-3.196729	QUOT TITLE
-1.315915	QUOT VERB	0.1181208
-2.020638	QUOT VERB-INF	-0.5580475
-3.196729	QUOT WPREFIX
-2.126637	RRB ADJECTIVE-DEF
-2.126637	RRB ADVERB
-1.633469	RRB CLN	-0.07407539
-0.5634306	RRB CM	-0.08180231
-1.74238	RRB CONJUNCTION
-1.906117	RRB COPULA	-0.2141728
-0.4991319	RRB DOT	1.625312
-2.536558	RRB INTERROGATIVE
-1.906117	RRB LRB
-2.536558	RRB MODAL
-2.536558	RRB MW
-2.126637	RRB NEGATION	-0.3460015
-1.69146	RRB NOUN	-0.04774188
-1.758407	RRB NOUN-CONST	-0.000336647
-2.536558	RRB NOUN-DEF
-1.906117	RRB NUMERAL
-2.126637	RRB PARTICIPLE-CONST
-2.536558	RRB PERC
-1.059437	RRB PREFIX	-0.04105568
-1.582316	RRB PREPOSITION	-0.1276302
-2.536558	RRB PRONOUN
-1.74238	RRB PROPERNAME
-1.906117	RRB SCLN
-1.0894	RRB VERB	0.05154067
-1.74238	RRB VERB-INF
-1.576385	SCLN ADJECTIVE
-2.206826	SCLN ADJECTIVE-DEF
-1.412647	SCLN ADVERB	-0.1356195
-1.796905	SCLN CM	-0.5474338
-1.165433	SCLN CONJUNCTION	-0.05226153
-1.796905	SCLN COPULA
-2.206826	SCLN EXISTENTIAL
-2.206826	SCLN LRB
-1.796905	SCLN MODAL	-0.07374609
-1.428675	SCLN MW	-0.4578814
-1.412647	SCLN NEGATION	-0.1307146
-1.303736	SCLN NOUN	-0.2716045
-1.060698	SCLN NOUN-CONST	0.04103374
-1.428675	SCLN NOUN-DEF	-0.0693901
-1.428675	SCLN NOUN-POSSESSIVE	-0.1559646
-1.576385	SCLN NUMERAL	-0.1648068
-1.604766	SCLN PERC	1.347137
-0.7754621	SCLN PREFIX	-0.06150526
-1.303736	SCLN PREPOSITION	-0.2709609
-1.252583	SCLN PRONOUN	-0.3330509
-0.976377	SCLN PROPERNAME	-0.436086
-2.206826	SCLN PROPERNAME-DEF
-2.206826	SCLN QUANTIFIER
-1.796905	SCLN RRB
-1.303736	SCLN VERB	-0.08085388
-1.414973	TITLE CM
-1.414973	TITLE DASH
-1.414973	TITLE DOT
-1.005052	TITLE MW	-0.3379788
-0.1597008	TITLE PROPERNAME	-0.530221
-1.414973	TITLE SCLN
-1.414973	TITLE VERB
-2.013875	VERB ADJECTIVE	-0.2727731
-3.442803	VERB ADJECTIVE-CONST
-2.57397	VERB ADJECTIVE-DEF	-0.08573231
-1.150293	VERB ADVERB	-0.3594825
-3.852724	VERB APOS
-2.390326	VERB CLN	-0.4639218
-1.500541	VERB CM	-0.05234325
-1.343521	VERB CONJUNCTION	-0.05945945
-2.42136	VERB COPULA	-0.1073926
-2.706596	VERB DASH	-0.1915237
-1.627415	VERB DOT	1.438818
-3.852724	VERB EXCL
-3.222283	VERB INTERJECTION
-2.437751	VERB INTERROGATIVE	0.09304363
-3.250664	VERB LRB	-0.2937386
-3.442803	VERB MODAL	-0.07374609
-1.898481	VERB MW	-1.570247
-2.437751	VERB NEGATION	-0.2611416
-1.077478	VERB NOUN	-0.2052901
-1.528441	VERB NOUN-CONST	-0.2254498
-1.400937	VERB NOUN-DEF	-0.1880826
-2.112361	VERB NOUN-POSSESSIVE	-0.1540969
-1.706596	VERB NUMERAL	-0.3752865
-3.852724	VERB PARTICIPLE
-3.442803	VERB PARTICIPLE-CONST
-3.222283	VERB PERC	1.482431
-0.5525634	VERB PREFIX	-0.06760693
-0.6961747	VERB PREPOSITION	-0.3486645
-2.12033	VERB PRONOUN	-0.1146575
-1.558258	VERB PROPERNAME	-0.4637002
-3.250664	VERB PROPERNAME-DEF
-3.074573	VERB QM	-0.08734745
-2.060332	VERB QUANTIFIER	-0.2458579
-2.199511	VERB QUOT	-0.1875826
-3.852724	VERB RRB
-3.058545	VERB SCLN	-0.06774807
-2.321245	VERB VERB	-0.08290029
-1.197585	VERB VERB-INF	-0.1606019
-3.222283	VERB WPREFIX	0.1355991
-2.227887	VERB-INF ADJECTIVE	-0.08455878
-3.269279	VERB-INF ADJECTIVE-DEF
-1.394218	VERB-INF ADVERB	-0.336324
-2.491128	VERB-INF CLN	-0.2363541
-1.505851	VERB-INF CM	-0.02881008
-1.597182	VERB-INF CONJUNCTION	-0.05034214
-2.859358	VERB-INF COPULA
-2.859358	VERB-INF DASH	-0.5183688
-1.424181	VERB-INF DOT	1.815447
-3.269279	VERB-INF EXISTENTIAL
-2.155336	VERB-INF INTERROGATIVE	0.04649433
-3.269279	VERB-INF LRB
-1.926857	VERB-INF MW	-0.7866622
-2.859358	VERB-INF NEGATION
-0.8678789	VERB-INF NOUN	-0.5446826
-1.667219	VERB-INF NOUN-CONST	-0.9097192
-2.155336	VERB-INF NOUN-DEF	0.06457877
-2.227887	VERB-INF NOUN-POSSESSIVE	-0.2937329
-2.190098	VERB-INF NUMERAL	-0.05630451
-2.859358	VERB-INF PERC	1.504386
-0.5651289	VERB-INF PREFIX	-0.3388976
-0.4768877	VERB-INF PREPOSITION	-0.0792371
-1.854306	VERB-INF PRONOUN	-0.1911397
-2.638838	VERB-INF PROPERNAME
-3.269279	VERB-INF QM
-2.038831	VERB-INF QUANTIFIER	-0.05092642
-2.038831	VERB-INF QUOT	-0.2446879
-2.859358	VERB-INF RRB
-3.269279	VERB-INF SCLN
-2.424181	VERB-INF VERB	-0.002379023
-2.190098	VERB-INF VERB-INF	0.01694678
-3.269279	VERB-INF WPREFIX
-0.69897	WPREFIX ADJECTIVE	-0.05435628
-2.190332	WPREFIX COPULA
-0.2080605	WPREFIX DASH	-0.5050655
-1.588272	WPREFIX DOT	2.956938
-2.190332	WPREFIX EXISTENTIAL
-2.190332	WPREFIX MODAL
-1.345234	WPREFIX MW	-0.4827798
-1.78041	WPREFIX NOUN	-0.5091601
-2.190332	WPREFIX NOUN-CONST
-1.559891	WPREFIX NOUN-DEF
-1.78041	WPREFIX NOUN-POSSESSIVE
-2.190332	WPREFIX PREFIX
-2.190332	WPREFIX PREPOSITION
-2.190332	WPREFIX QUOT

\3-grams:
-0.9098234	<s> ADJECTIVE ADVERB
-0.9098234	<s> ADJECTIVE CM
-1.654677	<s> ADJECTIVE CONJUNCTION
-0.5576409	<s> ADJECTIVE PREFIX
-0.8129134	<s> ADJECTIVE PREPOSITION
-1.654677	<s> ADJECTIVE PRONOUN
-0.8586708	<s> ADJECTIVE VERB-INF
-1.892945	ADJECTIVE ADJECTIVE ADJECTIVE
-1.332438	ADJECTIVE ADJECTIVE ADVERB
-1.892945	ADJECTIVE ADJECTIVE CLN
-0.7584072	ADJECTIVE ADJECTIVE CM
-2.077292	ADJECTIVE ADJECTIVE CONJUNCTION
-0.6227446	ADJECTIVE ADJECTIVE DOT
-1.892945	ADJECTIVE ADJECTIVE LRB
-2.077292	ADJECTIVE ADJECTIVE MW
-0.5365584	ADJECTIVE ADJECTIVE PREFIX
-1.156347	ADJECTIVE ADJECTIVE PREPOSITION
-2.077292	ADJECTIVE ADJECTIVE QUOT
-2.077292	ADJECTIVE ADJECTIVE RRB
-1.494786	ADJECTIVE ADJECTIVE VERB
-0.7960058	ADJECTIVE-DEF ADJECTIVE ADVERB
-0.7960058	ADJECTIVE-DEF ADJECTIVE DOT
-0.7960058	ADJECTIVE-DEF ADJECTIVE PREFIX
-1.162347	ADVERB ADJECTIVE ADVERB
-1.560506	ADVERB ADJECTIVE CLN
-0.90309	ADVERB ADJECTIVE CM
-0.7569619	ADVERB ADJECTIVE DOT
-0.60206	ADVERB ADJECTIVE PREFIX
-0.8239087	ADVERB ADJECTIVE PREPOSITION
-1.744853	ADVERB ADJECTIVE QUOT
-1.395282	ADVERB ADJECTIVE VERB-INF
-0.94939	CM ADJECTIVE ADVERB
-0.803262	CM ADJECTIVE CM
-1.791153	CM ADJECTIVE CONJUNCTION
-1.275048	CM ADJECTIVE DOT
-0.34733	CM ADJECTIVE PREFIX
-1.275048	CM ADJECTIVE PREPOSITION
-1.791153	CM ADJECTIVE PROPERNAME
-1.612615	CONJUNCTION ADJECTIVE ADJECTIVE
-0.770852	CONJUNCTION ADJECTIVE ADVERB
-0.8166095	CONJUNCTION ADJECTIVE CM
-0.867762	CONJUNCTION ADJECTIVE DOT
-1.263044	CONJUNCTION ADJECTIVE NOUN
-0.5947608	CONJUNCTION ADJECTIVE PREFIX
-1.612615	CONJUNCTION ADJECTIVE PRONOUN
-1.612615	CONJUNCTION ADJECTIVE VERB
-0.7356928	COPULA ADJECTIVE ADVERB
-1.592829	COPULA ADJECTIVE CLN
-1.036723	COPULA ADJECTIVE CM
-1.526429	COPULA ADJECTIVE CONJUNCTION
-0.9449524	COPULA ADJECTIVE DOT
-2.108935	COPULA ADJECTIVE MW
-1.759364	COPULA ADJECTIVE NOUN
-0.4747801	COPULA ADJECTIVE PREFIX
-1.121044	COPULA ADJECTIVE PREPOSITION
-1.924588	COPULA ADJECTIVE QUANTIFIER
-1.470423	COPULA ADJECTIVE QUOT
-2.108935	COPULA ADJECTIVE RRB
-1.924588	COPULA ADJECTIVE VERB-INF
-1.313841	DASH ADJECTIVE ADJECTIVE
-1.768006	DASH ADJECTIVE ADJECTIVE-DEF
-0.9344984	DASH ADJECTIVE CM
-1.768006	DASH ADJECTIVE CONJUNCTION
-1.602782	DASH ADJECTIVE COPULA
-1.602782	DASH ADJECTIVE DASH
-0.5920758	DASH ADJECTIVE DOT
-0.7883704	DASH ADJECTIVE PREFIX
-0.9344984	DASH ADJECTIVE PREPOSITION
-1.602782	DASH ADJECTIVE PRONOUN
-1.768006	DASH ADJECTIVE PROPERNAME
-1.602782	DASH ADJECTIVE QUOT
-1.768006	DASH ADJECTIVE SCLN
-1.369847	DASH ADJECTIVE VERB
-0.5025145	INTERROGATIVE ADJECTIVE PREFIX
-1.017855	LRB ADJECTIVE CM
-0.2218488	LRB ADJECTIVE PREFIX
-1.023671	MW ADJECTIVE ADVERB
-1.188895	MW ADJECTIVE CM
-0.7907364	MW ADJECTIVE DOT
-0.5772364	MW ADJECTIVE PREFIX
-1.023671	MW ADJECTIVE PREPOSITION
-1.475232	NEGATION ADJECTIVE ADVERB
-1.290885	NEGATION ADJECTIVE CM
-1.475232	NEGATION ADJECTIVE CONJUNCTION
-0.5920758	NEGATION ADJECTIVE DOT
-1.475232	NEGATION ADJECTIVE NOUN
-0.7303784	NEGATION ADJECTIVE PREFIX
-0.6792259	NEGATION ADJECTIVE PREPOSITION
-1.475232	NEGATION ADJECTIVE VERB-INF
-1.185365	NOUN ADJECTIVE ADJECTIVE
-2.531631	NOUN ADJECTIVE ADJECTIVE-DEF
-1.332744	NOUN ADJECTIVE ADVERB
-1.913406	NOUN ADJECTIVE CLN
-0.7943535	NOUN ADJECTIVE CM
-1.715596	NOUN ADJECTIVE CONJUNCTION
-2.182251	NOUN ADJECTIVE COPULA
-2.152288	NOUN ADJECTIVE DASH
-0.8970158	NOUN ADJECTIVE DOT
-2.02735	NOUN ADJECTIVE LRB
-2.286987	NOUN ADJECTIVE MODAL
-2.249198	NOUN ADJECTIVE MW
-2.654037	NOUN ADJECTIVE NEGATION
-2.12426	NOUN ADJECTIVE NOUN
-2.374137	NOUN ADJECTIVE NOUN-CONST
-2.587637	NOUN ADJECTIVE NOUN-DEF
-3.170143	NOUN ADJECTIVE NOUN-POSSESSIVE
-2.374137	NOUN ADJECTIVE NUMERAL
-0.5864405	NOUN ADJECTIVE PREFIX
-0.9100783	NOUN ADJECTIVE PREPOSITION
-1.93044	NOUN ADJECTIVE PRONOUN
-2.820572	NOUN ADJECTIVE PROPERNAME
-2.531631	NOUN ADJECTIVE QM
-1.647138	NOUN ADJECTIVE QUOT
-2.152288	NOUN ADJECTIVE RRB
-2.32838	NOUN ADJECTIVE SCLN
-1.198046	NOUN ADJECTIVE VERB
-1.966652	NOUN ADJECTIVE VERB-INF
-1.318885	NOUN-CONST ADJECTIVE ADVERB
-0.8027788	NOUN-CONST ADJECTIVE CM
-0.6803729	NOUN-CONST ADJECTIVE DOT
-0.4357286	NOUN-CONST ADJECTIVE PREFIX
-1.766043	NOUN-DEF ADJECTIVE ADJECTIVE-DEF
-0.7781513	NOUN-DEF ADJECTIVE ADVERB
-1.021189	NOUN-DEF ADJECTIVE CM
-0.7781513	NOUN-DEF ADJECTIVE DOT
-1.581696	NOUN-DEF ADJECTIVE NOUN
-1.766043	NOUN-DEF ADJECTIVE NOUN-DEF
-0.5625514	NOUN-DEF ADJECTIVE PREFIX
-1.249937	NOUN-DEF ADJECTIVE PREPOSITION
-1.581696	NOUN-DEF ADJECTIVE PROPERNAME
-0.6680802	NOUN-POSSESSIVE ADJECTIVE CM
-0.9998392	NOUN-POSSESSIVE ADJECTIVE DOT
-0.4393327	NOUN-POSSESSIVE ADJECTIVE PREFIX
-1.120517	NUMERAL ADJECTIVE CM
-1.120517	NUMERAL ADJECTIVE COPULA
-0.7709457	NUMERAL ADJECTIVE DOT
-0.9361701	NUMERAL ADJECTIVE PREFIX
-0.9361701	NUMERAL ADJECTIVE PREPOSITION
-1.120517	NUMERAL ADJECTIVE VERB
-1.660111	PREFIX ADJECTIVE ADJECTIVE
-2.176217	PREFIX ADJECTIVE ADJECTIVE-DEF
-1.033424	PREFIX ADJECTIVE ADVERB
-2.176217	PREFIX ADJECTIVE CLN
-0.7323937	PREFIX ADJECTIVE CM
-2.176217	PREFIX ADJECTIVE CONJUNCTION
-2.176217	PREFIX ADJECTIVE COPULA
-0.6910011	PREFIX ADJECTIVE DOT
-1.826646	PREFIX ADJECTIVE MW
-1.99187	PREFIX ADJECTIVE NOUN
-0.7323937	PREFIX ADJECTIVE PREFIX
-1.012234	PREFIX ADJECTIVE PREPOSITION
-2.176217	PREFIX ADJECTIVE PRONOUN
-1.537705	PREFIX ADJECTIVE QUOT
-1.293061	PREFIX ADJECTIVE VERB
-1.660111	PREFIX ADJECTIVE VERB-INF
-1.381692	PREPOSITION ADJECTIVE ADJECTIVE
-1.381692	PREPOSITION ADJECTIVE ADVERB
-0.7242759	PREPOSITION ADJECTIVE CM
-1.216468	PREPOSITION ADJECTIVE DOT
-1.566039	PREPOSITION ADJECTIVE NOUN-CONST
-0.5201559	PREPOSITION ADJECTIVE PREFIX
-1.381692	PREPOSITION ADJECTIVE PREPOSITION
-1.566039	PREPOSITION ADJECTIVE SCLN
-1.566039	PREPOSITION ADJECTIVE VERB-INF
-0.7781513	PRONOUN ADJECTIVE ADVERB
-0.8159398	PRONOUN ADJECTIVE CM
-1.11659	PRONOUN ADJECTIVE DOT
-1.699096	PRONOUN ADJECTIVE MW
-0.4259687	PRONOUN ADJECTIVE PREFIX
-1.11659	PRONOUN ADJECTIVE PREPOSITION
-1.699096	PRONOUN ADJECTIVE QUOT
-1.349525	PRONOUN ADJECTIVE VERB-INF
-1.557767	PROPERNAME ADJECTIVE ADJECTIVE
-1.208195	PROPERNAME ADJECTIVE ADVERB
-0.919255	PROPERNAME ADJECTIVE CM
-1.557767	PROPERNAME ADJECTIVE CONJUNCTION
-0.919255	PROPERNAME ADJECTIVE DOT
-0.5698753	PROPERNAME ADJECTIVE PREFIX
-1.208195	PROPERNAME ADJECTIVE PREPOSITION
-1.557767	PROPERNAME ADJECTIVE PRONOUN
-1.557767	PROPERNAME ADJECTIVE PROPERNAME
-1.37342	PROPERNAME ADJECTIVE VERB
-1.557767	PROPERNAME ADJECTIVE VERB-INF
-1.08878	QUANTIFIER ADJECTIVE ADJECTIVE
-1.273127	QUANTIFIER ADJECTIVE ADVERB
-0.7570212	QUANTIFIER ADJECTIVE CM
-1.273127	QUANTIFIER ADJECTIVE DOT
-0.5282738	QUANTIFIER ADJECTIVE PREFIX
-1.273127	QUANTIFIER ADJECTIVE PREPOSITION
-1.333125	QUOT ADJECTIVE ADVERB
-0.9835538	QUOT ADJECTIVE PREFIX
-0.9835538	QUOT ADJECTIVE PREPOSITION
-0.2872417	QUOT ADJECTIVE QUOT
-1.496266	VERB ADJECTIVE ADJECTIVE
-0.8846066	VERB ADJECTIVE ADVERB
-1.098107	VERB ADJECTIVE CM
-0.8846066	VERB ADJECTIVE DOT
-1.680612	VERB ADJECTIVE LRB
-0.4409091	VERB ADJECTIVE PREFIX
-0.8846066	VERB ADJECTIVE PREPOSITION
-0.883156	VERB-INF ADJECTIVE ADVERB
-0.883156	VERB-INF ADJECTIVE NOUN
-0.6988091	VERB-INF ADJECTIVE PREFIX
-0.5882717	WPREFIX ADJECTIVE CM
-0.9835538	WPREFIX ADJECTIVE DOT
-0.7506192	WPREFIX ADJECTIVE PREFIX
-0.9835538	WPREFIX ADJECTIVE PREPOSITION
-1.333125	WPREFIX ADJECTIVE PRONOUN
-1.333125	WPREFIX ADJECTIVE QUOT
-0.3188846	<s> ADJECTIVE-CONST NOUN-DEF
-0.1427933	ADVERB ADJECTIVE-CONST NOUN
-0.1911621	CM ADJECTIVE-CONST NOUN
-0.544068	NOUN ADJECTIVE-CONST DASH
-0.30103	NOUN ADJECTIVE-CONST NOUN
-1.288921	NOUN ADJECTIVE-CONST QUANTIFIER
-1.288921	NOUN ADJECTIVE-CONST QUOT
-0.5713733	NOUN-DEF ADJECTIVE-CONST DASH
-0.3384387	NOUN-DEF ADJECTIVE-CONST NOUN-DEF
-0.1427933	NOUN-POSSESSIVE ADJECTIVE-CONST NOUN-DEF
-0.1427933	NUMERAL ADJECTIVE-CONST NOUN
-0.1427933	PARTICIPLE ADJECTIVE-CONST CM
-1.239703	PREFIX ADJECTIVE-CONST DASH
-0.39794	PREFIX ADJECTIVE-CONST NOUN
-0.49485	PREFIX ADJECTIVE-CONST NOUN-DEF
-0.5025145	PREPOSITION ADJECTIVE-CONST NOUN-DEF
-0.4355677	PRONOUN ADJECTIVE-CONST NOUN
-0.8035445	<s> ADJECTIVE-DEF CM
-0.8035445	<s> ADJECTIVE-DEF PREFIX
-0.6383201	<s> ADJECTIVE-DEF PREPOSITION
-0.9878913	<s> ADJECTIVE-DEF VERB
-0.8615364	ADJECTIVE ADJECTIVE-DEF CM
-1.045883	ADJECTIVE ADJECTIVE-DEF DOT
-0.4633775	ADJECTIVE ADJECTIVE-DEF PREFIX
-1.045883	ADJECTIVE ADJECTIVE-DEF PREPOSITION
-1.095346	ADJECTIVE-DEF ADJECTIVE-DEF ADVERB
-0.6368221	ADJECTIVE-DEF ADJECTIVE-DEF CM
-0.8920946	ADJECTIVE-DEF ADJECTIVE-DEF DOT
-0.613341	ADJECTIVE-DEF ADJECTIVE-DEF PREFIX
-0.8507019	ADJECTIVE-DEF ADJECTIVE-DEF PREPOSITION
-1.549511	ADJECTIVE-DEF ADJECTIVE-DEF PROPERNAME
-1.733858	ADJECTIVE-DEF ADJECTIVE-DEF VERB
-0.3256575	ADVERB ADJECTIVE-DEF PREFIX
-1.048495	CM ADJECTIVE-DEF ADVERB
-0.88196	CM ADJECTIVE-DEF CM
-1.398066	CM ADJECTIVE-DEF DOT
-0.4423591	CM ADJECTIVE-DEF PREFIX
-1.048495	CM ADJECTIVE-DEF PREPOSITION
-1.213719	CM ADJECTIVE-DEF VERB-INF
-1.045883	CONJUNCTION ADJECTIVE-DEF ADVERB
-0.8615364	CONJUNCTION ADJECTIVE-DEF CM
-0.6963121	CONJUNCTION ADJECTIVE-DEF PREFIX
-0.8615364	CONJUNCTION ADJECTIVE-DEF VERB
-0.4048387	COPULA ADJECTIVE-DEF ADVERB
-0.5713733	COPULA ADJECTIVE-DEF PREFIX
-0.3188846	LRB ADJECTIVE-DEF PREFIX
-1.288921	MW ADJECTIVE-DEF CM
-0.3332147	MW ADJECTIVE-DEF PREFIX
-1.104575	MW ADJECTIVE-DEF PREPOSITION
-1.288921	MW ADJECTIVE-DEF VERB
-0.1427933	NEGATION ADJECTIVE-DEF PREFIX
-1.304161	NOUN ADJECTIVE-DEF ADVERB
-1.304161	NOUN ADJECTIVE-DEF DOT
-1.304161	NOUN ADJECTIVE-DEF NOUN
-0.3484547	NOUN ADJECTIVE-DEF PREFIX
-1.119815	NOUN ADJECTIVE-DEF PREPOSITION
-1.119815	NOUN ADJECTIVE-DEF VERB-INF
-1.465013	NOUN-CONST ADJECTIVE-DEF ADJECTIVE-DEF
-1.465013	NOUN-CONST ADJECTIVE-DEF ADVERB
-0.5818566	NOUN-CONST ADJECTIVE-DEF CM
-1.115441	NOUN-CONST ADJECTIVE-DEF DOT
-0.5818566	NOUN-CONST ADJECTIVE-DEF PREFIX
-1.465013	NOUN-CONST ADJECTIVE-DEF PREPOSITION
-0.8825068	NOUN-CONST ADJECTIVE-DEF VERB
-2.39756	NOUN-DEF ADJECTIVE-DEF ADJECTIVE
-1.325389	NOUN-DEF ADJECTIVE-DEF ADJECTIVE-DEF
-1.332123	NOUN-DEF ADJECTIVE-DEF ADVERB
-2.18406	NOUN-DEF ADJECTIVE-DEF CLN
-0.8286725	NOUN-DEF ADJECTIVE-DEF CM
-1.962211	NOUN-DEF ADJECTIVE-DEF CONJUNCTION
-1.525519	NOUN-DEF ADJECTIVE-DEF COPULA
-2.024359	NOUN-DEF ADJECTIVE-DEF DASH
-0.8618409	NOUN-DEF ADJECTIVE-DEF DOT
-2.980066	NOUN-DEF ADJECTIVE-DEF EXISTENTIAL
-2.09691	NOUN-DEF ADJECTIVE-DEF LRB
-2.795719	NOUN-DEF ADJECTIVE-DEF MODAL
-2.46396	NOUN-DEF ADJECTIVE-DEF MW
-2.138303	NOUN-DEF ADJECTIVE-DEF NEGATION
-2.024359	NOUN-DEF ADJECTIVE-DEF NOUN
-2.795719	NOUN-DEF ADJECTIVE-DEF NOUN-CONST
-2.39756	NOUN-DEF ADJECTIVE-DEF NOUN-DEF
-2.980066	NOUN-DEF ADJECTIVE-DEF NOUN-POSSESSIVE
-2.46396	NOUN-DEF ADJECTIVE-DEF NUMERAL
-0.6849844	NOUN-DEF ADJECTIVE-DEF PREFIX
-0.8160834	NOUN-DEF ADJECTIVE-DEF PREPOSITION
-1.79588	NOUN-DEF ADJECTIVE-DEF PRONOUN
-1.758091	NOUN-DEF ADJECTIVE-DEF PROPERNAME
-2.980066	NOUN-DEF ADJECTIVE-DEF QM
-2.630495	NOUN-DEF ADJECTIVE-DEF QUANTIFIER
-1.706939	NOUN-DEF ADJECTIVE-DEF QUOT
-2.39756	NOUN-DEF ADJECTIVE-DEF RRB
-2.980066	NOUN-DEF ADJECTIVE-DEF SCLN
-1.108919	NOUN-DEF ADJECTIVE-DEF VERB
-1.907854	NOUN-DEF ADJECTIVE-DEF VERB-INF
-2.980066	NOUN-DEF ADJECTIVE-DEF WPREFIX
-1.945218	NOUN-POSSESSIVE ADJECTIVE-DEF ADJECTIVE-DEF
-1.547059	NOUN-POSSESSIVE ADJECTIVE-DEF ADVERB
-1.945218	NOUN-POSSESSIVE ADJECTIVE-DEF CLN
-0.6967371	NOUN-POSSESSIVE ADJECTIVE-DEF CM
-1.384712	NOUN-POSSESSIVE ADJECTIVE-DEF COPULA
-2.129565	NOUN-POSSESSIVE ADJECTIVE-DEF DASH
-0.8406437	NOUN-POSSESSIVE ADJECTIVE-DEF DOT
-2.129565	NOUN-POSSESSIVE ADJECTIVE-DEF LRB
-2.129565	NOUN-POSSESSIVE ADJECTIVE-DEF MODAL
-2.129565	NOUN-POSSESSIVE ADJECTIVE-DEF NEGATION
-0.8254037	NOUN-POSSESSIVE ADJECTIVE-DEF PREFIX
-0.5802315	NOUN-POSSESSIVE ADJECTIVE-DEF PREPOSITION
-2.129565	NOUN-POSSESSIVE ADJECTIVE-DEF PROPERNAME
-2.129565	NOUN-POSSESSIVE ADJECTIVE-DEF QUOT
-1.384712	NOUN-POSSESSIVE ADJECTIVE-DEF VERB
-2.129565	NOUN-POSSESSIVE ADJECTIVE-DEF VERB-INF
-0.8335077	NUMERAL ADJECTIVE-DEF DOT
-0.5017487	NUMERAL ADJECTIVE-DEF PREFIX
-1.017855	NUMERAL ADJECTIVE-DEF PREPOSITION
-0.8335077	NUMERAL ADJECTIVE-DEF VERB
-1.744853	PREFIX ADJECTIVE-DEF ADJECTIVE
-1	PREFIX ADJECTIVE-DEF ADVERB
-0.7569619	PREFIX ADJECTIVE-DEF CM
-1.560506	PREFIX ADJECTIVE-DEF COPULA
-1.744853	PREFIX ADJECTIVE-DEF DASH
-1.228747	PREFIX ADJECTIVE-DEF DOT
-0.5606673	PREFIX ADJECTIVE-DEF PREFIX
-1	PREFIX ADJECTIVE-DEF PREPOSITION
-0.9488475	PREFIX ADJECTIVE-DEF VERB
-1.456757	PREPOSITION ADJECTIVE-DEF ADJECTIVE-DEF
-1.291533	PREPOSITION ADJECTIVE-DEF ADVERB
-0.7993405	PREPOSITION ADJECTIVE-DEF CM
-1.641104	PREPOSITION ADJECTIVE-DEF CONJUNCTION
-1.641104	PREPOSITION ADJECTIVE-DEF DASH
-0.845098	PREPOSITION ADJECTIVE-DEF DOT
-0.7993405	PREPOSITION ADJECTIVE-DEF PREFIX
-0.8962505	PREPOSITION ADJECTIVE-DEF PREPOSITION
-1.641104	PREPOSITION ADJECTIVE-DEF QUOT
-1.058598	PREPOSITION ADJECTIVE-DEF VERB
-0.7960058	PRONOUN ADJECTIVE-DEF PREFIX
-0.7960058	PRONOUN ADJECTIVE-DEF PREPOSITION
-0.4202164	PROPERNAME ADJECTIVE-DEF CM
-0.79588	PROPERNAME ADJECTIVE-DEF DOT
-0.6575773	PROPERNAME ADJECTIVE-DEF PREFIX
-1.540733	PROPERNAME ADJECTIVE-DEF QUOT
-1.191162	PROPERNAME ADJECTIVE-DEF VERB
-0.5407333	QUANTIFIER ADJECTIVE-DEF LRB
-0.5407333	QUANTIFIER ADJECTIVE-DEF PREPOSITION
-0.8878654	QUOT ADJECTIVE-DEF ADVERB
-1.072212	QUOT ADJECTIVE-DEF PREFIX
-0.4337006	QUOT ADJECTIVE-DEF QUOT
-1.120517	VERB ADJECTIVE-DEF CM
-1.120517	VERB ADJECTIVE-DEF NOUN
-0.5380111	VERB ADJECTIVE-DEF PREFIX
-1.120517	VERB ADJECTIVE-DEF QUOT
-1.687551	<s> ADVERB ADJECTIVE
-1.308209	<s> ADVERB ADVERB
-0.7941037	<s> ADVERB CM
-1.687551	<s> ADVERB CONJUNCTION
-1.530057	<s> ADVERB COPULA
-1.809957	<s> ADVERB DOT
-2.141716	<s> ADVERB EXISTENTIAL
-2.141716	<s> ADVERB INTERROGATIVE
-1.976492	<s> ADVERB MODAL
-1.687551	<s> ADVERB MW
-1.4843	<s> ADVERB NEGATION
-1.308209	<s> ADVERB NOUN
-1.809957	<s> ADVERB NOUN-CONST
-1.4843	<s> ADVERB NOUN-DEF
-2.326063	<s> ADVERB NOUN-POSSESSIVE
-1.809957	<s> ADVERB NUMERAL
-1.069327	<s> ADVERB PREFIX
-1.338172	<s> ADVERB PREPOSITION
-1.308209	<s> ADVERB PRONOUN
-1.976492	<s> ADVERB PROPERNAME
-1.809957	<s> ADVERB QUANTIFIER
-0.5812098	<s> ADVERB VERB
-2.250003	ADJECTIVE ADVERB ADVERB
-1.733897	ADJECTIVE ADVERB CLN
-0.6922366	ADJECTIVE ADVERB CM
-1.232149	ADJECTIVE ADVERB CONJUNCTION
-0.7269987	ADJECTIVE ADVERB DOT
-1.900432	ADJECTIVE ADVERB NOUN
-0.6373879	ADJECTIVE ADVERB PREFIX
-0.9610819	ADJECTIVE ADVERB PREPOSITION
-1.366847	ADJECTIVE ADVERB QUOT
-2.250003	ADJECTIVE ADVERB RRB
-2.250003	ADJECTIVE ADVERB SCLN
-1.366847	ADJECTIVE ADVERB VERB
-1.50515	ADJECTIVE ADVERB VERB-INF
-0.7939455	ADJECTIVE-DEF ADVERB CM
-1.54141	ADJECTIVE-DEF ADVERB COPULA
-0.7704644	ADJECTIVE-DEF ADVERB DOT
-1.890981	ADJECTIVE-DEF ADVERB NOUN
-0.447158	ADJECTIVE-DEF ADVERB PREFIX
-0.9352747	ADJECTIVE-DEF ADVERB PREPOSITION
-1.890981	ADJECTIVE-DEF ADVERB QUOT
-1.146128	ADJECTIVE-DEF ADVERB VERB
-1.11659	ADVERB ADVERB CM
-1.699096	ADVERB ADVERB CONJUNCTION
-1.699096	ADVERB ADVERB DASH
-1.060584	ADVERB ADVERB DOT
-1.699096	ADVERB ADVERB NEGATION
-1.699096	ADVERB ADVERB NOUN-DEF
-1.349525	ADVERB ADVERB NUMERAL
-0.7112045	ADVERB ADVERB PREFIX
-0.90309	ADVERB ADVERB PREPOSITION
-1.514749	ADVERB ADVERB QM
-0.7781513	ADVERB ADVERB VERB
-0.7960058	CLN ADVERB CM
-0.611659	CLN ADVERB VERB
-1.225309	CM ADVERB ADJECTIVE
-2.067073	CM ADVERB ADJECTIVE-DEF
-1.882726	CM ADVERB ADVERB
-0.8273693	CM ADVERB CM
-1.428561	CM ADVERB CONJUNCTION
-1.882726	CM ADVERB DOT
-2.067073	CM ADVERB MODAL
-1.882726	CM ADVERB MW
-1.271067	CM ADVERB NEGATION
-1.484567	CM ADVERB NOUN
-1.882726	CM ADVERB NOUN-CONST
-1.550967	CM ADVERB NOUN-DEF
-2.067073	CM ADVERB NUMERAL
-0.6938304	CM ADVERB PREFIX
-0.845098	CM ADVERB PREPOSITION
-1.550967	CM ADVERB PRONOUN
-2.067073	CM ADVERB QUANTIFIER
-1.021189	CM ADVERB VERB
-1.894842	CONJUNCTION ADVERB ADJECTIVE
-1.710495	CONJUNCTION ADVERB ADVERB
-1.098836	CONJUNCTION ADVERB CM
-1.545271	CONJUNCTION ADVERB CONJUNCTION
-1.378736	CONJUNCTION ADVERB COPULA
-1.149988	CONJUNCTION ADVERB DOT
-1.545271	CONJUNCTION ADVERB MODAL
-1.545271	CONJUNCTION ADVERB NEGATION
-1.312336	CONJUNCTION ADVERB NOUN
-1.710495	CONJUNCTION ADVERB NOUN-DEF
-1.894842	CONJUNCTION ADVERB NUMERAL
-0.797806	CONJUNCTION ADVERB PREFIX
-1.378736	CONJUNCTION ADVERB PREPOSITION
-1.378736	CONJUNCTION ADVERB PRONOUN
-1.710495	CONJUNCTION ADVERB QUANTIFIER
-0.6381051	CONJUNCTION ADVERB VERB
-1.894842	CONJUNCTION ADVERB VERB-INF
-0.9481683	COPULA ADVERB ADJECTIVE
-1.34345	COPULA ADVERB ADVERB
-1.693022	COPULA ADVERB CM
-1.693022	COPULA ADVERB DOT
-0.6751671	COPULA ADVERB NOUN
-1.176916	COPULA ADVERB NOUN-CONST
-1.693022	COPULA ADVERB NOUN-DEF
-0.6208094	COPULA ADVERB PREFIX
-1.508675	COPULA ADVERB PREPOSITION
-1.693022	COPULA ADVERB PROPERNAME
-1.693022	COPULA ADVERB QUANTIFIER
-1.508675	COPULA ADVERB QUOT
-0.9998392	EXISTENTIAL ADVERB ADJECTIVE
-0.3881802	EXISTENTIAL ADVERB NOUN
-0.6680802	EXISTENTIAL ADVERB PREFIX
-1.184186	EXISTENTIAL ADVERB QUANTIFIER
-0.7713599	INTERROGATIVE ADVERB PREFIX
-0.7713599	INTERROGATIVE ADVERB QM
-0.6574165	LRB ADVERB PREFIX
-0.8417633	LRB ADVERB RRB
-0.07255067	MODAL ADVERB VERB-INF
-0.9361701	MW ADVERB CM
-1.120517	MW ADVERB DOT
-0.9361701	MW ADVERB PREFIX
-1.120517	MW ADVERB VERB-INF
-1.508675	NEGATION ADVERB ADJECTIVE
-1.508675	NEGATION ADVERB CM
-1.693022	NEGATION ADVERB CONJUNCTION
-1.508675	NEGATION ADVERB DOT
-1.693022	NEGATION ADVERB MW
-1.693022	NEGATION ADVERB NOUN
-1.34345	NEGATION ADVERB NOUN-CONST
-0.3741371	NEGATION ADVERB PREFIX
-0.8098657	NEGATION ADVERB PREPOSITION
-1.508675	NEGATION ADVERB PRONOUN
-1.693022	NEGATION ADVERB PROPERNAME
-1.508675	NEGATION ADVERB VERB
-1.693022	NEGATION ADVERB VERB-INF
-0.845098	NOUN ADVERB ADJECTIVE
-0.8750613	NOUN ADVERB CM
-1.862953	NOUN ADVERB CONJUNCTION
-1.862953	NOUN ADVERB COPULA
-0.845098	NOUN ADVERB DOT
-1.862953	NOUN ADVERB LRB
-1.862953	NOUN ADVERB MW
-1.678606	NOUN ADVERB NEGATION
-1.862953	NOUN ADVERB NOUN
-1.678606	NOUN ADVERB NUMERAL
-0.845098	NOUN ADVERB PREFIX
-1.280447	NOUN ADVERB PREPOSITION
-1.678606	NOUN ADVERB PRONOUN
-1.224441	NOUN ADVERB QUOT
-0.9797966	NOUN ADVERB VERB
-0.7365977	NOUN-CONST ADVERB CM
-0.5713733	NOUN-CONST ADVERB PREFIX
-1.250484	NOUN-DEF ADVERB ADJECTIVE
-1.648643	NOUN-DEF ADVERB ADVERB
-0.845098	NOUN-DEF ADVERB CM
-1.316884	NOUN-DEF ADVERB COPULA
-1.088136	NOUN-DEF ADVERB DOT
-1.036984	NOUN-DEF ADVERB NEGATION
-1.648643	NOUN-DEF ADVERB NOUN
-0.7871061	NOUN-DEF ADVERB PREFIX
-1.316884	NOUN-DEF ADVERB PREPOSITION
-1.832989	NOUN-DEF ADVERB SCLN
-0.7359536	NOUN-DEF ADVERB VERB
-1.648643	NOUN-DEF ADVERB VERB-INF
-0.6478768	NOUN-POSSESSIVE ADVERB CM
-1.163983	NOUN-POSSESSIVE ADVERB DOT
-1.163983	NOUN-POSSESSIVE ADVERB NEGATION
-0.8144114	NOUN-POSSESSIVE ADVERB VERB
-0.6044111	NUMERAL ADVERB CM
-0.5380111	NUMERAL ADVERB DOT
-0.9361701	NUMERAL ADVERB PREFIX
-0.5407333	PARTICIPLE ADVERB PREFIX
-1.861408	PREFIX ADVERB ADJECTIVE
-1.466126	PREFIX ADVERB ADVERB
-1.138767	PREFIX ADVERB CM
-1.223088	PREFIX ADVERB CONJUNCTION
-1.466126	PREFIX ADVERB COPULA
-1.290035	PREFIX ADVERB DOT
-2.210979	PREFIX ADVERB EXISTENTIAL
-2.026632	PREFIX ADVERB MODAL
-1.138767	PREFIX ADVERB NEGATION
-1.223088	PREFIX ADVERB NOUN
-2.210979	PREFIX ADVERB NOUN-CONST
-1.572468	PREFIX ADVERB NOUN-DEF
-2.026632	PREFIX ADVERB NUMERAL
-0.9220578	PREFIX ADVERB PREFIX
-1.165096	PREFIX ADVERB PREPOSITION
-1.138767	PREFIX ADVERB PRONOUN
-2.210979	PREFIX ADVERB QM
-2.210979	PREFIX ADVERB QUANTIFIER
-0.6790197	PREFIX ADVERB VERB
-2.210979	PREFIX ADVERB WPREFIX
-1.928123	PREPOSITION ADVERB ADVERB
-0.9402318	PREPOSITION ADVERB CM
-1.928123	PREPOSITION ADVERB COPULA
-0.6092386	PREPOSITION ADVERB DOT
-1.928123	PREPOSITION ADVERB MW
-1.345617	PREPOSITION ADVERB NEGATION
-1.007179	PREPOSITION ADVERB NOUN
-1.743776	PREPOSITION ADVERB NUMERAL
-0.7641405	PREPOSITION ADVERB PREFIX
-1.345617	PREPOSITION ADVERB PREPOSITION
-1.928123	PREPOSITION ADVERB QUANTIFIER
-1.007179	PREPOSITION ADVERB VERB
-1.63514	PRONOUN ADVERB ADJECTIVE
-1.63514	PRONOUN ADVERB ADVERB
-1.303381	PRONOUN ADVERB CM
-1.819487	PRONOUN ADVERB CONJUNCTION
-1.63514	PRONOUN ADVERB COPULA
-1.303381	PRONOUN ADVERB DOT
-1.63514	PRONOUN ADVERB MODAL
-1.023481	PRONOUN ADVERB NEGATION
-1.180975	PRONOUN ADVERB NOUN
-1.63514	PRONOUN ADVERB NOUN-CONST
-1.236981	PRONOUN ADVERB NOUN-DEF
-0.8985423	PRONOUN ADVERB PREFIX
-1.180975	PRONOUN ADVERB PREPOSITION
-1.819487	PRONOUN ADVERB QUOT
-0.6766936	PRONOUN ADVERB VERB
-1.540733	PROPERNAME ADVERB ADJECTIVE
-1.356387	PROPERNAME ADVERB CM
-1.540733	PROPERNAME ADVERB COPULA
-1.356387	PROPERNAME ADVERB DOT
-0.9582275	PROPERNAME ADVERB NEGATION
-0.9022217	PROPERNAME ADVERB PREFIX
-1.191162	PROPERNAME ADVERB PREPOSITION
-0.552842	PROPERNAME ADVERB VERB
-0.3188846	PROPERNAME-DEF ADVERB PREFIX
-1.346913	QUANTIFIER ADVERB ADJECTIVE
-1.346913	QUANTIFIER ADVERB DOT
-1.162566	QUANTIFIER ADVERB NOUN
-1.346913	QUANTIFIER ADVERB NOUN-DEF
-0.5509075	QUANTIFIER ADVERB PREFIX
-0.9973421	QUANTIFIER ADVERB PREPOSITION
-1.346913	QUANTIFIER ADVERB VERB
-0.7728155	QUOT ADVERB CM
-1.104575	QUOT ADVERB DOT
-1.104575	QUOT ADVERB NEGATION
-0.7728155	QUOT ADVERB PREFIX
-0.7728155	QUOT ADVERB VERB
-0.5407333	SCLN ADVERB ADVERB
-2.194623	VERB ADVERB ADJECTIVE
-2.544194	VERB ADVERB ADJECTIVE-DEF
-1.423677	VERB ADVERB ADVERB
-2.194623	VERB ADVERB CLN
-1.225309	VERB ADVERB CM
-1.240033	VERB ADVERB CONJUNCTION
-2.359847	VERB ADVERB DASH
-1.240033	VERB ADVERB DOT
-2.544194	VERB ADVERB MW
-2.544194	VERB ADVERB NEGATION
-1.146128	VERB ADVERB NOUN
-1.526339	VERB ADVERB NOUN-CONST
-1.70243	VERB ADVERB NOUN-DEF
-2.544194	VERB ADVERB NOUN-POSSESSIVE
-1.471982	VERB ADVERB NUMERAL
-0.4544573	VERB ADVERB PREFIX
-0.8048034	VERB ADVERB PREPOSITION
-2.544194	VERB ADVERB PRONOUN
-1.799341	VERB ADVERB PROPERNAME
-1.961688	VERB ADVERB QUANTIFIER
-2.359847	VERB ADVERB QUOT
-1.961688	VERB ADVERB VERB
-1.526339	VERB ADVERB VERB-INF
-1.716825	VERB-INF ADVERB ADJECTIVE
-1.716825	VERB-INF ADVERB ADVERB
-1.367253	VERB-INF ADVERB CM
-1.716825	VERB-INF ADVERB CONJUNCTION
-0.9719713	VERB-INF ADVERB DOT
-1.716825	VERB-INF ADVERB INTERROGATIVE
-1.200719	VERB-INF ADVERB NOUN
-0.5326386	VERB-INF ADVERB PREFIX
-0.5326386	VERB-INF ADVERB PREPOSITION
-1.716825	VERB-INF ADVERB VERB
-0.3188846	NOUN APOS </s>
-0.5407333	NUMERAL APOS </s>
-0.3563865	NUMERAL APOS PROPERNAME
-0.6868613	PROPERNAME APOS </s>
-0.5025145	PROPERNAME APOS CM
-1.310629	ADJECTIVE CLN INTERROGATIVE
-0.97887	ADJECTIVE CLN NOUN
-1.310629	ADJECTIVE CLN NOUN-CONST
-0.97887	ADJECTIVE CLN NOUN-DEF
-1.310629	ADJECTIVE CLN NUMERAL
-1.310629	ADJECTIVE CLN PREFIX
-1.145405	ADJECTIVE CLN PRONOUN
-1.145405	ADJECTIVE CLN PROPERNAME
-0.91247	ADJECTIVE CLN QUOT
-0.8615364	ADJECTIVE-DEF CLN NOUN-CONST
-0.8615364	ADJECTIVE-DEF CLN NOUN-DEF
-1.045883	ADJECTIVE-DEF CLN PROPERNAME
-0.8615364	ADJECTIVE-DEF CLN QUOT
-0.9557067	ADVERB CLN PROPERNAME
-0.9557067	ADVERB CLN QUOT
-0.5605065	CONJUNCTION CLN PREFIX
-0.5025145	MW CLN QUOT
-1.435568	NOUN CLN ADVERB
-1.619915	NOUN CLN CONJUNCTION
-1.619915	NOUN CLN EXISTENTIAL
-1.435568	NOUN CLN MW
-0.8750613	NOUN CLN NOUN
-1.037409	NOUN CLN NOUN-CONST
-1.435568	NOUN CLN NOUN-DEF
-1.270343	NOUN CLN NUMERAL
-1.435568	NOUN CLN PREPOSITION
-1.103809	NOUN CLN PRONOUN
-1.619915	NOUN CLN PROPERNAME
-1.619915	NOUN CLN QUANTIFIER
-0.8750613	NOUN CLN QUOT
-1.619915	NOUN CLN VERB-INF
-1.485216	NOUN-DEF CLN CONJUNCTION
-1.300869	NOUN-DEF CLN INTERROGATIVE
-1.485216	NOUN-DEF CLN NOUN
-1.485216	NOUN-DEF CLN NOUN-CONST
-1.485216	NOUN-DEF CLN NOUN-DEF
-1.485216	NOUN-DEF CLN NOUN-POSSESSIVE
-1.485216	NOUN-DEF CLN NUMERAL
-1.300869	NOUN-DEF CLN PREFIX
-0.60206	NOUN-DEF CLN PROPERNAME
-0.7403627	NOUN-DEF CLN QUOT
-1.485216	NOUN-DEF CLN VERB
-0.2703434	NOUN-POSSESSIVE CLN QUOT
-0.9209446	NUMERAL CLN INTERROGATIVE
-0.7365977	NUMERAL CLN PROPERNAME
-0.2824329	PREPOSITION CLN QUOT
-0.7960058	PRONOUN CLN NOUN-CONST
-0.7960058	PRONOUN CLN PREFIX
-0.7960058	PRONOUN CLN QUOT
-1.221974	PROPERNAME CLN LRB
-0.20412	PROPERNAME CLN QUOT
-0.7448533	RRB CLN VERB
-1.304161	VERB CLN INTERROGATIVE
-1.304161	VERB CLN NOUN
-1.304161	VERB CLN NOUN-CONST
-0.1836444	VERB CLN QUOT
-0.6199145	VERB-INF CLN INTERROGATIVE
-0.6199145	VERB-INF CLN NOUN-DEF
-1.273127	<s> CM CM
-0.7570212	<s> CM NOUN
-1.08878	<s> CM NOUN-CONST
-1.273127	<s> CM NOUN-DEF
-0.9235559	<s> CM PREFIX
-1.273127	<s> CM PREPOSITION
-1.273127	<s> CM PROPERNAME
-1.08878	<s> CM VERB
-1.336306	ADJECTIVE CM ADJECTIVE
-2.243471	ADJECTIVE CM ADJECTIVE-CONST
-1.42906	ADJECTIVE CM ADVERB
-0.853652	ADJECTIVE CM CONJUNCTION
-1.954531	ADJECTIVE CM COPULA
-2.593042	ADJECTIVE CM DASH
-2.408696	ADJECTIVE CM INTERROGATIVE
-1.848189	ADJECTIVE CM MODAL
-2.076937	ADJECTIVE CM MW
-1.672098	ADJECTIVE CM NEGATION
-1.371068	ADJECTIVE CM NOUN
-1.637336	ADJECTIVE CM NOUN-CONST
-1.709886	ADJECTIVE CM NOUN-DEF
-2.408696	ADJECTIVE CM NOUN-POSSESSIVE
-2.593042	ADJECTIVE CM NUMERAL
-0.4568129	ADJECTIVE CM PREFIX
-1.2198	ADJECTIVE CM PREPOSITION
-1.709886	ADJECTIVE CM PRONOUN
-1.605151	ADJECTIVE CM PROPERNAME
-2.243471	ADJECTIVE CM QUOT
-0.8879563	ADJECTIVE CM VERB
-2.243471	ADJECTIVE CM VERB-INF
-2.191442	ADJECTIVE-DEF CM ADJECTIVE
-1.420083	ADJECTIVE-DEF CM ADJECTIVE-DEF
-1.387898	ADJECTIVE-DEF CM ADVERB
-0.9212422	ADJECTIVE-DEF CM CONJUNCTION
-1.793284	ADJECTIVE-DEF CM COPULA
-2.375789	ADJECTIVE-DEF CM EXISTENTIAL
-1.737278	ADJECTIVE-DEF CM MW
-1.859684	ADJECTIVE-DEF CM NEGATION
-1.579784	ADJECTIVE-DEF CM NOUN
-1.737278	ADJECTIVE-DEF CM NOUN-CONST
-1.492633	ADJECTIVE-DEF CM NOUN-DEF
-0.4771213	ADJECTIVE-DEF CM PREFIX
-1.102662	ADJECTIVE-DEF CM PREPOSITION
-1.793284	ADJECTIVE-DEF CM PRONOUN
-1.387898	ADJECTIVE-DEF CM PROPERNAME
-2.026218	ADJECTIVE-DEF CM QUOT
-0.8808136	ADJECTIVE-DEF CM VERB
-1.859684	ADJECTIVE-DEF CM VERB-INF
-1.95459	ADVERB CM ADJECTIVE
-1.66565	ADVERB CM ADVERB
-2.304161	ADVERB CM CM
-0.8496141	ADVERB CM CONJUNCTION
-1.788056	ADVERB CM COPULA
-2.304161	ADVERB CM EXISTENTIAL
-2.304161	ADVERB CM INTERROGATIVE
-1.721655	ADVERB CM MODAL
-1.508155	ADVERB CM MW
-1.559308	ADVERB CM NEGATION
-1.559308	ADVERB CM NOUN
-1.95459	ADVERB CM NOUN-CONST
-1.66565	ADVERB CM NOUN-DEF
-2.304161	ADVERB CM NUMERAL
-0.4939151	ADVERB CM PREFIX
-1.064458	ADVERB CM PREPOSITION
-1.383217	ADVERB CM PRONOUN
-1.508155	ADVERB CM PROPERNAME
-1.95459	ADVERB CM QUANTIFIER
-1.788056	ADVERB CM QUOT
-1	ADVERB CM VERB
-1.788056	ADVERB CM VERB-INF
-1.667838	CM CM </s>
-1.029326	CM CM CM
-1.667838	CM CM CONJUNCTION
-1.318267	CM CM DOT
-1.667838	CM CM MW
-1.318267	CM CM NOUN
-1.483491	CM CM NUMERAL
-0.6799468	CM CM PREFIX
-1.667838	CM CM PREPOSITION
-0.6499835	CM CM PROPERNAME
-1.483491	CM CM QUOT
-1.667838	CM CM RRB
-1.667838	CM CM VERB
-1.259476	CONJUNCTION CM ADVERB
-0.8613175	CONJUNCTION CM CONJUNCTION
-1.259476	CONJUNCTION CM NOUN
-0.9277175	CONJUNCTION CM NOUN-CONST
-1.443823	CONJUNCTION CM NOUN-DEF
-0.69897	CONJUNCTION CM PREFIX
-1.443823	CONJUNCTION CM PREPOSITION
-1.443823	CONJUNCTION CM PRONOUN
-0.9277175	CONJUNCTION CM VERB
-1.07239	COPULA CM ADVERB
-0.7406309	COPULA CM CONJUNCTION
-0.618225	COPULA CM PREFIX
-1.256737	COPULA CM PREPOSITION
-1.256737	COPULA CM PRONOUN
-1.07239	COPULA CM VERB
-0.9557067	DASH CM PREFIX
-0.9557067	DASH CM PROPERNAME
-0.9557067	DASH CM VERB
-0.6199145	EXISTENTIAL CM PREFIX
-0.6868613	INTERROGATIVE CM PREPOSITION
-0.4355677	LRB CM CM
-0.6199145	LRB CM NUMERAL
-0.4438233	MODAL CM CONJUNCTION
-0.4438233	MODAL CM PREFIX
-1.846301	MW CM ADJECTIVE
-2.195872	MW CM ADVERB
-1.613366	MW CM CM
-0.9923806	MW CM CONJUNCTION
-1.679766	MW CM COPULA
-2.011525	MW CM EXISTENTIAL
-2.011525	MW CM MW
-2.011525	MW CM NEGATION
-1.312716	MW CM NOUN
-1.354108	MW CM NOUN-CONST
-1.312716	MW CM NOUN-DEF
-1.451018	MW CM NUMERAL
-2.195872	MW CM PARTICIPLE-CONST
-0.5617167	MW CM PREFIX
-1.312716	MW CM PREPOSITION
-1.613366	MW CM PRONOUN
-1.451018	MW CM PROPERNAME
-2.195872	MW CM QUANTIFIER
-1.846301	MW CM QUOT
-0.8100404	MW CM VERB
-2.195872	MW CM VERB-INF
-0.6868613	NEGATION CM ADVERB
-0.5025145	NEGATION CM CONJUNCTION
-1.715481	NOUN CM ADJECTIVE
-2.577018	NOUN CM ADJECTIVE-DEF
-1.597382	NOUN CM ADVERB
-2.411793	NOUN CM CM
-0.8782083	NOUN CM CONJUNCTION
-1.878208	NOUN CM COPULA
-2.577018	NOUN CM DOT
-2.245259	NOUN CM EXISTENTIAL
-2.178859	NOUN CM INTERROGATIVE
-2.761364	NOUN CM LRB
-2.411793	NOUN CM MODAL
-2.016511	NOUN CM MW
-1.919601	NOUN CM NEGATION
-0.9152796	NOUN CM NOUN
-1.504628	NOUN CM NOUN-CONST
-1.965358	NOUN CM NOUN-DEF
-2.411793	NOUN CM NOUN-POSSESSIVE
-2.245259	NOUN CM NUMERAL
-0.5113611	NOUN CM PREFIX
-1.187207	NOUN CM PREPOSITION
-1.664329	NOUN CM PRONOUN
-1.689152	NOUN CM PROPERNAME
-2.122853	NOUN CM QUANTIFIER
-2.411793	NOUN CM QUOT
-0.8782083	NOUN CM VERB
-1.878208	NOUN CM VERB-INF
-2.761364	NOUN CM WPREFIX
-1.699096	NOUN-CONST CM ADJECTIVE
-0.9542425	NOUN-CONST CM CONJUNCTION
-1.349525	NOUN-CONST CM NOUN
-1.699096	NOUN-CONST CM NOUN-CONST
-1.514749	NOUN-CONST CM NOUN-DEF
-0.6268836	NOUN-CONST CM PREFIX
-1.060584	NOUN-CONST CM PREPOSITION
-0.8159398	NOUN-CONST CM PROPERNAME
-0.7781513	NOUN-CONST CM VERB
-1.814964	NOUN-DEF CM ADJECTIVE
-2.770671	NOUN-DEF CM ADJECTIVE-DEF
-1.586485	NOUN-DEF CM ADVERB
-2.132159	NOUN-DEF CM CM
-0.9376816	NOUN-DEF CM CONJUNCTION
-1.606688	NOUN-DEF CM COPULA
-2.025818	NOUN-DEF CM EXISTENTIAL
-2.132159	NOUN-DEF CM INTERROGATIVE
-2.188165	NOUN-DEF CM MODAL
-1.928908	NOUN-DEF CM MW
-1.887515	NOUN-DEF CM NEGATION
-1.530968	NOUN-DEF CM NOUN
-1.513934	NOUN-DEF CM NOUN-CONST
-1.397429	NOUN-DEF CM NOUN-DEF
-2.132159	NOUN-DEF CM NOUN-POSSESSIVE
-2.254565	NOUN-DEF CM NUMERAL
-2.770671	NOUN-DEF CM PARTICIPLE
-2.770671	NOUN-DEF CM PARTICIPLE-CONST
-0.4959384	NOUN-DEF CM PREFIX
-1.143578	NOUN-DEF CM PREPOSITION
-1.752816	NOUN-DEF CM PRONOUN
-1.173033	NOUN-DEF CM PROPERNAME
-2.025818	NOUN-DEF CM QUANTIFIER
-2.188165	NOUN-DEF CM QUOT
-0.8954839	NOUN-DEF CM VERB
-1.814964	NOUN-DEF CM VERB-INF
-2.113605	NOUN-POSSESSIVE CM ADJECTIVE
-2.113605	NOUN-POSSESSIVE CM ADJECTIVE-DEF
-1.531099	NOUN-POSSESSIVE CM ADVERB
-0.8739016	NOUN-POSSESSIVE CM CONJUNCTION
-1.929258	NOUN-POSSESSIVE CM COPULA
-1.597499	NOUN-POSSESSIVE CM EXISTENTIAL
-1.929258	NOUN-POSSESSIVE CM INTERROGATIVE
-2.113605	NOUN-POSSESSIVE CM MODAL
-1.764034	NOUN-POSSESSIVE CM NEGATION
-1.271842	NOUN-POSSESSIVE CM NOUN
-2.113605	NOUN-POSSESSIVE CM NOUN-CONST
-1.531099	NOUN-POSSESSIVE CM NOUN-DEF
-1.597499	NOUN-POSSESSIVE CM NOUN-POSSESSIVE
-0.5394478	NOUN-POSSESSIVE CM PREFIX
-1.230449	NOUN-POSSESSIVE CM PREPOSITION
-1.929258	NOUN-POSSESSIVE CM PRONOUN
-1.230449	NOUN-POSSESSIVE CM PROPERNAME
-1.929258	NOUN-POSSESSIVE CM QUOT
-0.8568683	NOUN-POSSESSIVE CM VERB
-2.153517	NUMERAL CM </s>
-1.637411	NUMERAL CM ADVERB
-1.96917	NUMERAL CM CM
-0.8967805	NUMERAL CM CONJUNCTION
-1.96917	NUMERAL CM COPULA
-1.96917	NUMERAL CM DASH
-1.197811	NUMERAL CM DOT
-1.803946	NUMERAL CM MW
-1.270361	NUMERAL CM NOUN
-1.96917	NUMERAL CM NOUN-DEF
-1.107634	NUMERAL CM NUMERAL
-1.515005	NUMERAL CM PERC
-0.6305126	NUMERAL CM PREFIX
-1.107634	NUMERAL CM PREPOSITION
-1.803946	NUMERAL CM PRONOUN
-1.270361	NUMERAL CM PROPERNAME
-1.96917	NUMERAL CM QUOT
-0.9693312	NUMERAL CM VERB
-0.2594765	PARTICIPLE CM CONJUNCTION
-1.997861	PREPOSITION CM ADJECTIVE
-1.340444	PREPOSITION CM ADVERB
-2.182207	PREPOSITION CM CM
-0.796376	PREPOSITION CM CONJUNCTION
-2.182207	PREPOSITION CM COPULA
-1.832636	PREPOSITION CM EXISTENTIAL
-1.832636	PREPOSITION CM MODAL
-1.543696	PREPOSITION CM MW
-1.666102	PREPOSITION CM NEGATION
-1.599702	PREPOSITION CM NOUN
-1.666102	PREPOSITION CM NOUN-CONST
-1.599702	PREPOSITION CM NOUN-DEF
-1.997861	PREPOSITION CM NUMERAL
-2.182207	PREPOSITION CM PARTICIPLE
-0.5342641	PREPOSITION CM PREFIX
-1.194316	PREPOSITION CM PREPOSITION
-1.543696	PREPOSITION CM PRONOUN
-1.599702	PREPOSITION CM PROPERNAME
-1.997861	PREPOSITION CM QUOT
-0.9425041	PREPOSITION CM VERB
-1.997861	PREPOSITION CM VERB-INF
-1.844937	PRONOUN CM ADJECTIVE
-2.029284	PRONOUN CM ADJECTIVE-DEF
-1.233278	PRONOUN CM ADVERB
-0.8864907	PRONOUN CM CONJUNCTION
-1.513178	PRONOUN CM COPULA
-1.679713	PRONOUN CM MODAL
-1.844937	PRONOUN CM MW
-1.513178	PRONOUN CM NEGATION
-1.844937	PRONOUN CM NOUN
-2.029284	PRONOUN CM NOUN-CONST
-1.679713	PRONOUN CM NOUN-DEF
-0.4885507	PRONOUN CM PREFIX
-1.108339	PRONOUN CM PREPOSITION
-2.029284	PRONOUN CM PRONOUN
-1.679713	PRONOUN CM PROPERNAME
-2.029284	PRONOUN CM QUOT
-0.9570718	PRONOUN CM VERB
-1.679713	PRONOUN CM VERB-INF
-2.811179	PROPERNAME CM </s>
-2.015173	PROPERNAME CM ADJECTIVE
-2.066326	PROPERNAME CM ADJECTIVE-DEF
-1.690662	PROPERNAME CM ADVERB
-1.714143	PROPERNAME CM CM
-1.177024	PROPERNAME CM CONJUNCTION
-1.793325	PROPERNAME CM COPULA
-2.295074	PROPERNAME CM DOT
-2.811179	PROPERNAME CM INTERROGATIVE
-2.811179	PROPERNAME CM LRB
-2.461608	PROPERNAME CM MODAL
-1.765296	PROPERNAME CM MW
-1.969416	PROPERNAME CM NEGATION
-1.356632	PROPERNAME CM NOUN
-1.270446	PROPERNAME CM NOUN-CONST
-1.522258	PROPERNAME CM NOUN-DEF
-1.928023	PROPERNAME CM NOUN-POSSESSIVE
-1.714143	PROPERNAME CM NUMERAL
-2.811179	PROPERNAME CM PARTICIPLE
-2.811179	PROPERNAME CM PARTICIPLE-CONST
-0.5732166	PROPERNAME CM PREFIX
-1.325963	PROPERNAME CM PREPOSITION
-2.461608	PROPERNAME CM PRONOUN
-0.8656122	PROPERNAME CM PROPERNAME
-1.738967	PROPERNAME CM QUOT
-0.7847245	PROPERNAME CM VERB
-2.015173	PROPERNAME CM VERB-INF
-0.8346148	PROPERNAME-DEF CM CONJUNCTION
-0.4393327	PROPERNAME-DEF CM PREFIX
-0.9998392	PROPERNAME-DEF CM PREPOSITION
-1.184186	PROPERNAME-DEF CM VERB
-1.097036	QUANTIFIER CM NOUN-CONST
-1.097036	QUANTIFIER CM NOUN-DEF
-0.3521825	QUANTIFIER CM PREFIX
-0.912689	QUANTIFIER CM VERB
-2.21834	QUOT CM ADJECTIVE-DEF
-2.21834	QUOT CM ADVERB
-1.335184	QUOT CM CONJUNCTION
-2.21834	QUOT CM COPULA
-2.033993	QUOT CM DOT
-1.702235	QUOT CM MW
-1.297396	QUOT CM NOUN
-1.579829	QUOT CM NOUN-CONST
-2.033993	QUOT CM NOUN-DEF
-1.702235	QUOT CM NUMERAL
-0.7431085	QUOT CM PREFIX
-1.579829	QUOT CM PREPOSITION
-1.335184	QUOT CM PRONOUN
-1.702235	QUOT CM PROPERNAME
-2.033993	QUOT CM QUANTIFIER
-1.376577	QUOT CM QUOT
-0.3722556	QUOT CM VERB
-2.21834	QUOT CM VERB-INF
-1.46532	RRB CM CM
-1.070038	RRB CM CONJUNCTION
-1.630544	RRB CM DOT
-1.814891	RRB CM MODAL
-1.814891	RRB CM MW
-1.298785	RRB CM NOUN
-1.814891	RRB CM NOUN-CONST
-0.6720979	RRB CM PREFIX
-1.298785	RRB CM PREPOSITION
-0.9731278	RRB CM PROPERNAME
-1.814891	RRB CM QUOT
-0.6720979	RRB CM VERB
-1.814891	RRB CM VERB-INF
-0.1427933	SCLN CM CM
-2.193946	VERB CM ADJECTIVE
-1.238239	VERB CM ADVERB
-2.193946	VERB CM CM
-0.7087299	VERB CM CONJUNCTION
-2.009599	VERB CM COPULA
-1.39794	VERB CM MW
-1.61144	VERB CM NEGATION
-1.844375	VERB CM NOUN
-1.844375	VERB CM NOUN-CONST
-2.193946	VERB CM NOUN-DEF
-0.5668527	VERB CM PREFIX
-1.206054	VERB CM PREPOSITION
-1.352183	VERB CM PRONOUN
-2.193946	VERB CM PROPERNAME
-1.555434	VERB CM QUANTIFIER
-1.67784	VERB CM QUOT
-0.9208187	VERB CM VERB
-1.844375	VERB CM VERB-INF
-1.420844	VERB-INF CM ADVERB
-0.5873367	VERB-INF CM CONJUNCTION
-1.605191	VERB-INF CM MW
-1.605191	VERB-INF CM NOUN
-0.4846744	VERB-INF CM PREFIX
-1.605191	VERB-INF CM PREPOSITION
-1.605191	VERB-INF CM PRONOUN
-1.605191	VERB-INF CM PROPERNAME
-1.25562	VERB-INF CM VERB
-2.198996	<s> CONJUNCTION ADJECTIVE
-2.383343	<s> CONJUNCTION ADJECTIVE-DEF
-1.286307	<s> CONJUNCTION ADVERB
-1.500187	<s> CONJUNCTION CM
-1.337459	<s> CONJUNCTION CONJUNCTION
-2.033771	<s> CONJUNCTION COPULA
-1.427636	<s> CONJUNCTION EXISTENTIAL
-1.744831	<s> CONJUNCTION INTERROGATIVE
-2.033771	<s> CONJUNCTION MODAL
-1.800837	<s> CONJUNCTION MW
-1.638489	<s> CONJUNCTION NEGATION
-1.427636	<s> CONJUNCTION NOUN
-1.286307	<s> CONJUNCTION NOUN-CONST
-1.126606	<s> CONJUNCTION NOUN-DEF
-2.383343	<s> CONJUNCTION NOUN-POSSESSIVE
-0.6607656	<s> CONJUNCTION PREFIX
-1.262826	<s> CONJUNCTION PREPOSITION
-1.286307	<s> CONJUNCTION PRONOUN
-1.500187	<s> CONJUNCTION PROPERNAME
-1.867237	<s> CONJUNCTION QUANTIFIER
-0.8426092	<s> CONJUNCTION VERB
-1.500187	<s> CONJUNCTION VERB-INF
-2.383343	<s> CONJUNCTION WPREFIX
-1.042101	ADJECTIVE CONJUNCTION ADJECTIVE
-1.496266	ADJECTIVE CONJUNCTION ADVERB
-1.098107	ADJECTIVE CONJUNCTION CONJUNCTION
-1.680612	ADJECTIVE CONJUNCTION NEGATION
-1.098107	ADJECTIVE CONJUNCTION NOUN
-1.680612	ADJECTIVE CONJUNCTION NOUN-CONST
-1.496266	ADJECTIVE CONJUNCTION NOUN-DEF
-0.6627578	ADJECTIVE CONJUNCTION PREFIX
-1.164507	ADJECTIVE CONJUNCTION PREPOSITION
-1.496266	ADJECTIVE CONJUNCTION PRONOUN
-1.331041	ADJECTIVE CONJUNCTION VERB
-0.8846066	ADJECTIVE CONJUNCTION VERB-INF
-0.9796358	ADJECTIVE-DEF CONJUNCTION ADJECTIVE-DEF
-1.163983	ADJECTIVE-DEF CONJUNCTION ADVERB
-0.5814768	ADJECTIVE-DEF CONJUNCTION PREFIX
-1.163983	ADJECTIVE-DEF CONJUNCTION VERB
-0.8144114	ADJECTIVE-DEF CONJUNCTION VERB-INF
-1.065393	ADVERB CONJUNCTION ADVERB
-1.810246	ADVERB CONJUNCTION COPULA
-1.625899	ADVERB CONJUNCTION NEGATION
-1.29414	ADVERB CONJUNCTION NOUN
-1.625899	ADVERB CONJUNCTION NOUN-CONST
-1.29414	ADVERB CONJUNCTION NOUN-DEF
-0.5705429	ADVERB CONJUNCTION PREFIX
-1.171735	ADVERB CONJUNCTION PREPOSITION
-1.171735	ADVERB CONJUNCTION PRONOUN
-1.810246	ADVERB CONJUNCTION PROPERNAME
-0.8545396	ADVERB CONJUNCTION VERB
-1.22774	ADVERB CONJUNCTION VERB-INF
-0.7960058	CLN CONJUNCTION NOUN
-0.7960058	CLN CONJUNCTION NOUN-DEF
-0.7960058	CLN CONJUNCTION PREFIX
-0.7960058	CLN CONJUNCTION PRONOUN
-1.651924	CM CONJUNCTION ADJECTIVE
-2.087273	CM CONJUNCTION ADJECTIVE-DEF
-1.259813	CM CONJUNCTION ADVERB
-2.153672	CM CONJUNCTION CLN
-1.873773	CM CONJUNCTION CM
-1.215231	CM CONJUNCTION CONJUNCTION
-1.924925	CM CONJUNCTION COPULA
-1.748834	CM CONJUNCTION EXISTENTIAL
-2.485431	CM CONJUNCTION INTERROGATIVE
-2.087273	CM CONJUNCTION MODAL
-2.031267	CM CONJUNCTION MW
-1.215231	CM CONJUNCTION NEGATION
-1.296536	CM CONJUNCTION NOUN
-1.447804	CM CONJUNCTION NOUN-CONST
-1.112012	CM CONJUNCTION NOUN-DEF
-1.714072	CM CONJUNCTION NOUN-POSSESSIVE
-2.087273	CM CONJUNCTION NUMERAL
-0.6666471	CM CONJUNCTION PREFIX
-1.174803	CM CONJUNCTION PREPOSITION
-1.259813	CM CONJUNCTION PRONOUN
-1.572743	CM CONJUNCTION PROPERNAME
-1.924925	CM CONJUNCTION QUANTIFIER
-2.031267	CM CONJUNCTION QUOT
-1.049864	CM CONJUNCTION VERB
-1.336653	CM CONJUNCTION VERB-INF
-1.858797	CONJUNCTION CONJUNCTION ADJECTIVE
-1.509225	CONJUNCTION CONJUNCTION ADVERB
-1.67445	CONJUNCTION CONJUNCTION CM
-1.276291	CONJUNCTION CONJUNCTION COPULA
-1.858797	CONJUNCTION CONJUNCTION EXISTENTIAL
-1.342691	CONJUNCTION CONJUNCTION NEGATION
-1.113943	CONJUNCTION CONJUNCTION NOUN
-1.67445	CONJUNCTION CONJUNCTION NOUN-CONST
-1.062791	CONJUNCTION CONJUNCTION NOUN-DEF
-1.858797	CONJUNCTION CONJUNCTION NOUN-POSSESSIVE
-1.858797	CONJUNCTION CONJUNCTION NUMERAL
-0.6368221	CONJUNCTION CONJUNCTION PREFIX
-1.276291	CONJUNCTION CONJUNCTION PREPOSITION
-1.342691	CONJUNCTION CONJUNCTION PRONOUN
-1.858797	CONJUNCTION CONJUNCTION PROPERNAME
-1.017033	CONJUNCTION CONJUNCTION VERB
-1.220285	CONJUNCTION CONJUNCTION VERB-INF
-0.5602875	COPULA CONJUNCTION NOUN
-1.142793	COPULA CONJUNCTION NOUN-CONST
-0.9584465	COPULA CONJUNCTION NOUN-DEF
-0.7932221	COPULA CONJUNCTION PREFIX
-0.1760913	EXISTENTIAL CONJUNCTION NOUN
-0.6199145	INTERROGATIVE CONJUNCTION NEGATION
-0.4355677	INTERROGATIVE CONJUNCTION PREFIX
-0.6988091	LRB CONJUNCTION PREFIX
-0.883156	LRB CONJUNCTION PREPOSITION
-0.883156	LRB CONJUNCTION VERB
-0.5025145	MODAL CONJUNCTION VERB-INF
-0.9878913	MW CONJUNCTION NOUN-DEF
-0.6383201	MW CONJUNCTION PREFIX
-0.9878913	MW CONJUNCTION VERB
-0.5407333	NEGATION CONJUNCTION PREPOSITION
-1.928123	NOUN CONJUNCTION ADJECTIVE
-1.743776	NOUN CONJUNCTION ADVERB
-1.743776	NOUN CONJUNCTION CM
-1.743776	NOUN CONJUNCTION CONJUNCTION
-1.743776	NOUN CONJUNCTION COPULA
-1.743776	NOUN CONJUNCTION EXISTENTIAL
-1.578552	NOUN CONJUNCTION NEGATION
-0.6884198	NOUN CONJUNCTION NOUN
-1.132117	NOUN CONJUNCTION NOUN-CONST
-1.743776	NOUN CONJUNCTION NOUN-DEF
-0.7439371	NOUN CONJUNCTION PREFIX
-1.132117	NOUN CONJUNCTION PREPOSITION
-1.743776	NOUN CONJUNCTION PRONOUN
-1.044967	NOUN CONJUNCTION VERB
-0.9402318	NOUN CONJUNCTION VERB-INF
-0.8417633	NOUN-CONST CONJUNCTION NOUN-DEF
-0.8417633	NOUN-CONST CONJUNCTION NOUN-POSSESSIVE
-1.505029	NOUN-DEF CONJUNCTION ADJECTIVE
-1.505029	NOUN-DEF CONJUNCTION ADVERB
-1.272095	NOUN-DEF CONJUNCTION CONJUNCTION
-1.854601	NOUN-DEF CONJUNCTION COPULA
-1.854601	NOUN-DEF CONJUNCTION EXISTENTIAL
-1.505029	NOUN-DEF CONJUNCTION NOUN
-1.012837	NOUN-DEF CONJUNCTION NOUN-CONST
-1.058595	NOUN-DEF CONJUNCTION NOUN-DEF
-0.7823883	NOUN-DEF CONJUNCTION PREFIX
-1.505029	NOUN-DEF CONJUNCTION PREPOSITION
-1.854601	NOUN-DEF CONJUNCTION PRONOUN
-1.338495	NOUN-DEF CONJUNCTION PROPERNAME
-1.854601	NOUN-DEF CONJUNCTION QUOT
-0.8087173	NOUN-DEF CONJUNCTION VERB
-1.058595	NOUN-DEF CONJUNCTION VERB-INF
-1.239703	NOUN-POSSESSIVE CONJUNCTION ADVERB
-1.239703	NOUN-POSSESSIVE CONJUNCTION NOUN-CONST
-1.239703	NOUN-POSSESSIVE CONJUNCTION NOUN-DEF
-0.6011916	NOUN-POSSESSIVE CONJUNCTION PREFIX
-1.239703	NOUN-POSSESSIVE CONJUNCTION PRONOUN
-1.239703	NOUN-POSSESSIVE CONJUNCTION VERB
-0.883156	NUMERAL CONJUNCTION PREFIX
-0.883156	NUMERAL CONJUNCTION VERB
-0.883156	NUMERAL CONJUNCTION VERB-INF
-0.3188846	PARTICIPLE CONJUNCTION PREFIX
-1.608085	PREFIX CONJUNCTION ADJECTIVE
-2.246597	PREFIX CONJUNCTION ADJECTIVE-DEF
-1.200714	PREFIX CONJUNCTION ADVERB
-1.664091	PREFIX CONJUNCTION CM
-1.325652	PREFIX CONJUNCTION CONJUNCTION
-2.06225	PREFIX CONJUNCTION COPULA
-1.897026	PREFIX CONJUNCTION EXISTENTIAL
-1.174385	PREFIX CONJUNCTION NEGATION
-1.228742	PREFIX CONJUNCTION NOUN
-1.325652	PREFIX CONJUNCTION NOUN-CONST
-1.006894	PREFIX CONJUNCTION NOUN-DEF
-1.501744	PREFIX CONJUNCTION NOUN-POSSESSIVE
-2.246597	PREFIX CONJUNCTION NUMERAL
-0.8137691	PREFIX CONJUNCTION PREFIX
-1.228742	PREFIX CONJUNCTION PREPOSITION
-1.258706	PREFIX CONJUNCTION PRONOUN
-1.501744	PREFIX CONJUNCTION PROPERNAME
-2.06225	PREFIX CONJUNCTION QUOT
-0.8733548	PREFIX CONJUNCTION VERB
-1.608085	PREFIX CONJUNCTION VERB-INF
-1.145405	PREPOSITION CONJUNCTION ADVERB
-1.494976	PREPOSITION CONJUNCTION COPULA
-0.97887	PREPOSITION CONJUNCTION NOUN
-1.494976	PREPOSITION CONJUNCTION NOUN-CONST
-0.91247	PREPOSITION CONJUNCTION PREFIX
-0.8564641	PREPOSITION CONJUNCTION PREPOSITION
-0.7501225	PREPOSITION CONJUNCTION VERB
-0.97887	PREPOSITION CONJUNCTION VERB-INF
-0.6784483	PRONOUN CONJUNCTION ADJECTIVE
-1.449808	PRONOUN CONJUNCTION CONJUNCTION
-1.634155	PRONOUN CONJUNCTION COPULA
-1.634155	PRONOUN CONJUNCTION MODAL
-1.449808	PRONOUN CONJUNCTION NOUN
-1.634155	PRONOUN CONJUNCTION NOUN-DEF
-1.634155	PRONOUN CONJUNCTION NOUN-POSSESSIVE
-1.051649	PRONOUN CONJUNCTION PREFIX
-1.449808	PRONOUN CONJUNCTION PREPOSITION
-1.634155	PRONOUN CONJUNCTION PRONOUN
-0.6462637	PRONOUN CONJUNCTION VERB
-1.118049	PRONOUN CONJUNCTION VERB-INF
-1.398066	PROPERNAME CONJUNCTION CONJUNCTION
-1.213719	PROPERNAME CONJUNCTION COPULA
-1.398066	PROPERNAME CONJUNCTION EXISTENTIAL
-1.398066	PROPERNAME CONJUNCTION NEGATION
-1.398066	PROPERNAME CONJUNCTION NOUN-DEF
-0.88196	PROPERNAME CONJUNCTION PREFIX
-1.213719	PROPERNAME CONJUNCTION PREPOSITION
-1.048495	PROPERNAME CONJUNCTION VERB
-0.88196	PROPERNAME CONJUNCTION VERB-INF
-0.6868613	QUANTIFIER CONJUNCTION PREFIX
-0.5025145	QUANTIFIER CONJUNCTION VERB-INF
-1.346913	QUOT CONJUNCTION ADVERB
-1.162566	QUOT CONJUNCTION CONJUNCTION
-1.346913	QUOT CONJUNCTION INTERROGATIVE
-1.346913	QUOT CONJUNCTION NOUN-CONST
-1.346913	QUOT CONJUNCTION NOUN-DEF
-0.7644075	QUOT CONJUNCTION PREFIX
-1.162566	QUOT CONJUNCTION QUOT
-1.162566	QUOT CONJUNCTION VERB
-1.162566	QUOT CONJUNCTION VERB-INF
-0.883156	SCLN CONJUNCTION NOUN-CONST
-0.6988091	SCLN CONJUNCTION PREFIX
-2.350966	VERB CONJUNCTION ADJECTIVE
-1.83486	VERB CONJUNCTION ADVERB
-1.83486	VERB CONJUNCTION CONJUNCTION
-2.350966	VERB CONJUNCTION COPULA
-1.509202	VERB CONJUNCTION EXISTENTIAL
-1.712454	VERB CONJUNCTION MODAL
-2.166619	VERB CONJUNCTION MW
-1.83486	VERB CONJUNCTION NEGATION
-1.25393	VERB CONJUNCTION NOUN
-1.111263	VERB CONJUNCTION NOUN-CONST
-0.8757341	VERB CONJUNCTION NOUN-DEF
-1.712454	VERB CONJUNCTION NOUN-POSSESSIVE
-1.46781	VERB CONJUNCTION NUMERAL
-2.350966	VERB CONJUNCTION PARTICIPLE-CONST
-0.7383505	VERB CONJUNCTION PREFIX
-1.16678	VERB CONJUNCTION PREPOSITION
-1.094229	VERB CONJUNCTION PRONOUN
-1.363075	VERB CONJUNCTION PROPERNAME
-1.712454	VERB CONJUNCTION QUANTIFIER
-1.509202	VERB CONJUNCTION QUOT
-1.128991	VERB CONJUNCTION VERB
-1.509202	VERB CONJUNCTION VERB-INF
-1.329514	VERB-INF CONJUNCTION NOUN
-1.513861	VERB-INF CONJUNCTION NOUN-CONST
-0.8753495	VERB-INF CONJUNCTION NOUN-DEF
-1.513861	VERB-INF CONJUNCTION NOUN-POSSESSIVE
-1.16429	VERB-INF CONJUNCTION PREFIX
-0.9977553	VERB-INF CONJUNCTION PREPOSITION
-0.9977553	VERB-INF CONJUNCTION PRONOUN
-1.329514	VERB-INF CONJUNCTION VERB
-0.7690079	VERB-INF CONJUNCTION VERB-INF
-1.338658	<s> COPULA ADJECTIVE
-1.523005	<s> COPULA ADVERB
-1.173433	<s> COPULA MODAL
-0.6812412	<s> COPULA NOUN
-1.173433	<s> COPULA NOUN-CONST
-1.523005	<s> COPULA NOUN-DEF
-1.523005	<s> COPULA PREFIX
-1.523005	<s> COPULA PREPOSITION
-1.338658	<s> COPULA PRONOUN
-1.523005	<s> COPULA QUANTIFIER
-0.6398485	<s> COPULA VERB
-0.9693134	ADJECTIVE COPULA ADJECTIVE
-1.318885	ADJECTIVE COPULA ADVERB
-1.134538	ADJECTIVE COPULA NOUN
-1.134538	ADJECTIVE COPULA NOUN-CONST
-0.9693134	ADJECTIVE COPULA PREFIX
-0.6803729	ADJECTIVE COPULA VERB
-1.318885	ADJECTIVE COPULA VERB-INF
-0.9436144	ADJECTIVE-DEF COPULA ADJECTIVE
-1.06602	ADJECTIVE-DEF COPULA ADVERB
-1.397779	ADJECTIVE-DEF COPULA CONJUNCTION
-0.69897	ADJECTIVE-DEF COPULA NOUN
-1.397779	ADJECTIVE-DEF COPULA NOUN-CONST
-1.232555	ADJECTIVE-DEF COPULA NOUN-DEF
-1.232555	ADJECTIVE-DEF COPULA PREFIX
-1.397779	ADJECTIVE-DEF COPULA PROPERNAME
-1.232555	ADJECTIVE-DEF COPULA VERB
-1.582126	ADJECTIVE-DEF COPULA VERB-INF
-1.15495	ADVERB COPULA ADJECTIVE
-1.320174	ADVERB COPULA ADVERB
-1.15495	ADVERB COPULA CM
-1.15495	ADVERB COPULA MODAL
-1.15495	ADVERB COPULA NOUN
-1.504521	ADVERB COPULA NOUN-CONST
-0.9884154	ADVERB COPULA NOUN-DEF
-1.15495	ADVERB COPULA PREFIX
-1.320174	ADVERB COPULA PRONOUN
-1.320174	ADVERB COPULA PROPERNAME
-1.320174	ADVERB COPULA VERB
-0.9176487	CM COPULA ADJECTIVE
-1.284699	CM COPULA ADVERB
-1.800805	CM COPULA CONJUNCTION
-1.218299	CM COPULA MODAL
-0.6580114	CM COPULA NOUN
-1.616458	CM COPULA NOUN-CONST
-1.284699	CM COPULA NOUN-DEF
-1.800805	CM COPULA NOUN-POSSESSIVE
-1.055951	CM COPULA PREFIX
-1.616458	CM COPULA PREPOSITION
-1.451234	CM COPULA PRONOUN
-1.800805	CM COPULA QUANTIFIER
-0.845098	CM COPULA VERB
-0.8160355	CONJUNCTION COPULA ADJECTIVE
-0.7096938	CONJUNCTION COPULA MODAL
-1.2702	CONJUNCTION COPULA NOUN
-1.454547	CONJUNCTION COPULA PREFIX
-1.454547	CONJUNCTION COPULA PREPOSITION
-1.2702	CONJUNCTION COPULA PRONOUN
-0.6585413	CONJUNCTION COPULA VERB
-0.4438233	COPULA COPULA NOUN
-0.7448533	INTERROGATIVE COPULA NOUN-DEF
-0.7448533	INTERROGATIVE COPULA PREFIX
-0.5605065	INTERROGATIVE COPULA VERB
-0.6300887	MODAL COPULA ADJECTIVE
-1.298372	MODAL COPULA CM
-1.463596	MODAL COPULA COPULA
-0.90309	MODAL COPULA NOUN
-1.131837	MODAL COPULA NOUN-DEF
-1.647943	MODAL COPULA PREFIX
-1.298372	MODAL COPULA VERB
-0.50515	MODAL COPULA VERB-INF
-0.9998392	MW COPULA ADJECTIVE
-1.184186	MW COPULA MODAL
-0.6680802	MW COPULA NOUN
-1.184186	MW COPULA NOUN-CONST
-0.9998392	MW COPULA PREPOSITION
-0.9998392	MW COPULA VERB
-0.6180481	NEGATION COPULA ADJECTIVE
-0.9648356	NEGATION COPULA ADVERB
-1.760841	NEGATION COPULA DOT
-1.41127	NEGATION COPULA MODAL
-0.8776854	NEGATION COPULA NOUN
-1.576495	NEGATION COPULA NOUN-DEF
-1.178336	NEGATION COPULA PREFIX
-1.41127	NEGATION COPULA PREPOSITION
-1.576495	NEGATION COPULA PRONOUN
-1.576495	NEGATION COPULA QUANTIFIER
-1.41127	NEGATION COPULA QUOT
-0.9648356	NEGATION COPULA VERB
-1.044587	NOUN COPULA ADJECTIVE
-1.627093	NOUN COPULA MODAL
-0.6713865	NOUN COPULA NOUN
-1.442746	NOUN COPULA NOUN-CONST
-1.442746	NOUN COPULA NOUN-DEF
-0.9885815	NOUN COPULA PREFIX
-1.627093	NOUN COPULA PROPERNAME
-0.5300573	NOUN COPULA VERB
-0.8087173	NOUN-DEF COPULA ADJECTIVE
-1.806059	NOUN-DEF COPULA ADJECTIVE-DEF
-1.359625	NOUN-DEF COPULA ADVERB
-1.806059	NOUN-DEF COPULA CM
-2.155631	NOUN-DEF COPULA CONJUNCTION
-2.155631	NOUN-DEF COPULA DOT
-1.359625	NOUN-DEF COPULA MODAL
-2.155631	NOUN-DEF COPULA MW
-0.836746	NOUN-DEF COPULA NOUN
-1.517119	NOUN-DEF COPULA NOUN-CONST
-1.272475	NOUN-DEF COPULA NOUN-DEF
-1.359625	NOUN-DEF COPULA NUMERAL
-2.155631	NOUN-DEF COPULA PARTICIPLE
-0.8667092	NOUN-DEF COPULA PREFIX
-1.272475	NOUN-DEF COPULA PREPOSITION
-1.410777	NOUN-DEF COPULA PROPERNAME
-2.155631	NOUN-DEF COPULA QUANTIFIER
-2.155631	NOUN-DEF COPULA QUOT
-0.9916479	NOUN-DEF COPULA VERB
-1.573125	NOUN-DEF COPULA VERB-INF
-1.971284	NOUN-DEF COPULA WPREFIX
-0.7595541	NOUN-POSSESSIVE COPULA ADJECTIVE
-1.048495	NOUN-POSSESSIVE COPULA NOUN
-1.048495	NOUN-POSSESSIVE COPULA PREFIX
-1.213719	NOUN-POSSESSIVE COPULA PREPOSITION
-1.048495	NOUN-POSSESSIVE COPULA PROPERNAME
-1.048495	NOUN-POSSESSIVE COPULA VERB
-1.398066	NOUN-POSSESSIVE COPULA VERB-INF
-0.9209446	NUMERAL COPULA NOUN
-0.5713733	NUMERAL COPULA PREFIX
-0.9209446	NUMERAL COPULA PROPERNAME
-0.7858381	PREFIX COPULA ADJECTIVE
-1.191603	PREFIX COPULA ADVERB
-1.558654	PREFIX COPULA CM
-2.074759	PREFIX COPULA DOT
-1.153815	PREFIX COPULA MODAL
-2.074759	PREFIX COPULA MW
-1.191603	PREFIX COPULA NOUN
-1.492254	PREFIX COPULA NOUN-CONST
-1.558654	PREFIX COPULA NOUN-DEF
-2.074759	PREFIX COPULA NOUN-POSSESSIVE
-2.074759	PREFIX COPULA NUMERAL
-1.890413	PREFIX COPULA PARTICIPLE
-1.119053	PREFIX COPULA PREFIX
-1.028876	PREFIX COPULA PREPOSITION
-1.725188	PREFIX COPULA PRONOUN
-2.074759	PREFIX COPULA PROPERNAME
-2.074759	PREFIX COPULA QUANTIFIER
-2.074759	PREFIX COPULA QUOT
-0.6097468	PREFIX COPULA VERB
-1.201485	PREPOSITION COPULA ADJECTIVE
-1.201485	PREPOSITION COPULA ADVERB
-1.385831	PREPOSITION COPULA CONJUNCTION
-0.8697255	PREPOSITION COPULA NOUN
-1.03626	PREPOSITION COPULA NOUN-DEF
-0.8033255	PREPOSITION COPULA PREFIX
-1.385831	PREPOSITION COPULA QUOT
-1.385831	PREPOSITION COPULA VERB
-0.916454	PRONOUN COPULA ADJECTIVE
-1.446231	PRONOUN COPULA ADVERB
-1.962337	PRONOUN COPULA CM
-1.77799	PRONOUN COPULA CONJUNCTION
-1.379831	PRONOUN COPULA MODAL
-0.7983546	PRONOUN COPULA NOUN
-1.041393	PRONOUN COPULA NOUN-CONST
-1.217484	PRONOUN COPULA NOUN-DEF
-1.77799	PRONOUN COPULA NOUN-POSSESSIVE
-1.612766	PRONOUN COPULA NUMERAL
-1.962337	PRONOUN COPULA PARTICIPLE
-0.9744459	PRONOUN COPULA PREFIX
-1.962337	PRONOUN COPULA PREPOSITION
-1.77799	PRONOUN COPULA PROPERNAME
-0.7056006	PRONOUN COPULA VERB
-1.962337	PRONOUN COPULA WPREFIX
-0.9542425	PROPERNAME COPULA ADJECTIVE
-1.565902	PROPERNAME COPULA ADJECTIVE-DEF
-1.234143	PROPERNAME COPULA ADVERB
-1.750248	PROPERNAME COPULA CLN
-1.400677	PROPERNAME COPULA CONJUNCTION
-1.400677	PROPERNAME COPULA MODAL
-1.750248	PROPERNAME COPULA MW
-0.7323937	PROPERNAME COPULA NOUN
-1.111737	PROPERNAME COPULA NOUN-CONST
-0.9542425	PROPERNAME COPULA NOUN-DEF
-1.167742	PROPERNAME COPULA PREFIX
-1.400677	PROPERNAME COPULA PREPOSITION
-1.005395	PROPERNAME COPULA VERB
-0.5713733	QUANTIFIER COPULA NOUN
-0.9209446	QUANTIFIER COPULA NOUN-DEF
-0.7365977	QUANTIFIER COPULA PREPOSITION
-0.9209446	QUANTIFIER COPULA VERB
-0.8724033	QUOT COPULA ADJECTIVE
-0.8724033	QUOT COPULA ADVERB
-0.6394687	QUOT COPULA NOUN
-1.221974	QUOT COPULA PREPOSITION
-0.8724033	QUOT COPULA VERB
-0.3188846	RRB COPULA NOUN
-1.08878	VERB COPULA ADJECTIVE
-1.273127	VERB COPULA ADVERB
-1.273127	VERB COPULA CONJUNCTION
-1.273127	VERB COPULA NOUN
-0.4771213	VERB COPULA PREFIX
-0.6199145	<s> DASH MW
-0.4355677	<s> DASH PROPERNAME
-0.1119738	ADJECTIVE DASH ADJECTIVE
-0.9361701	ADJECTIVE-CONST DASH ADJECTIVE
-0.3245111	ADJECTIVE-CONST DASH NOUN
-0.5380111	ADJECTIVE-CONST DASH NOUN-DEF
-0.06366908	ADJECTIVE-DEF DASH ADJECTIVE
-0.6574165	ADVERB DASH NOUN
-0.2592575	ADVERB DASH NUMERAL
-0.611659	CM DASH NOUN
-0.7960058	CM DASH NUMERAL
-0.7960058	CM DASH PROPERNAME
-0.2594765	CONJUNCTION DASH MW
-0.3563865	DASH DASH CM
-0.001570687	MW DASH MW
-0.146128	NEGATION DASH ADJECTIVE
-1.163983	NEGATION DASH PREPOSITION
-1.248481	NOUN DASH ADJECTIVE
-0.4149733	NOUN DASH NOUN
-1.248481	NOUN DASH NOUN-POSSESSIVE
-1.248481	NOUN DASH NUMERAL
-0.6879746	NOUN DASH PREFIX
-1.432828	NOUN DASH PREPOSITION
-1.819487	NOUN-CONST DASH CM
-1.63514	NOUN-CONST DASH DASH
-1.819487	NOUN-CONST DASH DOT
-0.3544743	NOUN-CONST DASH NOUN
-0.7224511	NOUN-CONST DASH NOUN-DEF
-1.469916	NOUN-CONST DASH NOUN-POSSESSIVE
-1.236981	NOUN-CONST DASH NUMERAL
-1.819487	NOUN-CONST DASH PREFIX
-1.180975	NOUN-CONST DASH PROPERNAME
-0.5017487	NOUN-DEF DASH ADJECTIVE
-0.6682833	NOUN-DEF DASH NOUN
-0.8335077	NOUN-DEF DASH VERB
-0.3188846	NOUN-POSSESSIVE DASH ADJECTIVE
-1.201485	NUMERAL DASH </s>
-1.201485	NUMERAL DASH NOUN
-0.146128	NUMERAL DASH NUMERAL
-0.4921921	PARTICIPLE-CONST DASH NOUN
-0.8417633	PARTICIPLE-CONST DASH NOUN-CONST
-0.8417633	PARTICIPLE-CONST DASH NOUN-DEF
-1.776262	PREFIX DASH NOUN-CONST
-0.03687136	PREFIX DASH NUMERAL
-1.072212	PREPOSITION DASH ADJECTIVE
-1.072212	PREPOSITION DASH DASH
-0.4337006	PREPOSITION DASH NOUN
-0.8878654	PREPOSITION DASH NOUN-DEF
-1.605191	PROPERNAME DASH ADJECTIVE
-1.605191	PROPERNAME DASH ADVERB
-1.089085	PROPERNAME DASH CM
-1.605191	PROPERNAME DASH MW
-1.605191	PROPERNAME DASH PREFIX
-0.161368	PROPERNAME DASH PROPERNAME
-0.1427933	QUOT DASH PROPERNAME
-0.9878913	VERB DASH INTERROGATIVE
-0.4717855	VERB DASH NOUN
-0.1427933	VERB-INF DASH PROPERNAME
-0.2263964	WPREFIX DASH ADJECTIVE
-0.9822713	WPREFIX DASH MW
-0.90309	WPREFIX DASH NOUN
-1.824035	WPREFIX DASH NOUN-CONST
-1.639688	WPREFIX DASH NOUN-DEF
-1.824035	WPREFIX DASH NOUN-POSSESSIVE
-1.639688	WPREFIX DASH PROPERNAME
-1.639688	WPREFIX DASH VERB
-0.02996322	<s> DOT </s>
-0.0008408414	ADJECTIVE DOT </s>
-0.001623533	ADJECTIVE-DEF DOT </s>
-0.0019345	ADVERB DOT </s>
-0.01223446	CM DOT </s>
-0.09425209	CONJUNCTION DOT </s>
-0.04139268	COPULA DOT </s>
-0.05115252	DASH DOT </s>
-0.004196114	MW DOT </s>
-0.03778856	NEGATION DOT </s>
-0.0005794457	NOUN DOT </s>
-0.00694886	NOUN-CONST DOT </s>
-0.0005614668	NOUN-DEF DOT </s>
-0.002155312	NOUN-POSSESSIVE DOT </s>
-0.002155312	NUMERAL DOT </s>
-0.02462751	PREFIX DOT </s>
-0.001798323	PREPOSITION DOT </s>
-0.003696145	PRONOUN DOT </s>
-0.00100415	PROPERNAME DOT </s>
-0.02632894	PROPERNAME-DEF DOT </s>
-0.01930515	QUANTIFIER DOT </s>
-0.001599613	QUOT DOT </s>
-0.003966187	RRB DOT </s>
-0.002577423	VERB DOT </s>
-0.006160309	VERB-INF DOT </s>
-0.09425209	WPREFIX DOT </s>
-1.627093	<s> EXISTENTIAL CM
-1.277522	<s> EXISTENTIAL CONJUNCTION
-0.5300573	<s> EXISTENTIAL NOUN
-0.7061486	<s> EXISTENTIAL PREFIX
-0.6392018	<s> EXISTENTIAL PREPOSITION
-1.442746	<s> EXISTENTIAL QUANTIFIER
-1.442746	<s> EXISTENTIAL VERB
-0.4438233	ADJECTIVE-DEF EXISTENTIAL CONJUNCTION
-0.4438233	ADJECTIVE-DEF EXISTENTIAL NOUN
-0.9209446	ADVERB EXISTENTIAL ADVERB
-0.5713733	ADVERB EXISTENTIAL NOUN
-0.9209446	ADVERB EXISTENTIAL PREFIX
-0.9209446	ADVERB EXISTENTIAL PREPOSITION
-0.5407333	CLN EXISTENTIAL PREPOSITION
-0.81556	CM EXISTENTIAL ADVERB
-0.60206	CM EXISTENTIAL NOUN
-0.81556	CM EXISTENTIAL PREFIX
-0.60206	CM EXISTENTIAL PREPOSITION
-1.213719	CM EXISTENTIAL QUANTIFIER
-1.041661	CONJUNCTION EXISTENTIAL ADVERB
-1.37342	CONJUNCTION EXISTENTIAL CONJUNCTION
-0.5399121	CONJUNCTION EXISTENTIAL NOUN
-0.919255	CONJUNCTION EXISTENTIAL PREFIX
-0.4855544	CONJUNCTION EXISTENTIAL PREPOSITION
-1.37342	CONJUNCTION EXISTENTIAL QUANTIFIER
-0.3188846	LRB EXISTENTIAL PREPOSITION
-0.5407333	MW EXISTENTIAL CONJUNCTION
-0.5407333	MW EXISTENTIAL PREPOSITION
-0.1038088	NEGATION EXISTENTIAL NOUN
-0.4396009	NOUN EXISTENTIAL NOUN
-0.9557067	NOUN EXISTENTIAL PREFIX
-0.7713599	NOUN EXISTENTIAL PREPOSITION
-1.142793	NOUN-DEF EXISTENTIAL ADVERB
-0.39794	NOUN-DEF EXISTENTIAL NOUN
-1.142793	NOUN-DEF EXISTENTIAL NOUN-CONST
-1.142793	NOUN-DEF EXISTENTIAL PROPERNAME
-0.5407333	NOUN-POSSESSIVE EXISTENTIAL NOUN
-0.1427933	NUMERAL EXISTENTIAL NOUN
-0.7096938	PREFIX EXISTENTIAL NOUN
-1.755577	PREFIX EXISTENTIAL NOUN-CONST
-0.6585413	PREFIX EXISTENTIAL PREFIX
-0.3575113	PREFIX EXISTENTIAL PREPOSITION
-1.755577	PREFIX EXISTENTIAL VERB
-0.317195	PREPOSITION EXISTENTIAL NOUN
-0.9557067	PREPOSITION EXISTENTIAL NUMERAL
-0.7960058	PRONOUN EXISTENTIAL NOUN
-0.7960058	PRONOUN EXISTENTIAL PREFIX
-0.2446443	PROPERNAME EXISTENTIAL NOUN
-0.3188846	QUANTIFIER EXISTENTIAL NOUN
-0.6988091	QUOT EXISTENTIAL NOUN
-0.5335848	QUOT EXISTENTIAL PREPOSITION
-0.5335848	QUOT EXISTENTIAL QUANTIFIER
-1.744853	<s> INTERROGATIVE ADJECTIVE
-1.228747	<s> INTERROGATIVE ADVERB
-1.744853	<s> INTERROGATIVE CM
-1.744853	<s> INTERROGATIVE CONJUNCTION
-1.744853	<s> INTERROGATIVE MODAL
-1.395282	<s> INTERROGATIVE NOUN
-1.228747	<s> INTERROGATIVE NOUN-CONST
-1.228747	<s> INTERROGATIVE NOUN-DEF
-0.5606673	<s> INTERROGATIVE PREFIX
-1.744853	<s> INTERROGATIVE PREPOSITION
-0.9488475	<s> INTERROGATIVE PRONOUN
-1.560506	<s> INTERROGATIVE QM
-0.8239087	<s> INTERROGATIVE VERB
-0.4048387	ADVERB INTERROGATIVE PREFIX
-0.9209446	ADVERB INTERROGATIVE VERB
-0.8035445	CLN INTERROGATIVE MODAL
-0.8035445	CLN INTERROGATIVE PREFIX
-1.360277	CM INTERROGATIVE ADJECTIVE
-1.360277	CM INTERROGATIVE COPULA
-1.360277	CM INTERROGATIVE NOUN
-1.360277	CM INTERROGATIVE NOUN-CONST
-1.17593	CM INTERROGATIVE NOUN-DEF
-0.615424	CM INTERROGATIVE PREFIX
-0.5642715	CM INTERROGATIVE VERB
-1.360277	CM INTERROGATIVE VERB-INF
-0.9878913	CONJUNCTION INTERROGATIVE MODAL
-0.9878913	CONJUNCTION INTERROGATIVE NOUN-DEF
-0.8035445	CONJUNCTION INTERROGATIVE PREFIX
-0.9878913	CONJUNCTION INTERROGATIVE PRONOUN
-0.9878913	CONJUNCTION INTERROGATIVE VERB
-0.1427933	COPULA INTERROGATIVE PREFIX
-0.5407333	DASH INTERROGATIVE PREFIX
-0.6868613	NOUN INTERROGATIVE VERB
-0.3188846	NOUN-CONST INTERROGATIVE PREFIX
-0.5713733	NOUN-DEF INTERROGATIVE VERB
-0.9209446	NOUN-DEF INTERROGATIVE VERB-INF
-1.566039	PREFIX INTERROGATIVE ADVERB
-1.381692	PREFIX INTERROGATIVE NOUN-CONST
-1.381692	PREFIX INTERROGATIVE NOUN-DEF
-0.2057619	PREFIX INTERROGATIVE PREFIX
-1.566039	PREFIX INTERROGATIVE PREPOSITION
-1.216468	PREFIX INTERROGATIVE VERB
-1.566039	PREFIX INTERROGATIVE VERB-INF
-1.213719	PREPOSITION INTERROGATIVE ADJECTIVE
-0.30103	PREPOSITION INTERROGATIVE PREFIX
-1.048495	PREPOSITION INTERROGATIVE PRONOUN
-1.398066	PREPOSITION INTERROGATIVE VERB
-1.398066	PREPOSITION INTERROGATIVE VERB-INF
-0.5025145	PRONOUN INTERROGATIVE PREFIX
-0.0211893	QUANTIFIER INTERROGATIVE PREFIX
-0.9557067	QUOT INTERROGATIVE NEGATION
-0.9557067	QUOT INTERROGATIVE NOUN
-0.9557067	QUOT INTERROGATIVE PREFIX
-0.9071655	VERB INTERROGATIVE CM
-1.256737	VERB INTERROGATIVE NOUN
-1.256737	VERB INTERROGATIVE NOUN-DEF
-1.07239	VERB INTERROGATIVE PREFIX
-0.9071655	VERB INTERROGATIVE VERB
-0.9071655	VERB INTERROGATIVE VERB-INF
-0.9557067	VERB-INF INTERROGATIVE MODAL
-0.9557067	VERB-INF INTERROGATIVE PREFIX
-0.6061355	VERB-INF INTERROGATIVE VERB
-0.6682833	<s> LRB ADJECTIVE
-1.017855	<s> LRB NUMERAL
-0.4353487	<s> LRB PROPERNAME
-0.9835538	ADJECTIVE LRB ADVERB
-1.333125	ADJECTIVE LRB NEGATION
-1.148778	ADJECTIVE LRB NOUN
-1.333125	ADJECTIVE LRB NUMERAL
-0.6946133	ADJECTIVE LRB PREFIX
-1.333125	ADJECTIVE LRB PREPOSITION
-0.9835538	ADJECTIVE LRB RRB
-0.9361701	ADJECTIVE-DEF LRB NUMERAL
-0.7709457	ADJECTIVE-DEF LRB PREFIX
-1.120517	ADJECTIVE-DEF LRB PREPOSITION
-1.120517	ADJECTIVE-DEF LRB PROPERNAME
-0.5025145	ADVERB LRB NUMERAL
-0.5025145	ADVERB LRB PREPOSITION
-0.4438233	CLN LRB ADJECTIVE
-0.8417633	CM LRB PROPERNAME
-0.4921921	CM LRB RRB
-0.6574165	MW LRB PREFIX
-0.6574165	MW LRB RRB
-0.6532125	NOUN LRB NOUN
-1.398066	NOUN LRB NOUN-CONST
-1.213719	NOUN LRB NOUN-DEF
-1.213719	NOUN LRB NUMERAL
-0.88196	NOUN LRB PREFIX
-1.048495	NOUN LRB PREPOSITION
-1.213719	NOUN LRB RRB
-0.4355677	NOUN-CONST LRB NOUN
-0.6199145	NOUN-CONST LRB PRONOUN
-1.03626	NOUN-DEF LRB CONJUNCTION
-1.385831	NOUN-DEF LRB NOUN-CONST
-1.03626	NOUN-DEF LRB NOUN-DEF
-0.8033255	NOUN-DEF LRB NUMERAL
-1.385831	NOUN-DEF LRB PREPOSITION
-0.8033255	NOUN-DEF LRB PROPERNAME
-1.385831	NOUN-DEF LRB QUOT
-1.385831	NOUN-DEF LRB RRB
-0.611659	NOUN-POSSESSIVE LRB QUOT
-1.019144	NUMERAL LRB CM
-0.6873853	NUMERAL LRB NUMERAL
-1.203491	NUMERAL LRB PROPERNAME
-0.6209853	NUMERAL LRB RRB
-1.57123	PROPERNAME LRB ADJECTIVE
-1.755577	PROPERNAME LRB ADJECTIVE-DEF
-1.755577	PROPERNAME LRB ADVERB
-1.755577	PROPERNAME LRB MW
-1.406006	PROPERNAME LRB NOUN
-1.755577	PROPERNAME LRB NOUN-CONST
-1.755577	PROPERNAME LRB NOUN-POSSESSIVE
-0.5713912	PROPERNAME LRB NUMERAL
