
\data\
ngram 1=46
ngram 2=1055
ngram 3=4231

\1-grams:
-1.341626	</s>
-99	<s>	-2.369788
-1.436198	ADJECTIVE	-3.588364
-3.085227	ADJECTIVE-CONST	-1.62474
-1.674533	ADJECTIVE-DEF	-1.709319
-1.618738	ADVERB	-2.076047
-3.470578	APOS	-1.383767
-2.622536	CLN	-1.533548
-1.276792	CM	-2.976848
-1.643887	CONJUNCTION	-2.260631
-1.974572	COPULA	-2.125258
-2.058799	DASH	-2.826298
-1.350632	DOT	-3.422081
-4.093828	EXCL	-0.7695248
-2.405408	EXISTENTIAL	-1.745273
-4.792798	FOREIGN	-0.2989424
-3.9477	INTERJECTION	-0.9218112
-2.564911	INTERROGATIVE	-2.214963
-2.523285	LRB	-2.029851
-2.294487	MODAL	-2.258386
-1.374828	MW	-2.497981
-2.180014	NEGATION	-1.562434
-1.048192	NOUN	-2.485663
-1.262726	NOUN-CONST	-4.035463
-1.089764	NOUN-DEF	-2.038813
-1.804685	NOUN-POSSESSIVE	-2.358782
-3.24873	NUMBER-EXPRESSION	-2.787218
-1.608674	NUMERAL	-2.22866
-2.117937	PARTICIPLE	-2.871542
-3.562349	PARTICIPLE-CONST	-1.748119
-2.366287	PARTICIPLE-DEF	-1.864071
-2.82901	PERC	-2.350821
-0.8338996	PREFIX	-3.224694
-1.19357	PREPOSITION	-1.02577
-1.747866	PRONOUN	-1.839751
-1.323712	PROPERNAME	-1.596092
-2.311355	PROPERNAME-DEF	-2.647917
-3.036923	QM	-1.921253
-2.186416	QUANTIFIER	-2.626279
-1.874767	QUOT	-2.124266
-2.511765	RRB	-1.776827
-2.843408	SCLN	-3.08071
-3.224596	TITLE	-2.01882
-1.218535	VERB	-2.831734
-1.758972	VERB-INF	-2.426386
-2.900703	WPREFIX	-1.986898

\2-grams:
-2.109671	<s> ADJECTIVE	-0.04163733
-3.085305	<s> ADJECTIVE-CONST
-2.974972	<s> ADJECTIVE-DEF
-1.201673	<s> ADVERB	-0.001712918
-2.850033	<s> CM	-0.3092469
-1.184922	<s> CONJUNCTION	-0.2389988
-2.549003	<s> COPULA	-0.1916024
-2.372912	<s> DOT	2.32838
-1.828844	<s> EXISTENTIAL	0.02051389
-3.085305	<s> INTERJECTION
-1.828844	<s> INTERROGATIVE	-0.1029103
-2.606995	<s> LRB	-0.06251961
-1.87231	<s> MODAL	-0.07532018
-1.312214	<s> MW	-1.551034
-2.02073	<s> NEGATION	0.09538895
-1.17106	<s> NOUN	-0.4015655
-1.121679	<s> NOUN-CONST	-0.3997059
-0.856597	<s> NOUN-DEF	-0.6979508
-1.818625	<s> NOUN-POSSESSIVE	-0.3689757
-1.753123	<s> NUMERAL	-0.2694981
-2.196821	<s> PARTICIPLE	-0.294097
-3.43506	<s> PARTICIPLE-CONST
-2.974972	<s> PARTICIPLE-DEF
-0.828844	<s> PREFIX	-0.4511819
-1.299805	<s> PREPOSITION	-0.1363274
-1.256194	<s> PRONOUN	-0.5476045
-1.084737	<s> PROPERNAME	-0.4930025
-2.004935	<s> PROPERNAME-DEF	-0.07641056
-3.085305	<s> QM	0.3077802
-1.839309	<s> QUANTIFIER	-0.1692526
-1.47437	<s> QUOT	-0.5580626
-3.43506	<s> RRB
-2.50368	<s> TITLE	0.1621587
-1.594761	<s> VERB	-0.1410357
-2.850033	<s> VERB-INF	-0.1449842
-3.085305	<s> WPREFIX	-0.1600807
-1.298188	ADJECTIVE ADJECTIVE	-0.3007696
-2.410473	ADJECTIVE ADJECTIVE-DEF	-0.1186728
-1.157489	ADJECTIVE ADVERB	-0.6310301
-2.016464	ADJECTIVE CLN	0.05916131
-0.8703355	ADJECTIVE CM	-0.1446593
-1.779103	ADJECTIVE CONJUNCTION	-0.194499
-2.057856	ADJECTIVE COPULA	-0.04008208
-2.244943	ADJECTIVE DASH	-0.8242035
-0.8483412	ADJECTIVE DOT	0.9304397
-2.410473	ADJECTIVE EXISTENTIAL	0.01815054
-2.992098	ADJECTIVE INTERROGATIVE
-2.154766	ADJECTIVE LRB	-0.1854438
-2.244943	ADJECTIVE MODAL	-0.1838699
-1.911728	ADJECTIVE MW	-1.153864
-2.881765	ADJECTIVE NEGATION
-2.036667	ADJECTIVE NOUN	-0.09661874
-2.358886	ADJECTIVE NOUN-CONST	-0.1326434
-2.455796	ADJECTIVE NOUN-DEF	-0.1412348
-2.881765	ADJECTIVE NOUN-POSSESSIVE	-0.1916036
-2.404644	ADJECTIVE NUMERAL	0.04155402
-2.410473	ADJECTIVE PARTICIPLE	-0.05970314
-2.404644	ADJECTIVE PARTICIPLE-DEF	-0.05529946
-0.5295824	ADJECTIVE PREFIX	0.06300867
-1.012533	ADJECTIVE PREPOSITION	0.1055295
-1.911728	ADJECTIVE PRONOUN	-0.3604148
-2.244943	ADJECTIVE PROPERNAME	0.04240137
-2.455796	ADJECTIVE QM	-0.09390455
-2.455796	ADJECTIVE QUANTIFIER	-0.2378017
-1.63461	ADJECTIVE QUOT	-0.4630226
-2.358886	ADJECTIVE RRB	-0.009630412
-2.358886	ADJECTIVE SCLN	-0.1147419
-1.439808	ADJECTIVE VERB	-0.2617481
-1.927522	ADJECTIVE VERB-INF	-0.4461568
-1.357488	ADJECTIVE-CONST ADVERB
-1.357488	ADJECTIVE-CONST CM
-0.9461246	ADJECTIVE-CONST DASH	-0.6864976
-1.707242	ADJECTIVE-CONST MW
-0.3440646	ADJECTIVE-CONST NOUN	0.114431
-1.357488	ADJECTIVE-CONST NOUN-CONST
-0.6828832	ADJECTIVE-CONST NOUN-DEF	-0.1445779
-1.357488	ADJECTIVE-CONST PREFIX
-1.707242	ADJECTIVE-CONST QUOT
-3.103211	ADJECTIVE-DEF </s>
-2.342093	ADJECTIVE-DEF ADJECTIVE
-1.395969	ADJECTIVE-DEF ADJECTIVE-DEF	-0.181509
-1.412675	ADJECTIVE-DEF ADVERB	-0.3994886
-2.275147	ADJECTIVE-DEF CLN	-0.1068284
-0.8414912	ADJECTIVE-DEF CM	0.06848025
-2.217155	ADJECTIVE-DEF CONJUNCTION	-0.06695472
-1.540461	ADJECTIVE-DEF COPULA	-0.01113689
-2.120245	ADJECTIVE-DEF DASH	-1.200177
-0.8530731	ADJECTIVE-DEF DOT	1.17281
-2.518185	ADJECTIVE-DEF EXISTENTIAL	-0.3575223
-2.078852	ADJECTIVE-DEF LRB	-0.05026683
-2.753457	ADJECTIVE-DEF MODAL
-2.120245	ADJECTIVE-DEF MW	-0.2630979
-2.166002	ADJECTIVE-DEF NEGATION	-0.1080799
-2.078852	ADJECTIVE-DEF NOUN	-0.07995006
-2.753457	ADJECTIVE-DEF NOUN-CONST	-0.4424789
-2.171832	ADJECTIVE-DEF NOUN-DEF
-2.753457	ADJECTIVE-DEF NOUN-POSSESSIVE
-2.342093	ADJECTIVE-DEF NUMERAL	-0.03075743
-2.217155	ADJECTIVE-DEF PARTICIPLE	0.03803356
-2.078852	ADJECTIVE-DEF PARTICIPLE-DEF	0.004473209
-0.6178177	ADJECTIVE-DEF PREFIX	-0.2436235
-0.8279887	ADJECTIVE-DEF PREPOSITION	-0.1715256
-2.041064	ADJECTIVE-DEF PRONOUN	0.01711322
-1.841491	ADJECTIVE-DEF PROPERNAME	-0.2695196
-3.103211	ADJECTIVE-DEF PROPERNAME-DEF
-2.753457	ADJECTIVE-DEF QM
-1.588766	ADJECTIVE-DEF QUOT	-0.1040401
-2.518185	ADJECTIVE-DEF RRB	-0.3427834
-2.753457	ADJECTIVE-DEF SCLN
-3.103211	ADJECTIVE-DEF TITLE
-1.22815	ADJECTIVE-DEF VERB	-0.3014007
-1.916125	ADJECTIVE-DEF VERB-INF	-0.2933198
-1.494271	ADVERB ADJECTIVE	-0.049155
-3.158478	ADVERB ADJECTIVE-CONST
-2.808723	ADVERB ADJECTIVE-DEF
-1.512754	ADVERB ADVERB	-0.1067455
-2.69839	ADVERB CLN
-1.041973	ADVERB CM	-0.1108851
-1.451236	ADVERB CONJUNCTION	-0.170749
-1.833089	ADVERB COPULA	-0.06965095
-2.397361	ADVERB DASH	-0.3673325
-1.071708	ADVERB DOT	1.335113
-2.272422	ADVERB EXISTENTIAL	-0.04586977
-2.69839	ADVERB INTERROGATIVE
-2.573452	ADVERB LRB
-1.945063	ADVERB MODAL	-0.1917222
-1.744148	ADVERB MW	-0.7794363
-1.522299	ADVERB NEGATION	-0.3654582
-1.251233	ADVERB NOUN	-0.2395245
-1.760538	ADVERB NOUN-CONST	-0.1815399
-1.728354	ADVERB NOUN-DEF	0.008646309
-2.573452	ADVERB NOUN-POSSESSIVE
-1.595728	ADVERB NUMERAL	-0.3341775
-2.096331	ADVERB PARTICIPLE	-0.0009860098
-2.330414	ADVERB PERC	-0.7407008
-0.659638	ADVERB PREFIX	-0.1056993
-1.162675	ADVERB PREPOSITION	-0.3051226
-1.68415	ADVERB PRONOUN	-0.1071261
-2.227099	ADVERB PROPERNAME	-0.2213513
-2.330414	ADVERB QM	0.01523995
-2.221269	ADVERB QUANTIFIER	-0.05799405
-1.853292	ADVERB QUOT	-0.5891844
-2.573452	ADVERB RRB	-0.02728234
-2.573452	ADVERB SCLN	-0.1601492
-0.8832557	ADVERB VERB	0.1212054
-1.60731	ADVERB VERB-INF	-0.01935101
-3.158478	ADVERB WPREFIX
-1.39794	APOS ADJECTIVE
-1.39794	APOS CM
-1.39794	APOS DOT
-1.39794	APOS MW
-1.39794	APOS NUMERAL
-1.048185	APOS PREFIX
-1.39794	APOS PREPOSITION
-0.5698753	APOS PROPERNAME	-0.03397921
-0.4665604	APOS RRB	-0.192966
-1.39794	APOS VERB
-1.7104	CLN ADJECTIVE	-0.1318343
-2.170487	CLN ADVERB
-1.585461	CLN CONJUNCTION	-0.1581479
-2.170487	CLN DASH
-2.170487	CLN EXISTENTIAL
-1.585461	CLN INTERROGATIVE
-1.820732	CLN LRB	-0.4994111
-2.170487	CLN MODAL
-1.7104	CLN MW	-0.05588554
-2.170487	CLN NEGATION
-1.108339	CLN NOUN	-0.1327406
-1.187521	CLN NOUN-CONST	0.1673013
-1.342423	CLN NOUN-DEF	-0.07453276
-1.820732	CLN NOUN-POSSESSIVE
-1.146128	CLN NUMERAL	-0.1252106
-1.409369	CLN PREFIX	-0.1899341
-1.7104	CLN PREPOSITION	-0.2828009
-1.239108	CLN PRONOUN	-0.351056
-0.845098	CLN PROPERNAME	-0.4241454
-1.585461	CLN PROPERNAME-DEF	-0.1668272
-1.585461	CLN QUANTIFIER	-0.1143662
-0.6434527	CLN QUOT	-0.2876034
-2.170487	CLN TITLE
-1.7104	CLN VERB
-1.820732	CLN VERB-INF
-1.835426	CM ADJECTIVE	-0.3008056
-3.149879	CM ADJECTIVE-CONST
-2.237914	CM ADJECTIVE-DEF	-0.1396304
-1.525442	CM ADVERB	-0.2200364
-3.499634	CM APOS
-3.149879	CM CM
-0.9357426	CM CONJUNCTION	0.1019853
-1.76848	CM COPULA	-0.04944223
-2.101694	CM EXISTENTIAL	-0.06442875
-2.286219	CM INTERROGATIVE	0.08052841
-1.925603	CM MODAL	0.1583813
-1.521032	CM MW	-1.59279
-1.948466	CM NEGATION	-0.0933755
-1.309842	CM NOUN	-0.3575776
-1.416297	CM NOUN-CONST	0.08722484
-1.624573	CM NOUN-DEF	-0.2646396
-2.194448	CM NOUN-POSSESSIVE	-0.7349422
-2.568255	CM NUMBER-EXPRESSION	-0.2025202
-1.914608	CM NUMERAL	-0.5066944
-1.800664	CM PARTICIPLE	-0.3041138
-3.499634	CM PARTICIPLE-CONST
-1.784274	CM PARTICIPLE-DEF	-0.236373
-0.5495878	CM PREFIX	-0.2272964
-1.244826	CM PREPOSITION	-0.1513122
-1.826471	CM PRONOUN	-0.2647968
-1.160642	CM PROPERNAME	-0.6154734
-2.562425	CM PROPERNAME-DEF	-0.1100787
-2.516668	CM QUANTIFIER	-0.05527172
-2.039546	CM QUOT	-0.2198176
-2.67157	CM TITLE	-0.1671887
-0.8811838	CM VERB	-0.2971334
-1.948466	CM VERB-INF	-0.1966375
-3.039546	CM WPREFIX
-1.751279	CONJUNCTION ADJECTIVE	-0.1422096
-2.672098	CONJUNCTION ADJECTIVE-CONST	-0.02201673
-2.371068	CONJUNCTION ADJECTIVE-DEF	-0.06869652
-1.424943	CONJUNCTION ADVERB	-0.02901733
-3.132186	CONJUNCTION CLN
-1.630705	CONJUNCTION CM	-0.06085312
-1.433216	CONJUNCTION CONJUNCTION	-0.1255327
-1.973128	CONJUNCTION COPULA	-0.0310917
-2.547159	CONJUNCTION DOT	2.568307
-1.644069	CONJUNCTION EXISTENTIAL	-0.2001689
-2.194977	CONJUNCTION INTERROGATIVE	-0.2278874
-3.132186	CONJUNCTION LRB
-2.003091	CONJUNCTION MODAL	-0.1898157
-1.686821	CONJUNCTION MW	-1.094368
-1.515751	CONJUNCTION NEGATION	0.06969425
-1.103896	CONJUNCTION NOUN	-0.1450592
-1.274158	CONJUNCTION NOUN-CONST	-0.0888983
-1.081033	CONJUNCTION NOUN-DEF	-0.5610276
-1.787491	CONJUNCTION NOUN-POSSESSIVE	-0.1169893
-1.893947	CONJUNCTION NUMERAL	-0.1497887
-2.003091	CONJUNCTION PARTICIPLE	-0.4902264
-3.132186	CONJUNCTION PARTICIPLE-DEF
-0.6634977	CONJUNCTION PREFIX	-0.2659136
-1.323144	CONJUNCTION PREPOSITION	-0.03907281
-1.279987	CONJUNCTION PRONOUN	0.06263047
-1.536435	CONJUNCTION PROPERNAME	-0.1428112
-2.672098	CONJUNCTION PROPERNAME-DEF
-2.035276	CONJUNCTION QUANTIFIER	-0.03843433
-1.893947	CONJUNCTION QUOT	-0.3441184
-3.132186	CONJUNCTION SCLN
-2.782431	CONJUNCTION TITLE	0.2490746
-0.9938831	CONJUNCTION VERB	-0.08572698
-1.363889	CONJUNCTION VERB-INF	-0.09460729
-3.132186	CONJUNCTION WPREFIX
-0.7608157	COPULA ADJECTIVE	-0.427209
-2.344392	COPULA ADJECTIVE-CONST
-1.976416	COPULA ADJECTIVE-DEF	-0.381396
-1.40654	COPULA ADVERB	-0.3052927
-2.454725	COPULA CLN	-0.440584
-1.780121	COPULA CM	-0.1156283
-1.821514	COPULA CONJUNCTION	-0.1404961
-2.344392	COPULA COPULA	-0.2011616
-2.80448	COPULA DOT
-1.303	COPULA MODAL	-0.2301685
-1.54276	COPULA MW	-1.050745
-2.454725	COPULA NEGATION
-0.7801208	COPULA NOUN	-0.2472427
-1.277445	COPULA NOUN-CONST	-0.3343924
-1.277445	COPULA NOUN-DEF	-0.01410598
-1.976416	COPULA NOUN-POSSESSIVE	-0.06520216
-1.675385	COPULA NUMERAL	-0.03881311
-1.330152	COPULA PARTICIPLE	-0.08605355
-2.80448	COPULA PARTICIPLE-DEF
-1.097238	COPULA PREFIX	0.08586848
-1.423573	COPULA PREPOSITION	-0.01180869
-1.675385	COPULA PRONOUN	-0.1950721
-1.742332	COPULA PROPERNAME	-0.1590305
-1.976416	COPULA QUANTIFIER	-0.08718894
-1.873101	COPULA QUOT
-1.050662	COPULA VERB	-0.3290527
-1.675385	COPULA VERB-INF	-0.06205642
-2.219454	COPULA WPREFIX	-0.08852243
-0.9745593	DASH ADJECTIVE	-0.1757852
-2.260866	DASH ADJECTIVE-DEF
-2.260866	DASH ADVERB
-2.260866	DASH INTERROGATIVE
-0.3147415	DASH MW	0.1566119
-2.720954	DASH NEGATION
-1.030417	DASH NOUN	-0.09628457
-1.789574	DASH NOUN-CONST	-0.2127751
-1.696595	DASH NOUN-DEF	-0.006604463
-2.371199	DASH NOUN-POSSESSIVE	-0.4355075
-0.7789459	DASH NUMERAL	-0.3729221
-2.135927	DASH PARTICIPLE	-0.01497744
-2.371199	DASH PREFIX
-2.720954	DASH PREPOSITION
-2.720954	DASH PRONOUN
-1.169786	DASH PROPERNAME	-0.05116206
-2.720954	DASH PROPERNAME-DEF
-2.720954	DASH QUANTIFIER
-2.720954	DASH VERB
-2.720954	DASH VERB-INF
-0.00015687	DOT </s>
-0.1760913	EXCL </s>
-0.7611179	EXCL QUOT
-2.024147	EXISTENTIAL ADJECTIVE
-1.186815	EXISTENTIAL ADVERB	-0.3193346
-1.788875	EXISTENTIAL CM	-0.04981822
-1.349542	EXISTENTIAL CONJUNCTION	-0.5286615
-1.487845	EXISTENTIAL MW	-0.2229117
-0.4988405	EXISTENTIAL NOUN	-0.1369628
-1.349542	EXISTENTIAL NOUN-CONST	-0.06218639
-2.024147	EXISTENTIAL NOUN-DEF
-1.788875	EXISTENTIAL NUMERAL	-0.1684776
-2.373902	EXISTENTIAL PARTICIPLE
-2.373902	EXISTENTIAL PARTICIPLE-DEF
-0.8724211	EXISTENTIAL PREFIX	-0.186277
-0.6749318	EXISTENTIAL PREPOSITION	-0.5082912
-1.913814	EXISTENTIAL PRONOUN
-2.024147	EXISTENTIAL PROPERNAME
-1.349542	EXISTENTIAL QUANTIFIER	-0.8833245
-2.373902	EXISTENTIAL QUOT
-1.788875	EXISTENTIAL VERB
-0.2839966	FOREIGN DOT
-0.8860567	INTERJECTION CM
-0.8860567	INTERJECTION EXCL
-0.8860567	INTERJECTION INTERJECTION
-0.8860567	INTERJECTION PREFIX
-0.8860567	INTERJECTION PRONOUN
-0.8860567	INTERJECTION QUOT
-0.8860567	INTERJECTION VERB-INF
-1.763428	INTERROGATIVE ADJECTIVE
-1.337459	INTERROGATIVE ADVERB	0.02116407
-1.763428	INTERROGATIVE CM
-1.763428	INTERROGATIVE COPULA
-2.223516	INTERROGATIVE DASH
-2.223516	INTERROGATIVE EXISTENTIAL
-2.223516	INTERROGATIVE INTERROGATIVE
-1.873761	INTERROGATIVE MODAL
-1.873761	INTERROGATIVE NEGATION
-1.337459	INTERROGATIVE NOUN	-0.1177502
-1.240549	INTERROGATIVE NOUN-CONST	-0.7569299
-1.240549	INTERROGATIVE NOUN-DEF	-0.0005087256
-1.292136	INTERROGATIVE PARTICIPLE	-0.4785798
-0.462398	INTERROGATIVE PREFIX	-0.8446426
-1.638489	INTERROGATIVE PREPOSITION
-1.240549	INTERROGATIVE PRONOUN	-0.1652058
-1.763428	INTERROGATIVE QM	0.3312695
-1.763428	INTERROGATIVE QUANTIFIER
-2.223516	INTERROGATIVE QUOT
-0.91833	INTERROGATIVE VERB	-0.06004649
-1.240549	INTERROGATIVE VERB-INF	-0.05658352
-1.377943	LRB ADJECTIVE	-0.5074702
-1.502882	LRB ADVERB	-0.09694174
-2.264	LRB APOS
-2.264	LRB CONJUNCTION
-1.914245	LRB EXISTENTIAL
-2.264	LRB INTERROGATIVE
-1.502882	LRB MW	-0.617089
-0.9386107	LRB NOUN	-0.1521219
-1.435935	LRB NOUN-CONST	-0.2371469
-1.33262	LRB NOUN-DEF	-0.2828894
-2.264	LRB NOUN-POSSESSIVE
-1.281033	LRB NUMBER-EXPRESSION	-0.9157357
-0.7128316	LRB NUMERAL	-0.6906048
-2.264	LRB PARTICIPLE
-2.264	LRB PARTICIPLE-DEF
-1.104942	LRB PREFIX	-0.1212752
-1.16709	LRB PREPOSITION	-0.2460276
-0.7128316	LRB PROPERNAME	-0.7953031
-1.502882	LRB PROPERNAME-DEF	-0.8311324
-2.264	LRB QUANTIFIER
-1.803912	LRB QUOT	-0.2587962
-2.264	LRB RRB
-2.264	LRB VERB
-1.521138	MODAL ADVERB	-0.6881084
-2.504105	MODAL CM
-1.572725	MODAL CONJUNCTION	-0.2192764
-1.089774	MODAL COPULA	-0.3292859
-2.504105	MODAL MW
-2.504105	MODAL NEGATION
-1.566896	MODAL NOUN	-0.1118807
-2.504105	MODAL NOUN-CONST
-1.572725	MODAL NOUN-DEF	-0.1442803
-2.15435	MODAL PARTICIPLE-DEF
-1.15941	MODAL PREFIX	-0.09814322
-1.572725	MODAL PREPOSITION	-0.1418686
-2.15435	MODAL PRONOUN
-1.572725	MODAL PROPERNAME	-0.2341931
-2.504105	MODAL PROPERNAME-DEF
-2.504105	MODAL QUOT
-2.504105	MODAL SCLN
-0.1886996	MODAL VERB-INF	0.04831564
-1.766248	MW ADJECTIVE	0.0343501
-1.988096	MW ADJECTIVE-DEF	-0.1921825
-2.039249	MW ADVERB	-0.04415891
-3.402427	MW APOS
-2.51637	MW CLN	0.02581187
-1.061525	MW CM	-0.07829678
-2.097241	MW CONJUNCTION	-0.04794359
-2.243369	MW COPULA	-0.1738094
-0.9995043	MW DASH	-1.831188
-1.329555	MW DOT	1.348901
-2.641309	MW EXISTENTIAL	-0.0228814
-2.471047	MW LRB	-0.1241205
-2.471047	MW MODAL	-0.06001744
-0.3888603	MW MW	0.5161319
-2.41946	MW NEGATION	-0.7564495
-1.679097	MW NOUN	-0.08897424
-1.806676	MW NOUN-CONST	0.1436206
-1.785992	MW NOUN-DEF	-0.05495787
-2.51637	MW NOUN-POSSESSIVE	-0.01612625
-3.402427	MW NUMBER-EXPRESSION
-2.140707	MW NUMERAL	-0.1847694
-2.465218	MW PARTICIPLE	0.1030807
-3.402427	MW PARTICIPLE-DEF
-1.018059	MW PREFIX	-0.2193186
-1.484962	MW PREPOSITION	-0.2008327
-2.077037	MW PRONOUN	-0.1175907
-2.057732	MW PROPERNAME	-0.1152532
-3.052672	MW PROPERNAME-DEF
-2.942339	MW QM	0.3312695
-2.51637	MW QUANTIFIER	0.08373569
-1.851258	MW QUOT	-0.2575455
-2.942339	MW RRB	-0.1509603
-2.8174	MW SCLN	-0.1071207
-3.052672	MW TITLE	0.2490746
-1.355002	MW VERB	0.2250365
-1.972302	MW VERB-INF	-0.2031671
-3.402427	MW WPREFIX
-1.305147	NEGATION ADJECTIVE	-0.2496338
-2.610332	NEGATION ADJECTIVE-DEF
-1.095887	NEGATION ADVERB	-0.2929027
-2.610332	NEGATION CM
-2.025306	NEGATION CONJUNCTION
-1.196002	NEGATION COPULA	-0.2980928
-1.849215	NEGATION DASH	-0.3255603
-1.678953	NEGATION DOT	2.802849
-1.481238	NEGATION EXISTENTIAL	-0.1341645
-2.610332	NEGATION INTERROGATIVE
-1.372093	NEGATION MODAL	0.08791953
-1.678953	NEGATION MW	-0.2849606
-1.585973	NEGATION NOUN	-0.0293937
-2.260578	NEGATION NOUN-CONST
-1.678953	NEGATION NOUN-DEF	-0.04216078
-2.260578	NEGATION NOUN-POSSESSIVE
-2.260578	NEGATION NUMERAL
-1.724276	NEGATION PARTICIPLE	-0.1375495
-2.610332	NEGATION PARTICIPLE-DEF
-1.372093	NEGATION PREFIX	-0.4585338
-2.025306	NEGATION PREPOSITION
-1.548185	NEGATION PRONOUN	-0.1126247
-2.610332	NEGATION PROPERNAME
-1.782268	NEGATION QUANTIFIER	-0.1082678
-2.260578	NEGATION QUOT
-0.3672945	NEGATION VERB	-0.1778458
-1.423246	NEGATION VERB-INF	-0.1400057
-0.6175566	NOUN ADJECTIVE	-0.01145506
-2.666128	NOUN ADJECTIVE-CONST	-0.3083311
-2.313945	NOUN ADJECTIVE-DEF	-0.1811932
-1.870248	NOUN ADVERB	-0.1316984
-2.703916	NOUN APOS	-0.01150428
-2.298151	NOUN CLN	-0.007656634
-1.035192	NOUN CM	0.5591738
-1.925765	NOUN CONJUNCTION	-0.2908513
-2.253947	NOUN COPULA	0.01844817
-2.745309	NOUN DASH	-0.1623248
-1.076923	NOUN DOT	0.7730062
-3.728276	NOUN EXCL
-2.791067	NOUN EXISTENTIAL	-0.06905077
-3.378521	NOUN INTERROGATIVE
-2.240159	NOUN LRB	-0.1944243
-2.796896	NOUN MODAL	0.2144687
-2.021033	NOUN MW	-1.572959
-2.347369	NOUN NEGATION	-0.2253982
-1.932396	NOUN NOUN	-0.06261939
-2.12206	NOUN NOUN-CONST	-0.009170949
-2.313945	NOUN NOUN-DEF	0.1326959
-3.268188	NOUN NOUN-POSSESSIVE
-2.796896	NOUN NUMBER-EXPRESSION	-0.03526564
-1.572123	NOUN NUMERAL	-0.190284
-1.826231	NOUN PARTICIPLE	-0.09898955
-2.055113	NOUN PARTICIPLE-DEF	-0.567838
-0.6357305	NOUN PREFIX	-0.3545341
-1.073211	NOUN PREPOSITION	-0.03579259
-1.439958	NOUN PRONOUN	0.009725451
-2.073211	NOUN PROPERNAME	-0.07482368
-2.791067	NOUN PROPERNAME-DEF	-0.05280152
-2.900211	NOUN QM	-0.1084831
-2.791067	NOUN QUANTIFIER	-0.07787772
-1.810811	NOUN QUOT	-0.4141417
-2.132525	NOUN RRB	0.09830385
-2.402886	NOUN SCLN	-0.04218653
-1.527825	NOUN VERB	-0.1271887
-2.004946	NOUN VERB-INF	-0.1092231
-2.383581	NOUN WPREFIX	-0.640192
-2.416256	NOUN-CONST ADJECTIVE	-0.08435047
-3.513166	NOUN-CONST ADJECTIVE-CONST
-3.513166	NOUN-CONST ADJECTIVE-DEF
-3.053078	NOUN-CONST ADVERB
-3.513166	NOUN-CONST CM
-3.513166	NOUN-CONST CONJUNCTION
-1.896731	NOUN-CONST DASH	-0.612668
-3.513166	NOUN-CONST INTERROGATIVE
-1.451018	NOUN-CONST MW	-1.469617
-0.6499579	NOUN-CONST NOUN	-0.0171144
-1.005155	NOUN-CONST NOUN-CONST	-0.2902355
-0.3679341	NOUN-CONST NOUN-DEF	0.2367864
-1.575957	NOUN-CONST NOUN-POSSESSIVE	-0.3147815
-1.697691	NOUN-CONST NUMERAL	-0.01547301
-3.513166	NOUN-CONST PARTICIPLE
-3.163411	NOUN-CONST PARTICIPLE-CONST	-0.2515278
-2.685102	NOUN-CONST PARTICIPLE-DEF	-0.04884687
-1.973897	NOUN-CONST PREFIX	-0.5949048
-3.053078	NOUN-CONST PRONOUN
-1.010372	NOUN-CONST PROPERNAME	-0.2608447
-1.62711	NOUN-CONST PROPERNAME-DEF	-0.2007516
-3.053078	NOUN-CONST QUANTIFIER	-0.1258264
-2.038838	NOUN-CONST QUOT	-0.7587504
-3.163411	NOUN-CONST TITLE	0.2490746
-3.513166	NOUN-CONST VERB
-3.053078	NOUN-CONST WPREFIX	-0.1365914
-3.686086	NOUN-DEF </s>
-1.86427	NOUN-DEF ADJECTIVE	-0.05599308
-2.924968	NOUN-DEF ADJECTIVE-CONST	-0.1159212
-0.7332377	NOUN-DEF ADJECTIVE-DEF	0.266068
-1.939691	NOUN-DEF ADVERB	-0.2048481
-2.360697	NOUN-DEF CLN	-0.06311631
-1.012923	NOUN-DEF CM	-0.04072261
-1.903779	NOUN-DEF CONJUNCTION	0.05709404
-1.566399	NOUN-DEF COPULA	0.02353084
-2.858021	NOUN-DEF DASH	-0.2110641
-1.006763	NOUN-DEF DOT	0.7450936
-3.686086	NOUN-DEF EXCL
-2.447847	NOUN-DEF EXISTENTIAL	-0.3128211
-3.101059	NOUN-DEF INTERROGATIVE	-0.1680524
-2.322908	NOUN-DEF LRB	0.1229188
-2.17164	NOUN-DEF MODAL	-0.2595458
-2.134918	NOUN-DEF MW	-0.9586379
-2.123336	NOUN-DEF NEGATION	-0.4023366
-1.995549	NOUN-DEF NOUN	-0.2914792
-2.498999	NOUN-DEF NOUN-CONST	0.08198738
-2.498999	NOUN-DEF NOUN-DEF	-0.1351071
-1.690282	NOUN-DEF NUMERAL	-0.5195675
-2.012923	NOUN-DEF PARTICIPLE	-0.1626397
-3.686086	NOUN-DEF PARTICIPLE-CONST
-1.828058	NOUN-DEF PARTICIPLE-DEF	-0.2273732
-0.6668898	NOUN-DEF PREFIX	-0.1120715
-1.085071	NOUN-DEF PREPOSITION	0.005204201
-1.87061	NOUN-DEF PRONOUN	-0.1730717
-1.789305	NOUN-DEF PROPERNAME	-0.1332934
-2.858021	NOUN-DEF PROPERNAME-DEF	-0.142344
-2.661727	NOUN-DEF QM	-0.1810547
-2.498999	NOUN-DEF QUANTIFIER	-0.04722577
-1.858021	NOUN-DEF QUOT	-0.1337055
-2.800029	NOUN-DEF RRB	0.05268943
-2.748877	NOUN-DEF SCLN	-0.03260342
-3.686086	NOUN-DEF TITLE
-1.066631	NOUN-DEF VERB	-0.5081093
-1.811025	NOUN-DEF VERB-INF	-0.1591284
-2.623938	NOUN-DEF WPREFIX	-0.4095926
-1.761663	NOUN-POSSESSIVE ADJECTIVE	-0.04721257
-2.975078	NOUN-POSSESSIVE ADJECTIVE-CONST
-0.9668056	NOUN-POSSESSIVE ADJECTIVE-DEF	-0.3374738
-2.037869	NOUN-POSSESSIVE ADVERB	-0.1568246
-2.625323	NOUN-POSSESSIVE CLN
-1.073033	NOUN-POSSESSIVE CM	-0.01285756
-1.787992	NOUN-POSSESSIVE CONJUNCTION	-0.03922948
-1.787992	NOUN-POSSESSIVE COPULA	-0.09947707
-2.975078	NOUN-POSSESSIVE DASH
-1.000885	NOUN-POSSESSIVE DOT	1.446688
-2.975078	NOUN-POSSESSIVE EXISTENTIAL
-2.51499	NOUN-POSSESSIVE LRB	-0.1903819
-2.975078	NOUN-POSSESSIVE MODAL
-1.950719	NOUN-POSSESSIVE MW	-0.6233746
-2.147013	NOUN-POSSESSIVE NEGATION	-0.04709774
-1.649689	NOUN-POSSESSIVE NOUN	-0.4417901
-2.043699	NOUN-POSSESSIVE NOUN-CONST	-0.03739643
-2.043699	NOUN-POSSESSIVE NOUN-DEF	-0.133169
-2.975078	NOUN-POSSESSIVE NOUN-POSSESSIVE
-2.975078	NOUN-POSSESSIVE NUMBER-EXPRESSION
-2.037869	NOUN-POSSESSIVE NUMERAL	-0.05829459
-1.91293	NOUN-POSSESSIVE PARTICIPLE	-0.2092164
-2.089021	NOUN-POSSESSIVE PARTICIPLE-DEF	-0.1592197
-0.7179536	NOUN-POSSESSIVE PREFIX	-0.3131039
-0.6266235	NOUN-POSSESSIVE PREPOSITION	-0.3820079
-2.089021	NOUN-POSSESSIVE PRONOUN	0.07575178
-1.992111	NOUN-POSSESSIVE PROPERNAME	-0.09607285
-2.975078	NOUN-POSSESSIVE PROPERNAME-DEF
-2.625323	NOUN-POSSESSIVE QM	0.3077802
-2.975078	NOUN-POSSESSIVE QUANTIFIER
-1.91293	NOUN-POSSESSIVE QUOT	-0.1817509
-2.390052	NOUN-POSSESSIVE RRB	-0.06082349
-1.301915	NOUN-POSSESSIVE VERB	0.0664196
-1.51499	NOUN-POSSESSIVE VERB-INF	0.1236419
-2.975078	NOUN-POSSESSIVE WPREFIX
-0.6368221	NUMBER-EXPRESSION CM	-0.3876268
-0.7459666	NUMBER-EXPRESSION DOT	2.473502
-0.6426516	NUMBER-EXPRESSION PREFIX
-1.574031	NUMBER-EXPRESSION PREPOSITION
-0.5118834	NUMBER-EXPRESSION RRB	-0.6509444
-1.574031	NUMBER-EXPRESSION VERB
-2.10551	NUMERAL ADJECTIVE	-0.1271277
-3.167658	NUMERAL ADJECTIVE-CONST
-2.184691	NUMERAL ADJECTIVE-DEF	0.01795477
-2.143299	NUMERAL ADVERB	-0.1549353
-2.281601	NUMERAL CLN	-0.1796025
-1.171854	NUMERAL CM	-0.2657143
-2.184691	NUMERAL CONJUNCTION	0.003176413
-2.143299	NUMERAL COPULA	-0.06219079
-1.883661	NUMERAL DASH	-0.9209775
-1.19792	NUMERAL DOT	1.451097
-2.70757	NUMERAL LRB	-0.2605398
-2.817903	NUMERAL MODAL
-1.862472	NUMERAL MW	-0.6818893
-2.817903	NUMERAL NEGATION
-0.5163055	NUMERAL NOUN	-0.5374285
-1.628389	NUMERAL NOUN-CONST	-0.2699769
-1.298201	NUMERAL NOUN-DEF	-0.01112974
-2.281601	NUMERAL NOUN-POSSESSIVE	0.006129108
-1.147265	NUMERAL NUMERAL	-0.5356796
-2.817903	NUMERAL PARTICIPLE
-3.167658	NUMERAL PARTICIPLE-DEF
-1.452298	NUMERAL PERC	-0.5840386
-0.8099431	NUMERAL PREFIX	-0.6703956
-1.211564	NUMERAL PREPOSITION	-0.2957056
-2.70757	NUMERAL PRONOUN
-1.980571	NUMERAL PROPERNAME	-0.4300168
-2.40654	NUMERAL QUOT	-0.115815
-1.80448	NUMERAL RRB	-0.1673846
-1.954242	NUMERAL SCLN	-0.2827732
-1.371778	NUMERAL VERB	0.09085506
-2.817903	NUMERAL VERB-INF
-1.732394	PARTICIPLE ADJECTIVE	-0.483255
-2.669603	PARTICIPLE ADJECTIVE-CONST
-1.324908	PARTICIPLE ADVERB	-0.1248055
-2.319848	PARTICIPLE CLN
-1.239478	PARTICIPLE CM	0.005118102
-1.344214	PARTICIPLE CONJUNCTION	-0.1407792
-1.738223	PARTICIPLE COPULA
-2.669603	PARTICIPLE DASH
-1.155157	PARTICIPLE DOT	1.898255
-2.669603	PARTICIPLE EXISTENTIAL
-1.645244	PARTICIPLE MW	-0.3362624
-2.669603	PARTICIPLE NEGATION
-1.118435	PARTICIPLE NOUN	-0.08218533
-1.686636	PARTICIPLE NOUN-CONST	-0.185583
-1.645244	PARTICIPLE NOUN-DEF	-0.1436618
-2.669603	PARTICIPLE NOUN-POSSESSIVE
-1.738223	PARTICIPLE NUMERAL	-0.2666118
-2.319848	PARTICIPLE PARTICIPLE
-0.4717924	PARTICIPLE PREFIX	-0.1106094
-0.8737229	PARTICIPLE PREPOSITION	-0.2578086
-2.319848	PARTICIPLE PRONOUN
-1.908485	PARTICIPLE PROPERNAME	-0.09980029
-2.669603	PARTICIPLE PROPERNAME-DEF
-1.738223	PARTICIPLE QUANTIFIER	-0.08041538
-1.783546	PARTICIPLE QUOT	-0.1524647
-2.669603	PARTICIPLE SCLN
-2.669603	PARTICIPLE VERB
-1.482516	PARTICIPLE VERB-INF	0.2418178
-1.238239	PARTICIPLE-CONST ADJECTIVE
-1.238239	PARTICIPLE-CONST CM
-0.8884842	PARTICIPLE-CONST MW	-0.3245487
-0.8884842	PARTICIPLE-CONST NOUN
-1.238239	PARTICIPLE-CONST NOUN-CONST
-0.30103	PARTICIPLE-CONST NOUN-DEF	-0.222533
-1.238239	PARTICIPLE-CONST PREPOSITION
-2.062964	PARTICIPLE-DEF ADJECTIVE
-2.412719	PARTICIPLE-DEF ADJECTIVE-CONST
-1.827692	PARTICIPLE-DEF ADJECTIVE-DEF
-1.225632	PARTICIPLE-DEF ADVERB	-0.3867616
-2.062964	PARTICIPLE-DEF CLN
-1.350571	PARTICIPLE-DEF CM	0.003556043
-1.350571	PARTICIPLE-DEF CONJUNCTION	-0.1408181
-1.38836	PARTICIPLE-DEF DOT	2.363142
-1.526662	PARTICIPLE-DEF MW	-0.8460839
-1.225632	PARTICIPLE-DEF NOUN	0.1181155
-2.062964	PARTICIPLE-DEF NOUN-CONST
-2.412719	PARTICIPLE-DEF NUMERAL
-0.3615664	PARTICIPLE-DEF PREFIX	-0.4643063
-0.7395562	PARTICIPLE-DEF PREPOSITION	0.0509184
-2.412719	PARTICIPLE-DEF PRONOUN
-2.412719	PARTICIPLE-DEF PROPERNAME
-2.412719	PARTICIPLE-DEF PROPERNAME-DEF
-2.412719	PARTICIPLE-DEF QUOT
-1.827692	PARTICIPLE-DEF VERB
-1.651601	PARTICIPLE-DEF VERB-INF	-0.2120164
-1.95145	PERC ADJECTIVE
-1.601695	PERC ADVERB
-1.95145	PERC APOS
-0.968483	PERC CM	-0.1049768
-1.123385	PERC DOT	2.473502
-1.601695	PERC NOUN
-1.95145	PERC NOUN-CONST
-0.3886994	PERC NUMERAL	-0.5343815
-0.5705429	PERC PREFIX	-0.6704017
-1.366423	PERC PREPOSITION	-0.7655112
-1.95145	PERC QUOT
-1.841675	PREFIX ADJECTIVE	-0.2318923
-2.917553	PREFIX ADJECTIVE-CONST	-0.1119029
-2.346162	PREFIX ADJECTIVE-DEF	-0.06937718
-1.887064	PREFIX ADVERB	0.08262873
-3.592158	PREFIX CM
-1.825407	PREFIX CONJUNCTION	0.002427161
-2.034667	PREFIX COPULA	-0.3692137
-2.173616	PREFIX DASH	-1.949294
-2.305733	PREFIX EXISTENTIAL	-0.2265238
-3.941913	PREFIX FOREIGN
-3.941913	PREFIX INTERJECTION
-2.527582	PREFIX INTERROGATIVE	-0.4828771
-2.356886	PREFIX MODAL	-0.03497857
-1.492078	PREFIX MW	-1.546146
-2.045132	PREFIX NEGATION	-0.05370253
-0.7144214	PREFIX NOUN	0.1239972
-0.8112696	PREFIX NOUN-CONST	0.08958411
-0.7892715	PREFIX NOUN-DEF	0.5643523
-1.286848	PREFIX NOUN-POSSESSIVE	0.3776315
-1.493563	PREFIX NUMERAL	-0.3372477
-2.356886	PREFIX PARTICIPLE	-0.01801485
-3.113848	PREFIX PARTICIPLE-CONST	0.004274428
-2.845003	PREFIX PARTICIPLE-DEF	-0.01160768
-2.496548	PREFIX PERC	-1.249001
-1.487654	PREFIX PREFIX	-0.7370289
-1.653595	PREFIX PREPOSITION	0.3594706
-1.549013	PREFIX PRONOUN	0.2541021
-1.170071	PREFIX PROPERNAME	-0.1574438
-2.120097	PREFIX PROPERNAME-DEF	-0.3013431
-1.78576	PREFIX QUANTIFIER	-0.2675127
-2.101614	PREFIX QUOT	-0.584494
-3.941913	PREFIX TITLE
-1.058579	PREFIX VERB	0.0911411
-2.120097	PREFIX VERB-INF	-0.2613045
-3.004704	PREFIX WPREFIX	-0.3534997
-3.582413	PREPOSITION </s>
-2.237719	PREPOSITION ADJECTIVE	-0.235993
-3.122325	PREPOSITION ADJECTIVE-CONST	-0.182868
-2.485503	PREPOSITION ADJECTIVE-DEF	-0.09818861
-1.859084	PREPOSITION ADVERB	-0.09944445
-2.997386	PREPOSITION CLN	-0.08178408
-1.724385	PREPOSITION CM	-0.2109808
-2.395326	PREPOSITION CONJUNCTION	-0.0492945
-2.558054	PREPOSITION COPULA	-0.09805837
-3.582413	PREPOSITION DASH
-1.760597	PREPOSITION DOT	1.597225
-2.997386	PREPOSITION EXISTENTIAL	-0.1606015
-2.599446	PREPOSITION INTERROGATIVE	-0.200843
-3.232658	PREPOSITION LRB	-0.4590451
-2.754348	PREPOSITION MODAL	-0.3921458
-1.520265	PREPOSITION MW	-1.168587
-2.696356	PREPOSITION NEGATION	-0.1486776
-0.8220196	PREPOSITION NOUN	-0.1307654
-0.780561	PREPOSITION NOUN-CONST	0.117908
-0.6554575	PREPOSITION NOUN-DEF	-0.1036017
-1.237719	PREPOSITION NOUN-POSSESSIVE	-0.2341688
-3.232658	PREPOSITION NUMBER-EXPRESSION
-1.294095	PREPOSITION NUMERAL	-0.482071
-2.453318	PREPOSITION PARTICIPLE	0.03784361
-3.232658	PREPOSITION PARTICIPLE-CONST
-2.599446	PREPOSITION PARTICIPLE-DEF	-0.04670516
-3.232658	PREPOSITION PERC
-1.316145	PREPOSITION PREFIX	-0.1481868
-1.793266	PREPOSITION PREPOSITION	0.03681749
-1.90925	PREPOSITION PRONOUN	-0.3305643
-1.045563	PREPOSITION PROPERNAME	-0.08849108
-2.152288	PREPOSITION PROPERNAME-DEF	-0.1474221
-3.582413	PREPOSITION QM
-1.883443	PREPOSITION QUANTIFIER	-0.2067645
-1.851258	PREPOSITION QUOT	-0.4431269
-3.582413	PREPOSITION RRB
-3.232658	PREPOSITION SCLN
-2.645204	PREPOSITION TITLE	0.2870544
-1.685632	PREPOSITION VERB	-0.003199637
-1.891876	PREPOSITION VERB-INF	-0.2110609
-2.696356	PREPOSITION WPREFIX	0.1071026
-1.375177	PRONOUN ADJECTIVE	-0.3232512
-2.680487	PRONOUN ADJECTIVE-CONST
-2.570154	PRONOUN ADJECTIVE-DEF	-0.1640839
-1.490972	PRONOUN ADVERB	-0.1121947
-2.445215	PRONOUN CLN
-1.208426	PRONOUN CM	-0.3238754
-1.570154	PRONOUN CONJUNCTION	-0.1291892
-1.331272	PRONOUN COPULA	-0.02583635
-3.030241	PRONOUN DASH
-1.339705	PRONOUN DOT	1.72632
-3.030241	PRONOUN EXCL
-2.445215	PRONOUN EXISTENTIAL
-3.030241	PRONOUN INTERROGATIVE
-1.632302	PRONOUN MODAL	-0.2965831
-1.768521	PRONOUN MW	-0.7842193
-1.542125	PRONOUN NEGATION	-0.09919298
-1.088233	PRONOUN NOUN	-0.2695677
-1.792002	PRONOUN NOUN-CONST	-0.08391136
-1.725056	PRONOUN NOUN-DEF	0.0593327
-2.445215	PRONOUN NOUN-POSSESSIVE	-0.07670761
-2.202177	PRONOUN NUMERAL	-0.1894759
-1.331272	PRONOUN PARTICIPLE	0.03718209
-2.570154	PRONOUN PARTICIPLE-DEF
-1.005882	PRONOUN PREFIX	0.2176176
-1.45621	PRONOUN PREPOSITION	-0.04559708
-2.047275	PRONOUN PRONOUN	-0.04648185
-2.202177	PRONOUN PROPERNAME	-0.06732532
-2.680487	PRONOUN QM	0.3077802
-3.030241	PRONOUN QUANTIFIER
-2.005882	PRONOUN QUOT	-0.3567532
-3.030241	PRONOUN RRB
-0.5069454	PRONOUN VERB	0.1127927
-2.098862	PRONOUN VERB-INF	-0.3598787
-2.680487	PRONOUN WPREFIX
-3.452789	PROPERNAME </s>
-2.038458	PROPERNAME ADJECTIVE	-0.2070911
-2.089611	PROPERNAME ADJECTIVE-DEF	-0.7807081
-2.054849	PROPERNAME ADVERB	-0.09431446
-2.521409	PROPERNAME APOS	-0.3767499
-2.265702	PROPERNAME CLN	-0.2351208
-0.6931208	PROPERNAME CM	-0.3130591
-2.127399	PROPERNAME CONJUNCTION	-0.05352494
-1.846573	PROPERNAME COPULA	0.02635354
-1.867762	PROPERNAME DASH	-0.5140727
-1.005929	PROPERNAME DOT	0.9769402
-2.515579	PROPERNAME EXISTENTIAL	-0.3114954
-3.452789	PROPERNAME INTERROGATIVE
-1.670481	PROPERNAME LRB	-0.2366895
-2.428429	PROPERNAME MODAL	-0.1113192
-1.878757	PROPERNAME MW	-0.9815007
-2.265702	PROPERNAME NEGATION	-0.7337755
-1.878757	PROPERNAME NOUN	-0.2776905
-2.323694	PROPERNAME NOUN-CONST	-0.2783704
-2.515579	PROPERNAME NOUN-DEF	-0.1307835
-3.452789	PROPERNAME NOUN-POSSESSIVE
-2.566732	PROPERNAME NUMBER-EXPRESSION	-0.2429699
-1.630973	PROPERNAME NUMERAL	-0.05486798
-2.089611	PROPERNAME PARTICIPLE	-0.201409
-3.452789	PROPERNAME PARTICIPLE-CONST
-2.992701	PROPERNAME PARTICIPLE-DEF	-0.03598592
-0.8507287	PROPERNAME PREFIX	-0.2182956
-1.506034	PROPERNAME PREPOSITION	-0.137064
-2.469822	PROPERNAME PRONOUN	-0.2741927
-0.7334255	PROPERNAME PROPERNAME	-0.09570229
-2.867762	PROPERNAME QM	-0.1759748
-3.452789	PROPERNAME QUANTIFIER
-1.637313	PROPERNAME QUOT	-0.4055815
-1.788581	PROPERNAME RRB	-0.02948534
-2.566732	PROPERNAME SCLN	-0.3201172
-3.103034	PROPERNAME TITLE
-0.9619662	PROPERNAME VERB	-0.2437762
-2.007424	PROPERNAME VERB-INF	-0.1799191
-3.452789	PROPERNAME WPREFIX
-1.654589	PROPERNAME-DEF ADJECTIVE	-0.03290474
-1.596597	PROPERNAME-DEF ADJECTIVE-DEF	-0.01344195
-2.022566	PROPERNAME-DEF ADVERB	-0.4217425
-2.132899	PROPERNAME-DEF CLN
-0.7438122	PROPERNAME-DEF CM	-0.1774418
-1.551274	PROPERNAME-DEF CONJUNCTION
-1.721536	PROPERNAME-DEF COPULA
-2.482654	PROPERNAME-DEF DASH
-0.9682082	PROPERNAME-DEF DOT	1.898255
-2.132899	PROPERNAME-DEF EXISTENTIAL
-2.482654	PROPERNAME-DEF INTERROGATIVE
-2.482654	PROPERNAME-DEF LRB
-1.545445	PROPERNAME-DEF MW	-0.771991
-2.482654	PROPERNAME-DEF NEGATION
-2.022566	PROPERNAME-DEF NOUN	-0.1640009
-2.482654	PROPERNAME-DEF NOUN-CONST
-2.482654	PROPERNAME-DEF NOUN-DEF
-2.482654	PROPERNAME-DEF NUMBER-EXPRESSION
-1.897627	PROPERNAME-DEF NUMERAL	-0.03600803
-2.022566	PROPERNAME-DEF PARTICIPLE	-0.1051142
-0.8662186	PROPERNAME-DEF PREFIX	-0.2330953
-1.420506	PROPERNAME-DEF PREPOSITION	-0.1099254
-2.132899	PROPERNAME-DEF PRONOUN
-1.220933	PROPERNAME-DEF PROPERNAME	0.07213163
-1.551274	PROPERNAME-DEF PROPERNAME-DEF	-0.09803732
-0.9682082	PROPERNAME-DEF QUOT	-0.2065594
-1.499687	PROPERNAME-DEF RRB	-0.2402778
-1.157264	PROPERNAME-DEF VERB	0.05651438
-1.551274	PROPERNAME-DEF VERB-INF	0.01474705
-2.482654	PROPERNAME-DEF WPREFIX
-0.06445799	QM </s>
-1.746395	QM ADVERB
-1.39664	QM NEGATION	-0.5433656
-1.161368	QM QUOT	-0.309837
-1.61595	QUANTIFIER ADJECTIVE	-0.06852356
-1.71286	QUANTIFIER ADJECTIVE-DEF	-0.9401689
-1.536769	QUANTIFIER ADVERB	-0.09448357
-1.770852	QUANTIFIER CM	-0.1556312
-2.01389	QUANTIFIER CONJUNCTION	-0.2199773
-2.138829	QUANTIFIER COPULA
-1.837799	QUANTIFIER DOT	2.597225
-2.598917	QUANTIFIER EXISTENTIAL
-1.71286	QUANTIFIER INTERROGATIVE	-0.7705981
-2.249162	QUANTIFIER MW	-0.3245487
-2.249162	QUANTIFIER NEGATION	-0.3090073
-0.5155795	QUANTIFIER NOUN	-0.2584754
-0.9531922	QUANTIFIER NOUN-CONST	-0.3295574
-0.777101	QUANTIFIER NOUN-DEF	-0.0788731
-1.71286	QUANTIFIER NOUN-POSSESSIVE	-0.5564008
-1.254222	QUANTIFIER NUMERAL	-0.1289565
-1.667537	QUANTIFIER PARTICIPLE
-2.598917	QUANTIFIER PARTICIPLE-CONST
-1.71286	QUANTIFIER PARTICIPLE-DEF	-0.3541513
-1.200977	QUANTIFIER PREFIX	-0.0974595
-1.770852	QUANTIFIER PREPOSITION	-0.01771086
-1.71286	QUANTIFIER PRONOUN	0.02873719
-2.138829	QUANTIFIER QUANTIFIER
-2.138829	QUANTIFIER QUOT	-0.2112024
-2.598917	QUANTIFIER SCLN
-1.667537	QUANTIFIER VERB	-0.1152462
-2.249162	QUANTIFIER WPREFIX	-0.1600807
-1.808782	QUOT ADJECTIVE	-0.25828
-2.905692	QUOT ADJECTIVE-CONST
-2.144574	QUOT ADJECTIVE-DEF	-0.1078098
-1.881333	QUOT ADVERB	0.02919383
-2.555937	QUOT CLN
-0.8121358	QUOT CM	-0.3298051
-1.600506	QUOT CONJUNCTION	-0.1037876
-1.922725	QUOT COPULA	-0.123261
-0.7554081	QUOT DOT	1.272061
-2.019635	QUOT EXISTENTIAL	-0.1311919
-2.445604	QUOT INTERJECTION
-2.019635	QUOT INTERROGATIVE	0.05046792
-1.968483	QUOT LRB	-0.06246455
-2.320665	QUOT MODAL	0.1267249
-1.460328	QUOT MW	-1.425821
-2.445604	QUOT NEGATION	-0.285518
-1.053494	QUOT NOUN	-0.4480402
-1.250628	QUOT NOUN-CONST	-0.3448632
-1.404212	QUOT NOUN-DEF	-0.3993808
-1.974313	QUOT NOUN-POSSESSIVE	-0.09786791
-2.905692	QUOT NUMBER-EXPRESSION
-2.320665	QUOT NUMERAL	-0.1616605
-2.144574	QUOT PARTICIPLE
-2.905692	QUOT PARTICIPLE-CONST
-1.232529	QUOT PREFIX	-0.152133
-1.475567	QUOT PREPOSITION	-0.02451086
-1.445604	QUOT PRONOUN	-0.3187916
-1.19845	QUOT PROPERNAME	-0.4698296
-1.391247	QUOT PROPERNAME-DEF	-0.9166507
-2.555937	QUOT QUANTIFIER	-0.4731662
-2.905692	QUOT QUOT
-1.808782	QUOT RRB	-0.7869738
-2.445604	QUOT SCLN
-2.445604	QUOT TITLE	0.2725639
-1.431364	QUOT VERB	-0.07379931
-1.974313	QUOT VERB-INF	0.03508955
-2.905692	QUOT WPREFIX
-1.701136	RRB CLN
-0.5789202	RRB CM	-0.1865653
-2.286163	RRB CONJUNCTION
-1.936408	RRB COPULA
-0.4970161	RRB DOT	1.62941
-2.286163	RRB MODAL
-1.936408	RRB MW
-2.286163	RRB NEGATION
-1.701136	RRB NOUN	-0.07948647
-1.354783	RRB NOUN-CONST	-0.3690845
-2.286163	RRB NOUN-DEF
-1.458098	RRB NUMERAL	-0.1346305
-2.286163	RRB PARTICIPLE
-1.002166	RRB PREFIX	-0.07327911
-1.354783	RRB PREPOSITION	-0.1248308
-1.936408	RRB PROPERNAME
-1.936408	RRB SCLN
-1.189253	RRB VERB	0.01231781
-1.826075	RRB VERB-INF
-1.956095	SCLN ADJECTIVE
-1.496007	SCLN ADVERB
-1.12803	SCLN CONJUNCTION
-1.956095	SCLN COPULA
-1.956095	SCLN MODAL
-1.194977	SCLN MW	-0.218346
-1.60634	SCLN NEGATION
-1.194977	SCLN NOUN	-0.1988894
-0.8269998	SCLN NOUN-CONST	-0.361931
-1.024715	SCLN NOUN-DEF	-0.1031303
-1.496007	SCLN NOUN-POSSESSIVE	-0.2794494
-1.371068	SCLN NUMERAL	-0.8584113
-0.7426789	SCLN PREFIX	-0.07049409
-1.496007	SCLN PREPOSITION
-1.60634	SCLN PRONOUN
-1.018885	SCLN PROPERNAME	-0.818578
-1.60634	SCLN PROPERNAME-DEF
-1.496007	SCLN VERB
-1.56275	TITLE DASH
-1.212995	TITLE MW	-0.3245487
-0.07463362	TITLE PROPERNAME	-0.5391998
-1.212995	TITLE VERB
-2.575303	VERB ADJECTIVE	-0.3862789
-3.098182	VERB ADJECTIVE-DEF
-1.145551	VERB ADVERB	-0.4159213
-3.55827	VERB APOS
-2.672213	VERB CLN	-0.5475568
-1.651024	VERB CM	-0.50172
-1.32245	VERB CONJUNCTION	-0.281229
-2.533911	VERB COPULA	-0.02461366
-3.55827	VERB DASH
-1.69449	VERB DOT	1.555832
-3.55827	VERB EXCL
-2.399212	VERB INTERROGATIVE	0.1000807
-3.208515	VERB LRB
-3.55827	VERB MODAL
-1.593032	VERB MW	-1.11894
-2.730205	VERB NEGATION	-0.2604543
-1.062086	VERB NOUN	-0.08753836
-1.451452	VERB NOUN-CONST	0.02348137
-1.317625	VERB NOUN-DEF	-0.4431134
-2.177363	VERB NOUN-POSSESSIVE	-0.3487427
-3.55827	VERB NUMBER-EXPRESSION
-1.645884	VERB NUMERAL	-0.2134934
-2.973243	VERB PARTICIPLE	-0.167987
-2.62689	VERB PARTICIPLE-DEF	0.1004334
-0.5684096	VERB PREFIX	-0.117331
-0.7066589	VERB PREPOSITION	-0.07995045
-2.29655	VERB PRONOUN	-0.3294476
-1.474933	VERB PROPERNAME	-0.5587777
-2.575303	VERB PROPERNAME-DEF	-0.1221793
-2.62689	VERB QM	0.3473683
-2.112905	VERB QUANTIFIER	-0.1240336
-2.274273	VERB QUOT	-0.1863008
-3.208515	VERB SCLN	-0.4659206
-3.55827	VERB TITLE
-2.429175	VERB VERB	0.004341409
-1.184368	VERB VERB-INF	-0.110002
-3.55827	VERB WPREFIX
-3.021984	VERB-INF ADJECTIVE
-1.36692	VERB-INF ADVERB	-0.4067754
-3.021984	VERB-INF CLN
-1.533867	VERB-INF CM	-0.02735758
-1.641077	VERB-INF CONJUNCTION	-0.160175
-2.672229	VERB-INF COPULA
-3.021984	VERB-INF DASH
-1.576619	VERB-INF DOT	1.965202
-3.021984	VERB-INF EXISTENTIAL
-2.135927	VERB-INF INTERROGATIVE	-0.07731865
-3.021984	VERB-INF LRB
-1.641077	VERB-INF MW	-1.361362
-0.8658311	VERB-INF NOUN	-0.3354326
-1.696595	VERB-INF NOUN-CONST	-1.232344
-2.090604	VERB-INF NOUN-DEF	-0.04216078
-2.260866	VERB-INF NOUN-POSSESSIVE	-0.04151942
-2.084775	VERB-INF NUMERAL	-0.1285191
-3.021984	VERB-INF PARTICIPLE
-0.5271339	VERB-INF PREFIX	-0.5378852
-0.506263	VERB-INF PREPOSITION	-0.4015634
-1.892889	VERB-INF PRONOUN	-0.1876728
-3.021984	VERB-INF PROPERNAME
-2.039017	VERB-INF QUANTIFIER	-0.05328116
-2.090604	VERB-INF QUOT	-0.06359892
-3.021984	VERB-INF RRB
-2.090604	VERB-INF VERB	-0.01071431
-1.959836	VERB-INF VERB-INF	0.3076237
-2.672229	VERB-INF WPREFIX
-0.6671782	WPREFIX ADJECTIVE	-0.06838647
-0.2255292	WPREFIX DASH	-0.957311
-1.880594	WPREFIX DOT
-1.530839	WPREFIX NOUN
-1.420506	WPREFIX NOUN-DEF
-1.119476	WPREFIX PARTICIPLE	-0.05665082
-1.880594	WPREFIX PROPERNAME
-1.880594	WPREFIX PROPERNAME-DEF

\3-grams:
-1.184171	<s> ADJECTIVE CM
-0.3881802	<s> ADJECTIVE PREFIX
-1.017577	<s> ADJECTIVE PREPOSITION
-1.474879	ADJECTIVE ADJECTIVE ADVERB
-0.8302489	ADJECTIVE ADJECTIVE CM
-1.735853	ADJECTIVE ADJECTIVE CONJUNCTION
-1.902446	ADJECTIVE ADJECTIVE COPULA
-0.5982999	ADJECTIVE ADJECTIVE DOT
-0.4696332	ADJECTIVE ADJECTIVE PREFIX
-1.106455	ADJECTIVE ADJECTIVE PREPOSITION
-1.735853	ADJECTIVE ADJECTIVE VERB
-1.095422	ADVERB ADJECTIVE ADVERB
-1.356396	ADVERB ADJECTIVE CM
-0.7781513	ADVERB ADJECTIVE DOT
-1.522989	ADVERB ADJECTIVE NOUN
-1.522989	ADVERB ADJECTIVE NOUN-CONST
-1.522989	ADVERB ADJECTIVE NOUN-DEF
-0.5672979	ADVERB ADJECTIVE PREFIX
-0.8855073	ADVERB ADJECTIVE PREPOSITION
-0.3188694	CLN ADJECTIVE PREFIX
-1.095422	CM ADJECTIVE ADVERB
-0.90309	CM ADJECTIVE CM
-1.522989	CM ADJECTIVE NOUN-DEF
-0.2833012	CM ADJECTIVE PREFIX
-1.356396	CM ADJECTIVE PREPOSITION
-0.6197888	CONJUNCTION ADJECTIVE ADVERB
-1.073095	CONJUNCTION ADJECTIVE DOT
-0.49485	CONJUNCTION ADJECTIVE PREFIX
-0.7596679	COPULA ADJECTIVE ADVERB
-1.902446	COPULA ADJECTIVE CLN
-1.106455	COPULA ADJECTIVE CM
-1.520947	COPULA ADJECTIVE CONJUNCTION
-0.9467545	COPULA ADJECTIVE DOT
-1.902446	COPULA ADJECTIVE MW
-0.4374486	COPULA ADJECTIVE PREFIX
-1.060698	COPULA ADJECTIVE PREPOSITION
-1.902446	COPULA ADJECTIVE QUANTIFIER
-1.474879	COPULA ADJECTIVE QUOT
-1.902446	COPULA ADJECTIVE VERB-INF
-1.177609	DASH ADJECTIVE ADJECTIVE
-1.223677	DASH ADJECTIVE CM
-1.605176	DASH ADJECTIVE CONJUNCTION
-1.605176	DASH ADJECTIVE COPULA
-1.605176	DASH ADJECTIVE DASH
-0.6173	DASH ADJECTIVE DOT
-0.5873367	DASH ADJECTIVE PREFIX
-1.223677	DASH ADJECTIVE PREPOSITION
-1.223677	DASH ADJECTIVE PRONOUN
-1.605176	DASH ADJECTIVE PROPERNAME
-1.605176	DASH ADJECTIVE VERB
-0.1073561	LRB ADJECTIVE PREFIX
-1.494961	MW ADJECTIVE ADVERB
-1.067394	MW ADJECTIVE CM
-0.8574786	MW ADJECTIVE DOT
-1.494961	MW ADJECTIVE NOUN-DEF
-0.4490925	MW ADJECTIVE PREFIX
-1.113461	MW ADJECTIVE PREPOSITION
-1.163967	NEGATION ADJECTIVE ADVERB
-0.243038	NEGATION ADJECTIVE DOT
-1.163967	NEGATION ADJECTIVE PREFIX
-1.163967	NEGATION ADJECTIVE PREPOSITION
-1.132117	NOUN ADJECTIVE ADJECTIVE
-2.802907	NOUN ADJECTIVE ADJECTIVE-DEF
-1.349601	NOUN ADJECTIVE ADVERB
-1.923633	NOUN ADJECTIVE CLN
-0.8117822	NOUN ADJECTIVE CM
-1.766025	NOUN ADJECTIVE CONJUNCTION
-2.224663	NOUN ADJECTIVE COPULA
-2.224663	NOUN ADJECTIVE DASH
-0.8872033	NOUN ADJECTIVE DOT
-2.588001	NOUN ADJECTIVE EXISTENTIAL
-2.013809	NOUN ADJECTIVE LRB
-2.127753	NOUN ADJECTIVE MODAL
-1.951661	NOUN ADJECTIVE MW
-2.127753	NOUN ADJECTIVE NOUN
-2.588001	NOUN ADJECTIVE NOUN-CONST
-2.332019	NOUN ADJECTIVE NUMERAL
-2.541934	NOUN ADJECTIVE PARTICIPLE
-2.332019	NOUN ADJECTIVE PARTICIPLE-DEF
-0.5690439	NOUN ADJECTIVE PREFIX
-0.9430611	NOUN ADJECTIVE PREPOSITION
-1.826723	NOUN ADJECTIVE PRONOUN
-2.588001	NOUN ADJECTIVE PROPERNAME
-2.588001	NOUN ADJECTIVE QM
-2.588001	NOUN ADJECTIVE QUANTIFIER
-1.622603	NOUN ADJECTIVE QUOT
-2.541934	NOUN ADJECTIVE RRB
-2.349601	NOUN ADJECTIVE SCLN
-1.335361	NOUN ADJECTIVE VERB
-1.951661	NOUN ADJECTIVE VERB-INF
-0.9556915	NOUN-CONST ADJECTIVE ADVERB
-0.9556915	NOUN-CONST ADJECTIVE CM
-0.9556915	NOUN-CONST ADJECTIVE DOT
-0.5741922	NOUN-CONST ADJECTIVE PREFIX
-0.9556915	NOUN-CONST ADJECTIVE PROPERNAME
-0.7974564	NOUN-DEF ADJECTIVE ADVERB
-1.25303	NOUN-DEF ADJECTIVE CM
-1.680597	NOUN-DEF ADJECTIVE CONJUNCTION
-0.7974564	NOUN-DEF ADJECTIVE DOT
-1.680597	NOUN-DEF ADJECTIVE NOUN
-1.680597	NOUN-DEF ADJECTIVE NOUN-CONST
-0.5166298	NOUN-DEF ADJECTIVE PREFIX
-1.25303	NOUN-DEF ADJECTIVE PREPOSITION
-1.680597	NOUN-DEF ADJECTIVE VERB
-1.680597	NOUN-DEF ADJECTIVE VERB-INF
-0.9056036	NOUN-POSSESSIVE ADJECTIVE CM
-0.9056036	NOUN-POSSESSIVE ADJECTIVE DOT
-0.434715	NOUN-POSSESSIVE ADJECTIVE PREFIX
-0.9209293	NUMERAL ADJECTIVE COPULA
-0.9209293	NUMERAL ADJECTIVE PREPOSITION
-0.9209293	NUMERAL ADJECTIVE VERB
-0.1585086	PARTICIPLE ADJECTIVE ADVERB
-1.57752	PREFIX ADJECTIVE ADJECTIVE
-1.03809	PREFIX ADJECTIVE ADVERB
-0.7370601	PREFIX ADJECTIVE CM
-1.792426	PREFIX ADJECTIVE COPULA
-0.6548733	PREFIX ADJECTIVE DOT
-1.959019	PREFIX ADJECTIVE MW
-0.6121213	PREFIX ADJECTIVE PREFIX
-1.075879	PREFIX ADJECTIVE PREPOSITION
-1.792426	PREFIX ADJECTIVE QUOT
-1.531452	PREFIX ADJECTIVE VERB
-1.036883	PREPOSITION ADJECTIVE CM
-1.203476	PREPOSITION ADJECTIVE MW
-0.2825466	PREPOSITION ADJECTIVE PREFIX
-0.7690079	PRONOUN ADJECTIVE ADVERB
-1.086279	PRONOUN ADJECTIVE CM
-1.347253	PRONOUN ADJECTIVE DOT
-1.347253	PRONOUN ADJECTIVE MW
-0.31037	PRONOUN ADJECTIVE PREFIX
-1.513846	PRONOUN ADJECTIVE PREPOSITION
-1.513846	PRONOUN ADJECTIVE QUOT
-0.8916126	PROPERNAME ADJECTIVE ADVERB
-1.106519	PROPERNAME ADJECTIVE DOT
-0.3521825	PROPERNAME ADJECTIVE PREFIX
-1.273112	PROPERNAME ADJECTIVE PREPOSITION
-1.273112	PROPERNAME ADJECTIVE PROPERNAME
-0.6868461	PROPERNAME-DEF ADJECTIVE ADVERB
-0.6868461	PROPERNAME-DEF ADJECTIVE PREFIX
-0.8417481	QUANTIFIER ADJECTIVE CM
-0.8417481	QUANTIFIER ADJECTIVE DOT
-0.4602489	QUANTIFIER ADJECTIVE PREFIX
-0.7890981	QUOT ADJECTIVE PREFIX
-0.3357921	QUOT ADJECTIVE QUOT
-0.8417481	VERB ADJECTIVE DOT
-0.2042661	VERB ADJECTIVE PREFIX
-0.64463	WPREFIX ADJECTIVE CM
-0.6906978	WPREFIX ADJECTIVE DOT
-0.6906978	WPREFIX ADJECTIVE PREFIX
-0.3188694	CONJUNCTION ADJECTIVE-CONST NOUN
-0.9209293	NOUN ADJECTIVE-CONST DASH
-0.1760913	NOUN ADJECTIVE-CONST NOUN
-0.6198993	NOUN-DEF ADJECTIVE-CONST DASH
-0.6198993	NOUN-DEF ADJECTIVE-CONST NOUN-DEF
-0.2632414	PREFIX ADJECTIVE-CONST NOUN
-0.7165474	PREFIX ADJECTIVE-CONST NOUN-DEF
-0.3188694	PREPOSITION ADJECTIVE-CONST NOUN-DEF
-0.3741247	ADJECTIVE ADJECTIVE-DEF PREFIX
-0.6103325	ADJECTIVE-DEF ADJECTIVE-DEF CM
-0.7242759	ADJECTIVE-DEF ADJECTIVE-DEF DOT
-0.6103325	ADJECTIVE-DEF ADJECTIVE-DEF PREFIX
-0.928542	ADJECTIVE-DEF ADJECTIVE-DEF PREPOSITION
-1.566024	ADJECTIVE-DEF ADJECTIVE-DEF VERB
-0.9539083	CM ADJECTIVE-DEF ADVERB
-1.120502	CM ADJECTIVE-DEF NOUN
-0.4830197	CM ADJECTIVE-DEF PREFIX
-1.120502	CM ADJECTIVE-DEF PREPOSITION
-0.453306	CONJUNCTION ADJECTIVE-DEF PREFIX
-0.3053469	COPULA ADJECTIVE-DEF ADVERB
-0.6868461	COPULA ADJECTIVE-DEF PREFIX
-1.106519	MW ADJECTIVE-DEF CM
-0.8916126	MW ADJECTIVE-DEF DOT
-0.3521825	MW ADJECTIVE-DEF PREFIX
-1.273112	MW ADJECTIVE-DEF PROPERNAME
-1.273112	NOUN ADJECTIVE-DEF ADVERB
-1.273112	NOUN ADJECTIVE-DEF DOT
-0.3521825	NOUN ADJECTIVE-DEF PREFIX
-0.8916126	NOUN ADJECTIVE-DEF PREPOSITION
-1.273112	NOUN ADJECTIVE-DEF QUOT
-2.43013	NOUN-DEF ADJECTIVE-DEF ADJECTIVE
-1.253878	NOUN-DEF ADJECTIVE-DEF ADJECTIVE-DEF
-1.425814	NOUN-DEF ADJECTIVE-DEF ADVERB
-2.43013	NOUN-DEF ADJECTIVE-DEF CLN
-0.8626717	NOUN-DEF ADJECTIVE-DEF CM
-2.384063	NOUN-DEF ADJECTIVE-DEF CONJUNCTION
-1.49276	NOUN-DEF ADJECTIVE-DEF COPULA
-2.19173	NOUN-DEF ADJECTIVE-DEF DASH
-0.8363428	NOUN-DEF ADJECTIVE-DEF DOT
-2.645036	NOUN-DEF ADJECTIVE-DEF EXISTENTIAL
-2.174148	NOUN-DEF ADJECTIVE-DEF LRB
-2.015639	NOUN-DEF ADJECTIVE-DEF MW
-2.174148	NOUN-DEF ADJECTIVE-DEF NEGATION
-2.19173	NOUN-DEF ADJECTIVE-DEF NOUN
-2.384063	NOUN-DEF ADJECTIVE-DEF NOUN-DEF
-2.81163	NOUN-DEF ADJECTIVE-DEF NOUN-POSSESSIVE
-2.384063	NOUN-DEF ADJECTIVE-DEF NUMERAL
-2.174148	NOUN-DEF ADJECTIVE-DEF PARTICIPLE
-1.969882	NOUN-DEF ADJECTIVE-DEF PARTICIPLE-DEF
-0.6710286	NOUN-DEF ADJECTIVE-DEF PREFIX
-0.8331611	NOUN-DEF ADJECTIVE-DEF PREPOSITION
-1.969882	NOUN-DEF ADJECTIVE-DEF PRONOUN
-1.79379	NOUN-DEF ADJECTIVE-DEF PROPERNAME
-1.58967	NOUN-DEF ADJECTIVE-DEF QUOT
-2.645036	NOUN-DEF ADJECTIVE-DEF RRB
-2.81163	NOUN-DEF ADJECTIVE-DEF SCLN
-1.150338	NOUN-DEF ADJECTIVE-DEF VERB
-1.8907	NOUN-DEF ADJECTIVE-DEF VERB-INF
-1.867054	NOUN-POSSESSIVE ADJECTIVE-DEF ADVERB
-0.7700334	NOUN-POSSESSIVE ADJECTIVE-DEF CM
-1.700461	NOUN-POSSESSIVE ADJECTIVE-DEF COPULA
-0.7700334	NOUN-POSSESSIVE ADJECTIVE-DEF DOT
-0.7242759	NOUN-POSSESSIVE ADJECTIVE-DEF PREFIX
-0.5067919	NOUN-POSSESSIVE ADJECTIVE-DEF PREPOSITION
-1.867054	NOUN-POSSESSIVE ADJECTIVE-DEF VERB-INF
-0.8417481	NUMERAL ADJECTIVE-DEF DOT
-0.6751547	NUMERAL ADJECTIVE-DEF PREFIX
-1.454532	PREFIX ADJECTIVE-DEF CLN
-0.81705	PREFIX ADJECTIVE-DEF CM
-1.073033	PREFIX ADJECTIVE-DEF DOT
-0.4988405	PREFIX ADJECTIVE-DEF PREFIX
-1.026965	PREFIX ADJECTIVE-DEF PREPOSITION
-1.026965	PREFIX ADJECTIVE-DEF VERB
-0.7890981	PREPOSITION ADJECTIVE-DEF CM
-0.7890981	PREPOSITION ADJECTIVE-DEF DOT
-0.5281244	PREPOSITION ADJECTIVE-DEF PREFIX
-0.3188694	PRONOUN ADJECTIVE-DEF PREFIX
-0.3802112	PROPERNAME ADJECTIVE-DEF CM
-1.055366	PROPERNAME ADJECTIVE-DEF DOT
-0.3802112	PROPERNAME ADJECTIVE-DEF PREFIX
-0.7448381	PROPERNAME-DEF ADJECTIVE-DEF CM
-0.7448381	PROPERNAME-DEF ADJECTIVE-DEF DOT
-0.7448381	PROPERNAME-DEF ADJECTIVE-DEF PREFIX
-0.1249387	QUANTIFIER ADJECTIVE-DEF PREFIX
-0.7448381	QUANTIFIER ADJECTIVE-DEF PREPOSITION
-0.6198993	QUOT ADJECTIVE-DEF QUOT
-1.710669	<s> ADVERB ADJECTIVE
-1.34733	<s> ADVERB ADVERB
-0.8354467	<s> ADVERB CM
-1.925575	<s> ADVERB CONJUNCTION
-1.925575	<s> ADVERB COPULA
-2.092168	<s> ADVERB DOT
-2.092168	<s> ADVERB EXISTENTIAL
-1.472269	<s> ADVERB MODAL
-1.925575	<s> ADVERB MW
-1.664601	<s> ADVERB NEGATION
-1.454686	<s> ADVERB NOUN
-1.710669	<s> ADVERB NOUN-CONST
-1.34733	<s> ADVERB NOUN-DEF
-2.092168	<s> ADVERB NOUN-POSSESSIVE
-2.092168	<s> ADVERB PARTICIPLE
-1.25042	<s> ADVERB PREFIX
-1.664601	<s> ADVERB PREPOSITION
-1.296178	<s> ADVERB PRONOUN
-1.925575	<s> ADVERB PROPERNAME
-2.092168	<s> ADVERB QUANTIFIER
-0.486992	<s> ADVERB VERB
-1.876552	ADJECTIVE ADVERB ADVERB
-0.7542391	ADJECTIVE ADVERB CM
-1.247155	ADJECTIVE ADVERB CONJUNCTION
-0.6573291	ADJECTIVE ADVERB DOT
-0.5886133	ADJECTIVE ADVERB PREFIX
-1.160004	ADJECTIVE ADVERB PREPOSITION
-2.043145	ADJECTIVE ADVERB PRONOUN
-2.043145	ADJECTIVE ADVERB QUANTIFIER
-1.247155	ADJECTIVE ADVERB QUOT
-2.043145	ADJECTIVE ADVERB SCLN
-1.423246	ADJECTIVE ADVERB VERB
-1.661646	ADJECTIVE ADVERB VERB-INF
-0.8044802	ADJECTIVE-DEF ADVERB CM
-1.382725	ADJECTIVE-DEF ADVERB COPULA
-0.9118363	ADJECTIVE-DEF ADVERB DOT
-0.4288166	ADJECTIVE-DEF ADVERB PREFIX
-1.549318	ADJECTIVE-DEF ADVERB PREPOSITION
-0.9118363	ADJECTIVE-DEF ADVERB VERB
-1.504506	ADVERB ADVERB ADJECTIVE
-1.504506	ADVERB ADVERB CM
-0.8846066	ADVERB ADVERB DOT
-1.504506	ADVERB ADVERB NEGATION
-1.337913	ADVERB ADVERB NUMERAL
-0.7085153	ADVERB ADVERB PREFIX
-1.337913	ADVERB ADVERB PREPOSITION
-0.6213651	ADVERB ADVERB VERB
-1.666381	CM ADVERB ADJECTIVE
-1.832974	CM ADVERB ADVERB
-0.8151348	CM ADVERB CM
-1.451475	CM ADVERB CONJUNCTION
-1.405407	CM ADVERB MW
-1.666381	CM ADVERB NEGATION
-1.832974	CM ADVERB NOUN
-1.832974	CM ADVERB NOUN-DEF
-1.666381	CM ADVERB NUMERAL
-1.832974	CM ADVERB PARTICIPLE
-0.5762527	CM ADVERB PREFIX
-1.088136	CM ADVERB PREPOSITION
-1.405407	CM ADVERB PRONOUN
-0.8772827	CM ADVERB VERB
-1.566024	CONJUNCTION ADVERB CM
-1.566024	CONJUNCTION ADVERB COPULA
-1.566024	CONJUNCTION ADVERB DASH
-1.184525	CONJUNCTION ADVERB DOT
-1.566024	CONJUNCTION ADVERB MODAL
-1.399431	CONJUNCTION ADVERB NEGATION
-1.138457	CONJUNCTION ADVERB NOUN
-0.928542	CONJUNCTION ADVERB PREFIX
-1.399431	CONJUNCTION ADVERB PREPOSITION
-1.399431	CONJUNCTION ADVERB PRONOUN
-0.5781478	CONJUNCTION ADVERB VERB
-0.8291544	COPULA ADVERB ADJECTIVE
-1.256721	COPULA ADVERB ADVERB
-0.6368221	COPULA ADVERB NOUN
-1.256721	COPULA ADVERB NOUN-CONST
-1.256721	COPULA ADVERB NUMERAL
-0.8291544	COPULA ADVERB PREFIX
-0.2498775	EXISTENTIAL ADVERB NOUN
-1.045868	EXISTENTIAL ADVERB PREFIX
-0.7448381	INTERROGATIVE ADVERB PREFIX
-0.6198993	LRB ADVERB PREFIX
-0.6198993	LRB ADVERB VERB
-0.09691001	MODAL ADVERB VERB-INF
-1.221959	MW ADVERB ADJECTIVE
-0.8404601	MW ADVERB CM
-1.221959	MW ADVERB CONJUNCTION
-1.055366	MW ADVERB PREFIX
-1.221959	MW ADVERB QUOT
-1.221959	MW ADVERB VERB-INF
-1.373227	NEGATION ADVERB ADJECTIVE
-1.373227	NEGATION ADVERB CONJUNCTION
-1.373227	NEGATION ADVERB DOT
-1.206634	NEGATION ADVERB MW
-1.206634	NEGATION ADVERB NOUN-CONST
-0.3853509	NEGATION ADVERB PREFIX
-1.206634	NEGATION ADVERB PREPOSITION
-1.373227	NEGATION ADVERB PRONOUN
-1.373227	NEGATION ADVERB VERB
-1.09691	NOUN ADVERB ADJECTIVE
-1.289242	NOUN ADVERB ADVERB
-0.9719713	NOUN ADVERB CM
-1.550216	NOUN ADVERB CONJUNCTION
-0.79588	NOUN ADVERB DOT
-1.716809	NOUN ADVERB MW
-1.550216	NOUN ADVERB NEGATION
-1.716809	NOUN ADVERB NUMERAL
-1.716809	NOUN ADVERB PARTICIPLE
-1.716809	NOUN ADVERB PERC
-0.6197888	NOUN ADVERB PREFIX
-1.550216	NOUN ADVERB PREPOSITION
-1.716809	NOUN ADVERB QUOT
-1.550216	NOUN ADVERB VERB
-1.438583	NOUN-DEF ADVERB ADJECTIVE
-1.605176	NOUN-DEF ADVERB ADVERB
-0.9852768	NOUN-DEF ADVERB CM
-1.438583	NOUN-DEF ADVERB COPULA
-1.438583	NOUN-DEF ADVERB DOT
-1.223677	NOUN-DEF ADVERB NEGATION
-1.605176	NOUN-DEF ADVERB NOUN-DEF
-1.605176	NOUN-DEF ADVERB PARTICIPLE
-0.763428	NOUN-DEF ADVERB PREFIX
-1.438583	NOUN-DEF ADVERB PREPOSITION
-1.605176	NOUN-DEF ADVERB QUOT
-0.5873367	NOUN-DEF ADVERB VERB
-0.7959906	NOUN-POSSESSIVE ADVERB ADJECTIVE
-0.7959906	NOUN-POSSESSIVE ADVERB CM
-0.7959906	NOUN-POSSESSIVE ADVERB VERB
-0.7165474	NUMERAL ADVERB CM
-0.7165474	NUMERAL ADVERB DOT
-0.7165474	NUMERAL ADVERB PREFIX
-1.203476	PARTICIPLE ADVERB CM
-1.036883	PARTICIPLE ADVERB DOT
-0.4074853	PARTICIPLE ADVERB PREFIX
-1.045868	PARTICIPLE-DEF ADVERB DOT
-0.2498775	PARTICIPLE-DEF ADVERB PREFIX
-1.045868	PARTICIPLE-DEF ADVERB PREPOSITION
-1.532131	PREFIX ADVERB ADJECTIVE
-1.91363	PREFIX ADVERB ADVERB
-1.276148	PREFIX ADVERB CM
-1.532131	PREFIX ADVERB CONJUNCTION
-1.747037	PREFIX ADVERB COPULA
-1.747037	PREFIX ADVERB DOT
-1.91363	PREFIX ADVERB EXISTENTIAL
-1.747037	PREFIX ADVERB MW
-0.9579387	PREFIX ADVERB NEGATION
-1.91363	PREFIX ADVERB NOUN
-1.91363	PREFIX ADVERB NOUN-CONST
-0.925754	PREFIX ADVERB PREFIX
-1.486063	PREFIX ADVERB PREPOSITION
-1.293731	PREFIX ADVERB PRONOUN
-1.91363	PREFIX ADVERB QM
-0.5404031	PREFIX ADVERB VERB
-1.486063	PREFIX ADVERB VERB-INF
-1.415517	PREPOSITION ADVERB CM
-0.69897	PREPOSITION ADVERB DOT
-0.9446288	PREPOSITION ADVERB NOUN
-0.9622114	PREPOSITION ADVERB NUMERAL
-0.69897	PREPOSITION ADVERB PREFIX
-1.582111	PREPOSITION ADVERB VERB
-1.231457	PRONOUN ADVERB ADJECTIVE
-0.9704835	PRONOUN ADVERB NEGATION
-1.016551	PRONOUN ADVERB NOUN
-0.7781513	PRONOUN ADVERB PREFIX
-1.398051	PRONOUN ADVERB PREPOSITION
-0.7605686	PRONOUN ADVERB VERB
-1.256721	PROPERNAME ADVERB CM
-1.090128	PROPERNAME ADVERB DOT
-1.256721	PROPERNAME ADVERB NOUN-CONST
-1.256721	PROPERNAME ADVERB PREFIX
-0.4149733	PROPERNAME ADVERB VERB
-0.152276	PROPERNAME-DEF ADVERB PREFIX
-0.754336	QUANTIFIER ADVERB NOUN
-0.754336	QUANTIFIER ADVERB PREFIX
-0.9209293	QUANTIFIER ADVERB PREPOSITION
-0.8831408	QUOT ADVERB CM
-0.8831408	QUOT ADVERB PREFIX
-1.890001	VERB ADVERB ADJECTIVE
-1.38836	VERB ADVERB ADVERB
-1.315809	VERB ADVERB CM
-1.17448	VERB ADVERB CONJUNCTION
-1.225632	VERB ADVERB DOT
-1.843933	VERB ADVERB MW
-1.031812	VERB ADVERB NOUN
-1.651601	VERB ADVERB NOUN-CONST
-1.526662	VERB ADVERB NOUN-DEF
-1.38836	VERB ADVERB NUMERAL
-0.5106742	VERB ADVERB PREFIX
-0.8856843	VERB ADVERB PREPOSITION
-2.2715	VERB ADVERB PROPERNAME
-2.104907	VERB ADVERB QUANTIFIER
-2.104907	VERB ADVERB QUOT
-1.890001	VERB ADVERB VERB
-1.283624	VERB ADVERB VERB-INF
-1.513846	VERB-INF ADVERB CONJUNCTION
-0.8763639	VERB-INF ADVERB DOT
-1.132347	VERB-INF ADVERB NOUN
-1.513846	VERB-INF ADVERB NUMERAL
-0.5581545	VERB-INF ADVERB PREFIX
-0.5929166	VERB-INF ADVERB PREPOSITION
-0.8831408	NOUN APOS PREFIX
-0.5016416	NOUN APOS RRB
-0.1592189	PROPERNAME APOS PROPERNAME
-1.184171	ADJECTIVE CLN NOUN
-1.184171	ADJECTIVE CLN NOUN-CONST
-1.184171	ADJECTIVE CLN NOUN-DEF
-0.8026716	ADJECTIVE CLN NUMERAL
-1.017577	ADJECTIVE CLN PRONOUN
-1.017577	ADJECTIVE CLN PROPERNAME
-1.017577	ADJECTIVE CLN QUOT
-0.6868461	ADJECTIVE-DEF CLN PROPERNAME
-0.5202528	ADJECTIVE-DEF CLN QUOT
-0.1427781	COPULA CLN QUOT
-0.7448381	MW CLN QUOT
-1.288906	NOUN CLN ADJECTIVE
-0.861339	NOUN CLN NOUN
-1.122313	NOUN CLN NOUN-CONST
-1.288906	NOUN CLN NOUN-DEF
-0.9074069	NOUN CLN NUMERAL
-1.122313	NOUN CLN QUOT
-1.017577	NOUN-DEF CLN NOUN-CONST
-1.184171	NOUN-DEF CLN NUMERAL
-1.184171	NOUN-DEF CLN PREFIX
-0.5466888	NOUN-DEF CLN PROPERNAME
-1.017577	NOUN-DEF CLN QUOT
-0.3633389	NUMERAL CLN PROPERNAME
-0.4438081	PREPOSITION CLN QUOT
-1.045868	PROPERNAME CLN LRB
-0.4083861	PROPERNAME CLN QUOT
-1.045868	PROPERNAME CLN VERB
-0.1073561	VERB CLN QUOT
-0.2772147	<s> CM NOUN-CONST
-1.284431	ADJECTIVE CM ADJECTIVE
-1.312459	ADJECTIVE CM ADVERB
-0.8550823	ADJECTIVE CM CONJUNCTION
-1.7104	ADJECTIVE CM COPULA
-1.902732	ADJECTIVE CM MODAL
-1.447158	ADJECTIVE CM MW
-1.9488	ADJECTIVE CM NEGATION
-1.488551	ADJECTIVE CM NOUN
-1.585461	ADJECTIVE CM NOUN-CONST
-1.9488	ADJECTIVE CM NOUN-DEF
-2.330299	ADJECTIVE CM NOUN-POSSESSIVE
-1.447158	ADJECTIVE CM PARTICIPLE
-1.692817	ADJECTIVE CM PARTICIPLE-DEF
-0.5154229	ADJECTIVE CM PREFIX
-1.312459	ADJECTIVE CM PREPOSITION
-1.902732	ADJECTIVE CM PRONOUN
-1.692817	ADJECTIVE CM PROPERNAME
-2.330299	ADJECTIVE CM QUOT
-0.920349	ADJECTIVE CM VERB
-2.163705	ADJECTIVE CM VERB-INF
-1.953908	ADJECTIVE-DEF CM ADJECTIVE-DEF
-1.500602	ADJECTIVE-DEF CM ADVERB
-0.8985423	ADJECTIVE-DEF CM CONJUNCTION
-1.953908	ADJECTIVE-DEF CM COPULA
-1.953908	ADJECTIVE-DEF CM MODAL
-1.500602	ADJECTIVE-DEF CM MW
-2.120502	ADJECTIVE-DEF CM NEGATION
-1.692935	ADJECTIVE-DEF CM NOUN
-1.48302	ADJECTIVE-DEF CM NOUN-CONST
-1.692935	ADJECTIVE-DEF CM NOUN-DEF
-1.692935	ADJECTIVE-DEF CM PARTICIPLE-DEF
-0.5228788	ADJECTIVE-DEF CM PREFIX
-1.16481	ADJECTIVE-DEF CM PREPOSITION
-2.120502	ADJECTIVE-DEF CM PRONOUN
-1.48302	ADJECTIVE-DEF CM PROPERNAME
-2.120502	ADJECTIVE-DEF CM QUOT
-2.120502	ADJECTIVE-DEF CM TITLE
-0.8315955	ADJECTIVE-DEF CM VERB
-1.739002	ADJECTIVE-DEF CM VERB-INF
-1.808694	ADVERB CM ADJECTIVE
-1.593788	ADVERB CM ADVERB
-0.7718111	ADVERB CM CONJUNCTION
-1.808694	ADVERB CM COPULA
-1.975287	ADVERB CM EXISTENTIAL
-1.54772	ADVERB CM MODAL
-1.355388	ADVERB CM MW
-1.593788	ADVERB CM NEGATION
-1.54772	ADVERB CM NOUN
-1.808694	ADVERB CM NOUN-CONST
-1.593788	ADVERB CM NOUN-DEF
-1.975287	ADVERB CM PARTICIPLE
-0.5314789	ADVERB CM PREFIX
-0.9574476	ADVERB CM PREPOSITION
-1.808694	ADVERB CM QUOT
-1.337805	ADVERB CM VERB
-1.360262	CONJUNCTION CM ADVERB
-1.193669	CONJUNCTION CM CONJUNCTION
-0.615424	CONJUNCTION CM PREFIX
-1.360262	CONJUNCTION CM PREPOSITION
-0.5642715	CONJUNCTION CM VERB
-0.8831408	COPULA CM ADVERB
-0.7165474	COPULA CM CONJUNCTION
-0.8831408	COPULA CM MW
-0.8831408	COPULA CM PREFIX
-0.4438081	EXISTENTIAL CM PREFIX
-2.199683	MW CM ADJECTIVE
-0.8527849	MW CM CONJUNCTION
-2.03309	MW CM COPULA
-2.199683	MW CM EXISTENTIAL
-2.199683	MW CM MODAL
-1.772116	MW CM MW
-2.199683	MW CM NEGATION
-1.316542	MW CM NOUN
-1.403692	MW CM NOUN-CONST
-1.357935	MW CM NOUN-DEF
-1.772116	MW CM NUMERAL
-2.03309	MW CM PARTICIPLE
-1.818184	MW CM PARTICIPLE-DEF
-0.5128368	MW CM PREFIX
-1.102662	MW CM PREPOSITION
-1.579784	MW CM PRONOUN
-1.403692	MW CM PROPERNAME
-2.03309	MW CM QUOT
-0.9429615	MW CM VERB
-1.755875	NOUN CM ADJECTIVE
-2.551865	NOUN CM ADJECTIVE-DEF
-1.710117	NOUN CM ADVERB
-1.002547	NOUN CM CONJUNCTION
-1.755875	NOUN CM COPULA
-2.124298	NOUN CM EXISTENTIAL
-2.124298	NOUN CM INTERROGATIVE
-2.124298	NOUN CM MODAL
-1.710117	NOUN CM MW
-2.170366	NOUN CM NEGATION
-0.8070274	NOUN CM NOUN
-1.454845	NOUN CM NOUN-CONST
-1.914383	NOUN CM NOUN-DEF
-2.385272	NOUN CM NOUN-POSSESSIVE
-2.385272	NOUN CM NUMERAL
-1.534026	NOUN CM PARTICIPLE
-1.755875	NOUN CM PARTICIPLE-DEF
-0.4900093	NOUN CM PREFIX
-1.232996	NOUN CM PREPOSITION
-1.668725	NOUN CM PRONOUN
-2.551865	NOUN CM PROPERNAME
-2.385272	NOUN CM PROPERNAME-DEF
-2.385272	NOUN CM QUANTIFIER
-2.551865	NOUN CM QUOT
-1.108057	NOUN CM VERB
-1.914383	NOUN CM VERB-INF
-1.735954	NOUN-DEF CM ADJECTIVE
-2.150445	NOUN-DEF CM ADJECTIVE-DEF
-1.434924	NOUN-DEF CM ADVERB
-0.9741927	NOUN-DEF CM CONJUNCTION
-1.690196	NOUN-DEF CM COPULA
-1.912045	NOUN-DEF CM EXISTENTIAL
-2.104377	NOUN-DEF CM INTERROGATIVE
-1.912045	NOUN-DEF CM MODAL
-1.735954	NOUN-DEF CM MW
-2.104377	NOUN-DEF CM NEGATION
-1.912045	NOUN-DEF CM NOUN
-1.367977	NOUN-DEF CM NOUN-CONST
-1.411443	NOUN-DEF CM NOUN-DEF
-2.150445	NOUN-DEF CM NOUN-POSSESSIVE
-2.150445	NOUN-DEF CM PARTICIPLE
-1.912045	NOUN-DEF CM PARTICIPLE-DEF
-0.5141048	NOUN-DEF CM PREFIX
-1.185046	NOUN-DEF CM PREPOSITION
-1.912045	NOUN-DEF CM PRONOUN
-1.077412	NOUN-DEF CM PROPERNAME
-2.531944	NOUN-DEF CM QUANTIFIER
-2.365351	NOUN-DEF CM QUOT
-2.365351	NOUN-DEF CM TITLE
-0.9267681	NOUN-DEF CM VERB
-1.787106	NOUN-DEF CM VERB-INF
-1.594233	NOUN-POSSESSIVE CM ADVERB
-0.8776854	NOUN-POSSESSIVE CM CONJUNCTION
-1.594233	NOUN-POSSESSIVE CM COPULA
-1.594233	NOUN-POSSESSIVE CM EXISTENTIAL
-1.760826	NOUN-POSSESSIVE CM NOUN
-1.760826	NOUN-POSSESSIVE CM NOUN-CONST
-1.594233	NOUN-POSSESSIVE CM NOUN-DEF
-1.760826	NOUN-POSSESSIVE CM NOUN-POSSESSIVE
-0.5573503	NOUN-POSSESSIVE CM PREFIX
-1.594233	NOUN-POSSESSIVE CM PREPOSITION
-1.760826	NOUN-POSSESSIVE CM PRONOUN
-0.9190781	NOUN-POSSESSIVE CM PROPERNAME
-0.9190781	NOUN-POSSESSIVE CM VERB
-0.4144914	NUMBER-EXPRESSION CM NUMBER-EXPRESSION
-0.6293973	NUMBER-EXPRESSION CM PROPERNAME
-1.854585	NUMERAL CM ADVERB
-0.6704146	NUMERAL CM CONJUNCTION
-1.854585	NUMERAL CM COPULA
-1.427018	NUMERAL CM MW
-1.473086	NUMERAL CM NOUN
-0.933656	NUMERAL CM NUMERAL
-0.632626	NUMERAL CM PREFIX
-1.109747	NUMERAL CM PREPOSITION
-1.473086	NUMERAL CM PROPERNAME
-0.9714445	NUMERAL CM VERB
-1.854585	NUMERAL CM VERB-INF
-1.122313	PARTICIPLE CM CONJUNCTION
-0.9074069	PARTICIPLE CM PARTICIPLE
-0.6514241	PARTICIPLE CM PREFIX
-1.288906	PARTICIPLE CM PREPOSITION
-0.9074069	PARTICIPLE CM VERB
-0.5394301	PARTICIPLE-DEF CM PREFIX
-0.9209293	PARTICIPLE-DEF CM VERB
-0.8417481	PERC CM PREFIX
-0.4602489	PERC CM PROPERNAME
-1.33531	PREPOSITION CM ADVERB
-0.7289332	PREPOSITION CM CONJUNCTION
-1.716809	PREPOSITION CM EXISTENTIAL
-1.33531	PREPOSITION CM MODAL
-1.33531	PREPOSITION CM MW
-1.550216	PREPOSITION CM NOUN-DEF
-1.550216	PREPOSITION CM PARTICIPLE
-0.5133334	PREPOSITION CM PREFIX
-1.550216	PREPOSITION CM PREPOSITION
-1.079327	PREPOSITION CM VERB
-1.060698	PRONOUN CM ADVERB
-0.6927211	PRONOUN CM CONJUNCTION
-1.514004	PRONOUN CM COPULA
-1.680597	PRONOUN CM MODAL
-1.514004	PRONOUN CM MW
-1.514004	PRONOUN CM NEGATION
-1.514004	PRONOUN CM NOUN-DEF
-0.5378191	PRONOUN CM PREFIX
-1.299098	PRONOUN CM PREPOSITION
-1.680597	PRONOUN CM PRONOUN
-1.299098	PRONOUN CM VERB
-1.514004	PRONOUN CM VERB-INF
-2.618449	PROPERNAME CM ADJECTIVE
-1.99855	PROPERNAME CM ADJECTIVE-DEF
-1.776701	PROPERNAME CM ADVERB
-1.163917	PROPERNAME CM CONJUNCTION
-1.980967	PROPERNAME CM COPULA
-2.618449	PROPERNAME CM EXISTENTIAL
-2.451856	PROPERNAME CM MODAL
-1.497948	PROPERNAME CM MW
-2.190882	PROPERNAME CM NEGATION
-1.497948	PROPERNAME CM NOUN
-1.208499	PROPERNAME CM NOUN-CONST
-1.69752	PROPERNAME CM NOUN-DEF
-1.822459	PROPERNAME CM NOUN-POSSESSIVE
-1.60061	PROPERNAME CM NUMERAL
-1.99855	PROPERNAME CM PARTICIPLE
-1.60061	PROPERNAME CM PARTICIPLE-DEF
-0.6123483	PROPERNAME CM PREFIX
-1.434278	PROPERNAME CM PREPOSITION
-0.7122432	PROPERNAME CM PROPERNAME
-2.618449	PROPERNAME CM PROPERNAME-DEF
-1.873611	PROPERNAME CM QUOT
-0.8224587	PROPERNAME CM VERB
-2.618449	PROPERNAME CM VERB-INF
-0.9777236	PROPERNAME-DEF CM CONJUNCTION
-1.597623	PROPERNAME-DEF CM MW
-1.216124	PROPERNAME-DEF CM NOUN
-1.597623	PROPERNAME-DEF CM NOUN-DEF
-0.4134522	PROPERNAME-DEF CM PREFIX
-1.597623	PROPERNAME-DEF CM PREPOSITION
-0.9601409	PROPERNAME-DEF CM PROPERNAME
-1.597623	PROPERNAME-DEF CM PROPERNAME-DEF
-1.216124	PROPERNAME-DEF CM VERB
-1.597623	PROPERNAME-DEF CM VERB-INF
-0.6868461	QUANTIFIER CM NOUN-CONST
-0.6868461	QUANTIFIER CM PREFIX
-0.6868461	QUANTIFIER CM VERB
-1.785744	QUOT CM ADVERB
-1.314856	QUOT CM CONJUNCTION
-1.952338	QUOT CM COPULA
-1.785744	QUOT CM MW
-1.524771	QUOT CM NOUN
-1.314856	QUOT CM NOUN-CONST
-1.952338	QUOT CM NOUN-DEF
-1.785744	QUOT CM PARTICIPLE-DEF
-0.8318361	QUOT CM PREFIX
-1.570839	QUOT CM PREPOSITION
-1.314856	QUOT CM PRONOUN
-0.3112492	QUOT CM VERB
-1.184525	RRB CM CONJUNCTION
-1.399431	RRB CM NOUN
-1.566024	RRB CM NOUN-CONST
-0.6103325	RRB CM PREFIX
-1.399431	RRB CM PREPOSITION
-0.6450946	RRB CM PROPERNAME
-0.7242759	RRB CM VERB
-1.33846	VERB CM ADVERB
-0.6690068	VERB CM CONJUNCTION
-1.021189	VERB CM MW
-1.766027	VERB CM NEGATION
-1.384528	VERB CM NOUN-CONST
-0.5818566	VERB CM PREFIX
-1.146128	VERB CM PREPOSITION
-1.766027	VERB CM QUOT
-0.845098	VERB CM VERB
-1.180305	VERB-INF CM ADVERB
-0.7094161	VERB-INF CM CONJUNCTION
-1.346898	VERB-INF CM MW
-0.7094161	VERB-INF CM PREFIX
-1.346898	VERB-INF CM PREPOSITION
-1.180305	VERB-INF CM VERB
-1.180305	VERB-INF CM VERB-INF
-2.10892	<s> CONJUNCTION ADJECTIVE
-1.48902	<s> CONJUNCTION ADVERB
-1.471438	<s> CONJUNCTION CM
-1.267172	<s> CONJUNCTION CONJUNCTION
-1.364082	<s> CONJUNCTION EXISTENTIAL
-1.681353	<s> CONJUNCTION INTERROGATIVE
-1.48902	<s> CONJUNCTION MW
-1.942326	<s> CONJUNCTION NEGATION
-1.312929	<s> CONJUNCTION NOUN
-1.121044	<s> CONJUNCTION NOUN-CONST
-1.09108	<s> CONJUNCTION NOUN-DEF
-1.727421	<s> CONJUNCTION PARTICIPLE
-0.6139592	<s> CONJUNCTION PREFIX
-1.681353	<s> CONJUNCTION PREPOSITION
-1.312929	<s> CONJUNCTION PRONOUN
-1.942326	<s> CONJUNCTION PROPERNAME
-2.10892	<s> CONJUNCTION QUANTIFIER
-0.8869605	<s> CONJUNCTION VERB
-1.48902	<s> CONJUNCTION VERB-INF
-1.040033	ADJECTIVE CONJUNCTION ADJECTIVE
-1.254938	ADJECTIVE CONJUNCTION ADVERB
-1.254938	ADJECTIVE CONJUNCTION CONJUNCTION
-1.254938	ADJECTIVE CONJUNCTION NOUN
-1.421532	ADJECTIVE CONJUNCTION NOUN-CONST
-0.5383909	ADJECTIVE CONJUNCTION PREFIX
-1.254938	ADJECTIVE CONJUNCTION PREPOSITION
-1.421532	ADJECTIVE CONJUNCTION PRONOUN
-1.254938	ADJECTIVE CONJUNCTION VERB-INF
-0.7448381	ADJECTIVE-DEF CONJUNCTION VERB-INF
-1.566024	ADVERB CONJUNCTION MW
-1.566024	ADVERB CONJUNCTION NEGATION
-1.138457	ADVERB CONJUNCTION NOUN
-1.566024	ADVERB CONJUNCTION NOUN-DEF
-0.5781478	ADVERB CONJUNCTION PREFIX
-1.138457	ADVERB CONJUNCTION PREPOSITION
-1.184525	ADVERB CONJUNCTION PRONOUN
-1.566024	ADVERB CONJUNCTION PROPERNAME
-0.8211859	ADVERB CONJUNCTION VERB
-1.184525	ADVERB CONJUNCTION VERB-INF
-0.4438081	CLN CONJUNCTION NOUN
-1.785191	CM CONJUNCTION ADJECTIVE
-1.404834	CM CONJUNCTION ADVERB
-1.325652	CM CONJUNCTION CM
-1.325652	CM CONJUNCTION CONJUNCTION
-2.041174	CM CONJUNCTION COPULA
-1.580925	CM CONJUNCTION EXISTENTIAL
-1.995106	CM CONJUNCTION MODAL
-1.802774	CM CONJUNCTION MW
-1.238502	CM CONJUNCTION NEGATION
-1.325652	CM CONJUNCTION NOUN
-1.376805	CM CONJUNCTION NOUN-CONST
-1.089563	CM CONJUNCTION NOUN-DEF
-1.677835	CM CONJUNCTION NOUN-POSSESSIVE
-2.25608	CM CONJUNCTION NUMERAL
-2.041174	CM CONJUNCTION PARTICIPLE
-0.6171371	CM CONJUNCTION PREFIX
-1.302171	CM CONJUNCTION PREPOSITION
-1.279895	CM CONJUNCTION PRONOUN
-1.677835	CM CONJUNCTION PROPERNAME
-2.25608	CM CONJUNCTION QUANTIFIER
-2.041174	CM CONJUNCTION QUOT
-1.036857	CM CONJUNCTION VERB
-1.626683	CM CONJUNCTION VERB-INF
-1.391158	CONJUNCTION CONJUNCTION ADVERB
-1.557751	CONJUNCTION CONJUNCTION COPULA
-1.557751	CONJUNCTION CONJUNCTION MW
-1.391158	CONJUNCTION CONJUNCTION NEGATION
-1.176252	CONJUNCTION CONJUNCTION NOUN
-0.9378521	CONJUNCTION CONJUNCTION NOUN-DEF
-1.557751	CONJUNCTION CONJUNCTION NOUN-POSSESSIVE
-0.60206	CONJUNCTION CONJUNCTION PREFIX
-1.176252	CONJUNCTION CONJUNCTION VERB
-1.176252	CONJUNCTION CONJUNCTION VERB-INF
-0.8417481	COPULA CONJUNCTION NOUN
-0.8417481	COPULA CONJUNCTION NOUN-CONST
-0.8417481	COPULA CONJUNCTION NOUN-DEF
-0.1383027	EXISTENTIAL CONJUNCTION NOUN
-0.3741247	MODAL CONJUNCTION VERB-INF
-0.7824682	MW CONJUNCTION NOUN-CONST
-1.163967	MW CONJUNCTION NOUN-DEF
-0.7364003	MW CONJUNCTION PREFIX
-1.163967	MW CONJUNCTION PREPOSITION
-1.163967	MW CONJUNCTION VERB
-1.494699	NOUN CONJUNCTION ADVERB
-1.661292	NOUN CONJUNCTION CONJUNCTION
-1.661292	NOUN CONJUNCTION COPULA
-1.494699	NOUN CONJUNCTION EXISTENTIAL
-0.5185139	NOUN CONJUNCTION NOUN
-1.041393	NOUN CONJUNCTION NOUN-CONST
-0.8653014	NOUN CONJUNCTION PREFIX
-1.661292	NOUN CONJUNCTION PREPOSITION
-1.494699	NOUN CONJUNCTION PROPERNAME
-1.041393	NOUN CONJUNCTION VERB
-1.279793	NOUN CONJUNCTION VERB-INF
-1.474495	NOUN-DEF CONJUNCTION ADVERB
-1.641089	NOUN-DEF CONJUNCTION CONJUNCTION
-1.641089	NOUN-DEF CONJUNCTION EXISTENTIAL
-1.641089	NOUN-DEF CONJUNCTION NOUN
-1.474495	NOUN-DEF CONJUNCTION NOUN-CONST
-1.213522	NOUN-DEF CONJUNCTION NOUN-DEF
-0.7579479	NOUN-DEF CONJUNCTION PREFIX
-1.641089	NOUN-DEF CONJUNCTION PREPOSITION
-1.474495	NOUN-DEF CONJUNCTION PROPERNAME
-0.5952206	NOUN-DEF CONJUNCTION VERB
-1.474495	NOUN-DEF CONJUNCTION VERB-INF
-0.8792747	NOUN-POSSESSIVE CONJUNCTION NOUN
-0.8792747	NOUN-POSSESSIVE CONJUNCTION PREFIX
-1.045868	NOUN-POSSESSIVE CONJUNCTION PRONOUN
-1.045868	NOUN-POSSESSIVE CONJUNCTION VERB-INF
-0.6751547	NUMERAL CONJUNCTION PREFIX
-1.017577	PARTICIPLE CONJUNCTION NOUN-CONST
-1.017577	PARTICIPLE CONJUNCTION NOUN-DEF
-1.184171	PARTICIPLE CONJUNCTION NUMERAL
-0.5466888	PARTICIPLE CONJUNCTION PREFIX
-0.5394301	PARTICIPLE-DEF CONJUNCTION NOUN
-0.9209293	PARTICIPLE-DEF CONJUNCTION PREFIX
-0.9209293	PARTICIPLE-DEF CONJUNCTION PRONOUN
-1.808694	PREFIX CONJUNCTION ADJECTIVE
-1.230449	PREFIX CONJUNCTION ADVERB
-1.808694	PREFIX CONJUNCTION CM
-1.808694	PREFIX CONJUNCTION CONJUNCTION
-1.337805	PREFIX CONJUNCTION NEGATION
-1.179296	PREFIX CONJUNCTION NOUN
-1.337805	PREFIX CONJUNCTION NOUN-CONST
-0.90309	PREFIX CONJUNCTION NOUN-DEF
-1.355388	PREFIX CONJUNCTION NOUN-POSSESSIVE
-0.7718111	PREFIX CONJUNCTION PREFIX
-1.54772	PREFIX CONJUNCTION PREPOSITION
-1.230449	PREFIX CONJUNCTION PRONOUN
-1.593788	PREFIX CONJUNCTION PROPERNAME
-1.808694	PREFIX CONJUNCTION QUOT
-0.8547853	PREFIX CONJUNCTION VERB
-1.975287	PREFIX CONJUNCTION VERB-INF
-1.045868	PREPOSITION CONJUNCTION ADVERB
-0.8792747	PREPOSITION CONJUNCTION NOUN
-0.8792747	PREPOSITION CONJUNCTION PREFIX
-1.045868	PREPOSITION CONJUNCTION VERB
-1.045868	PREPOSITION CONJUNCTION VERB-INF
-0.9373702	PRONOUN CONJUNCTION ADJECTIVE
-1.152276	PRONOUN CONJUNCTION CONJUNCTION
-1.318869	PRONOUN CONJUNCTION NOUN
-0.6813874	PRONOUN CONJUNCTION PREFIX
-0.9373702	PRONOUN CONJUNCTION PREPOSITION
-1.152276	PRONOUN CONJUNCTION VERB
-1.184171	PROPERNAME CONJUNCTION NOUN-DEF
-0.8026716	PROPERNAME CONJUNCTION PREFIX
-1.184171	PROPERNAME CONJUNCTION PREPOSITION
-1.184171	PROPERNAME CONJUNCTION PROPERNAME
-1.184171	PROPERNAME CONJUNCTION VERB
-0.8026716	PROPERNAME CONJUNCTION VERB-INF
-0.2772147	QUANTIFIER CONJUNCTION PREFIX
-1.163967	QUOT CONJUNCTION CONJUNCTION
-1.163967	QUOT CONJUNCTION NOUN-DEF
-0.7824682	QUOT CONJUNCTION PREFIX
-0.9973741	QUOT CONJUNCTION QUOT
-0.7824682	QUOT CONJUNCTION VERB
-1.667034	VERB CONJUNCTION ADVERB
-1.667034	VERB CONJUNCTION CONJUNCTION
-1.667034	VERB CONJUNCTION EXISTENTIAL
-1.474702	VERB CONJUNCTION MODAL
-1.252853	VERB CONJUNCTION MW
-1.298611	VERB CONJUNCTION NOUN
-1.173672	VERB CONJUNCTION NOUN-CONST
-0.9306337	VERB CONJUNCTION NOUN-DEF
-1.667034	VERB CONJUNCTION NOUN-POSSESSIVE
-1.474702	VERB CONJUNCTION NUMERAL
-0.6730694	VERB CONJUNCTION PREFIX
-1.298611	VERB CONJUNCTION PREPOSITION
-1.173672	VERB CONJUNCTION PRONOUN
-1.298611	VERB CONJUNCTION PROPERNAME
-2.094601	VERB CONJUNCTION QUANTIFIER
-1.713102	VERB CONJUNCTION QUOT
-1.173672	VERB CONJUNCTION VERB
-1.667034	VERB CONJUNCTION VERB-INF
-1.239688	VERB-INF CONJUNCTION NOUN
-1.073095	VERB-INF CONJUNCTION NOUN-DEF
-1.073095	VERB-INF CONJUNCTION PREPOSITION
-0.8581889	VERB-INF CONJUNCTION PRONOUN
-0.812121	VERB-INF CONJUNCTION VERB-INF
-0.7448381	<s> COPULA PARTICIPLE
-0.5782447	<s> COPULA VERB
-0.9761847	ADJECTIVE COPULA NOUN
-1.142778	ADJECTIVE COPULA NOUN-CONST
-0.9761847	ADJECTIVE COPULA PREFIX
-0.9761847	ADJECTIVE COPULA VERB
-1.142778	ADJECTIVE COPULA VERB-INF
-0.8016323	ADJECTIVE-DEF COPULA ADJECTIVE
-1.421532	ADJECTIVE-DEF COPULA ADVERB
-1.421532	ADJECTIVE-DEF COPULA CONJUNCTION
-0.8016323	ADJECTIVE-DEF COPULA NOUN
-1.421532	ADJECTIVE-DEF COPULA NOUN-DEF
-0.9939646	ADJECTIVE-DEF COPULA PREFIX
-1.421532	ADJECTIVE-DEF COPULA PREPOSITION
-1.421532	ADJECTIVE-DEF COPULA PROPERNAME
-1.254938	ADJECTIVE-DEF COPULA VERB
-1.421532	ADJECTIVE-DEF COPULA VERB-INF
-1.017577	ADVERB COPULA NOUN
-0.8026716	ADVERB COPULA PREFIX
-1.184171	ADVERB COPULA PROPERNAME
-1.184171	ADVERB COPULA QUOT
-0.845098	CM COPULA ADJECTIVE
-1.423343	CM COPULA ADVERB
-1.162369	CM COPULA MODAL
-0.748188	CM COPULA NOUN
-0.9700368	CM COPULA NOUN-CONST
-1.423343	CM COPULA NOUN-DEF
-1.589936	CM COPULA NOUN-POSSESSIVE
-1.423343	CM COPULA NUMERAL
-1.423343	CM COPULA PREFIX
-1.589936	CM COPULA PREPOSITION
-1.423343	CM COPULA PRONOUN
-1.589936	CM COPULA QUANTIFIER
-1.208437	CM COPULA VERB
-0.6363401	CONJUNCTION COPULA ADJECTIVE
-0.851246	CONJUNCTION COPULA NOUN
-1.017839	CONJUNCTION COPULA VERB
-0.3188694	COPULA COPULA ADJECTIVE
-0.6532125	MODAL COPULA ADJECTIVE
-0.5282738	MODAL COPULA NOUN
-1.106519	MODAL COPULA NOUN-DEF
-0.8916126	MODAL COPULA VERB-INF
-1.017839	MW COPULA ADJECTIVE
-1.017839	MW COPULA MODAL
-1.017839	MW COPULA NOUN
-1.017839	MW COPULA NOUN-CONST
-1.017839	MW COPULA PREPOSITION
-0.6363401	MW COPULA VERB
-0.4771213	NEGATION COPULA ADJECTIVE
-0.8916126	NEGATION COPULA MODAL
-0.8455448	NEGATION COPULA NOUN
-0.8916126	NEGATION COPULA PREFIX
-1.166516	NOUN COPULA ADJECTIVE
-1.33311	NOUN COPULA ADJECTIVE-DEF
-0.5882717	NOUN COPULA NOUN
-1.33311	NOUN COPULA NOUN-DEF
-1.33311	NOUN COPULA PARTICIPLE
-1.166516	NOUN COPULA PREFIX
-1.166516	NOUN COPULA VERB
-0.6453589	NOUN-DEF COPULA ADJECTIVE
-1.596969	NOUN-DEF COPULA ADVERB
-1.978469	NOUN-DEF COPULA CM
-1.978469	NOUN-DEF COPULA CONJUNCTION
-1.550902	NOUN-DEF COPULA MODAL
-1.550902	NOUN-DEF COPULA MW
-0.8145013	NOUN-DEF COPULA NOUN
-1.340987	NOUN-DEF COPULA NOUN-CONST
-1.340987	NOUN-DEF COPULA NOUN-DEF
-1.340987	NOUN-DEF COPULA NUMERAL
-1.596969	NOUN-DEF COPULA PARTICIPLE
-0.9905925	NOUN-DEF COPULA PREFIX
-1.358569	NOUN-DEF COPULA PREPOSITION
-1.596969	NOUN-DEF COPULA PROPERNAME
-1.978469	NOUN-DEF COPULA QUOT
-1.182478	NOUN-DEF COPULA VERB
-1.596969	NOUN-DEF COPULA VERB-INF
-0.6643689	NOUN-POSSESSIVE COPULA ADJECTIVE
-0.8792747	NOUN-POSSESSIVE COPULA NOUN
-1.045868	NOUN-POSSESSIVE COPULA PARTICIPLE
-1.045868	NOUN-POSSESSIVE COPULA VERB-INF
-0.7165474	NUMERAL COPULA NOUN
-0.8831408	NUMERAL COPULA NOUN-DEF
-0.7201593	PREFIX COPULA ADJECTIVE
-1.599434	PREFIX COPULA ADVERB
-1.766027	PREFIX COPULA CM
-1.33846	PREFIX COPULA MODAL
-1.021189	PREFIX COPULA MW
-0.9242793	PREFIX COPULA NOUN
-1.146128	PREFIX COPULA PARTICIPLE
-1.599434	PREFIX COPULA PREFIX
-0.9700368	PREFIX COPULA PREPOSITION
-1.766027	PREFIX COPULA PRONOUN
-0.748188	PREFIX COPULA VERB
-0.7165474	PREPOSITION COPULA ADJECTIVE
-0.7165474	PREPOSITION COPULA NOUN
-0.8831408	PREPOSITION COPULA NOUN-DEF
-0.6368221	PRONOUN COPULA ADJECTIVE
-1.557751	PRONOUN COPULA ADVERB
-1.176252	PRONOUN COPULA MODAL
-1.176252	PRONOUN COPULA NOUN
-0.9378521	PRONOUN COPULA NOUN-CONST
-1.557751	PRONOUN COPULA NOUN-DEF
-1.391158	PRONOUN COPULA PARTICIPLE
-1.391158	PRONOUN COPULA PREFIX
-1.557751	PRONOUN COPULA PROPERNAME
-0.9378521	PRONOUN COPULA VERB
-1.557751	PRONOUN COPULA WPREFIX
-1.298404	PROPERNAME COPULA ADJECTIVE
-1.464997	PROPERNAME COPULA ADJECTIVE-CONST
-1.298404	PROPERNAME COPULA ADJECTIVE-DEF
-1.464997	PROPERNAME COPULA ADVERB
-1.298404	PROPERNAME COPULA CONJUNCTION
-1.464997	PROPERNAME COPULA MODAL
-0.845098	PROPERNAME COPULA NOUN
-1.03743	PROPERNAME COPULA NOUN-CONST
-1.083498	PROPERNAME COPULA NOUN-DEF
-1.298404	PROPERNAME COPULA PARTICIPLE
-1.298404	PROPERNAME COPULA PREFIX
-0.6751547	QUOT COPULA NOUN
-0.8417481	QUOT COPULA PREFIX
-0.8417481	QUOT COPULA VERB
-0.8831408	VERB COPULA NOUN
-0.8831408	VERB COPULA NOUN-DEF
-0.1139434	ADJECTIVE DASH ADJECTIVE
-0.9556915	ADJECTIVE DASH NOUN
-0.2384001	ADJECTIVE-CONST DASH NOUN
-0.6198993	ADJECTIVE-CONST DASH NOUN-DEF
-0.09691001	ADJECTIVE-DEF DASH ADJECTIVE
-0.8417481	ADJECTIVE-DEF DASH ADJECTIVE-DEF
-0.1923323	ADVERB DASH NUMERAL
-0.003315241	MW DASH MW
-0.2384001	NEGATION DASH ADJECTIVE
-0.4602489	NOUN DASH NOUN
-0.8417481	NOUN DASH NUMERAL
-1.308623	NOUN-CONST DASH ADJECTIVE
-0.2532572	NOUN-CONST DASH NOUN
-0.8377346	NOUN-CONST DASH NOUN-DEF
-1.093717	NOUN-CONST DASH NUMERAL
-1.475217	NOUN-CONST DASH PROPERNAME
-0.6868461	NOUN-DEF DASH ADJECTIVE
-0.5202528	NOUN-DEF DASH NOUN
-0.04575749	NUMERAL DASH NUMERAL
-1.627078	PREFIX DASH NOUN-CONST
-0.01447782	PREFIX DASH NUMERAL
-1.277215	PROPERNAME DASH MW
-1.443808	PROPERNAME DASH NUMERAL
-0.08354605	PROPERNAME DASH PROPERNAME
-0.2571245	WPREFIX DASH ADJECTIVE
-0.5929166	WPREFIX DASH NOUN
-1.513846	WPREFIX DASH NOUN-CONST
-1.513846	WPREFIX DASH NOUN-POSSESSIVE
-1.347253	WPREFIX DASH PARTICIPLE
-0.03476211	<s> DOT </s>
-0.001338351	ADJECTIVE DOT </s>
-0.002341216	ADJECTIVE-DEF DOT </s>
-0.003406249	ADVERB DOT </s>
-0.06230889	CONJUNCTION DOT </s>
-0.003516574	MW DOT </s>
-0.113151	NEGATION DOT </s>
-0.0009309639	NOUN DOT </s>
-0.000872954	NOUN-DEF DOT </s>
-0.004409119	NOUN-POSSESSIVE DOT </s>
-0.04936414	NUMBER-EXPRESSION DOT </s>
-0.004454341	NUMERAL DOT </s>
-0.01258913	PARTICIPLE DOT </s>
-0.03778856	PARTICIPLE-DEF DOT </s>
-0.04936414	PERC DOT </s>
-0.006248949	PREPOSITION DOT </s>
-0.008433168	PRONOUN DOT </s>
-0.001489862	PROPERNAME DOT </s>
-0.01258913	PROPERNAME-DEF DOT </s>
-0.06694679	QUANTIFIER DOT </s>
-0.002944381	QUOT DOT </s>
-0.006733383	RRB DOT </s>
-0.005677133	VERB DOT </s>
-0.01472326	VERB-INF DOT </s>
-1.298404	<s> EXISTENTIAL CONJUNCTION
-1.083498	<s> EXISTENTIAL MW
-0.509306	<s> EXISTENTIAL NOUN
-0.8275154	<s> EXISTENTIAL PREFIX
-0.8275154	<s> EXISTENTIAL PREPOSITION
-1.464997	<s> EXISTENTIAL QUANTIFIER
-0.5407181	ADJECTIVE EXISTENTIAL NOUN
-0.4438081	ADJECTIVE-DEF EXISTENTIAL CONJUNCTION
-0.4438081	ADJECTIVE-DEF EXISTENTIAL NOUN
-0.7448381	ADVERB EXISTENTIAL ADVERB
-0.5782447	ADVERB EXISTENTIAL NOUN
-1.090128	CM EXISTENTIAL ADVERB
-1.256721	CM EXISTENTIAL MW
-0.6192394	CM EXISTENTIAL NOUN
-0.6192394	CM EXISTENTIAL PREFIX
-0.8752223	CM EXISTENTIAL PREPOSITION
-1.090128	CM EXISTENTIAL QUANTIFIER
-1.180305	CONJUNCTION EXISTENTIAL ADVERB
-1.346898	CONJUNCTION EXISTENTIAL CONJUNCTION
-0.4637573	CONJUNCTION EXISTENTIAL NOUN
-0.919331	CONJUNCTION EXISTENTIAL PREFIX
-0.5509075	CONJUNCTION EXISTENTIAL PREPOSITION
-0.453306	MW EXISTENTIAL NOUN
-0.3679768	NEGATION EXISTENTIAL NOUN
-0.9878761	NEGATION EXISTENTIAL QUANTIFIER
-0.7959906	NOUN EXISTENTIAL NOUN-CONST
-0.7959906	NOUN EXISTENTIAL PREFIX
-0.7959906	NOUN EXISTENTIAL PREPOSITION
-0.30103	NOUN-DEF EXISTENTIAL NOUN
-0.9304273	NOUN-DEF EXISTENTIAL NOUN-CONST
-1.097021	NOUN-DEF EXISTENTIAL NUMERAL
-1.328367	PREFIX EXISTENTIAL ADVERB
-0.8574786	PREFIX EXISTENTIAL NOUN
-1.494961	PREFIX EXISTENTIAL NOUN-CONST
-0.7501225	PREFIX EXISTENTIAL PREFIX
-0.3744589	PREFIX EXISTENTIAL PREPOSITION
-1.494961	PREFIX EXISTENTIAL PRONOUN
-1.494961	PREFIX EXISTENTIAL VERB
-0.2772147	PREPOSITION EXISTENTIAL NOUN
-0.1760913	PROPERNAME EXISTENTIAL NOUN
-0.5782447	QUOT EXISTENTIAL NOUN
-0.5782447	QUOT EXISTENTIAL QUANTIFIER
-1.298404	<s> INTERROGATIVE NOUN
-1.298404	<s> INTERROGATIVE NOUN-CONST
-1.298404	<s> INTERROGATIVE NOUN-DEF
-0.3928004	<s> INTERROGATIVE PREFIX
-1.083498	<s> INTERROGATIVE PRONOUN
-1.464997	<s> INTERROGATIVE QM
-1.03743	<s> INTERROGATIVE VERB
-1.072197	CM INTERROGATIVE ADVERB
-1.072197	CM INTERROGATIVE NOUN-CONST
-1.072197	CM INTERROGATIVE PARTICIPLE
-1.072197	CM INTERROGATIVE PREFIX
-0.6906978	CM INTERROGATIVE VERB
-0.6293973	CONJUNCTION INTERROGATIVE ADVERB
-0.6293973	CONJUNCTION INTERROGATIVE PRONOUN
-0.4438081	NOUN-DEF INTERROGATIVE VERB-INF
-1.273112	PREFIX INTERROGATIVE NOUN-CONST
-1.273112	PREFIX INTERROGATIVE NOUN-DEF
-0.2272438	PREFIX INTERROGATIVE PREFIX
-0.8916126	PREFIX INTERROGATIVE VERB
-1.273112	PREFIX INTERROGATIVE VERB-INF
-0.8417481	PREPOSITION INTERROGATIVE ADJECTIVE
-0.4602489	PREPOSITION INTERROGATIVE PREFIX
-0.8417481	PREPOSITION INTERROGATIVE PRONOUN
-0.05115252	QUANTIFIER INTERROGATIVE PREFIX
-0.5782447	QUOT INTERROGATIVE PREFIX
-1.017839	VERB INTERROGATIVE PREFIX
-0.6363401	VERB INTERROGATIVE VERB
-0.5782447	VERB-INF INTERROGATIVE VERB
-0.5202528	<s> LRB PROPERNAME
-1.045868	ADJECTIVE LRB ADVERB
-0.6643689	ADJECTIVE LRB NOUN
-1.045868	ADJECTIVE LRB NUMBER-EXPRESSION
-0.8792747	ADJECTIVE LRB PREFIX
-0.7165474	ADJECTIVE-DEF LRB NUMERAL
-0.8831408	ADJECTIVE-DEF LRB PREPOSITION
-0.7165474	ADJECTIVE-DEF LRB PROPERNAME
-0.1427781	CLN LRB NOUN
-0.5407181	MW LRB NUMBER-EXPRESSION
-0.60206	NOUN LRB NOUN
-1.346898	NOUN LRB NOUN-DEF
-0.9653988	NOUN LRB NUMERAL
-1.180305	NOUN LRB PREFIX
-1.346898	NOUN LRB PREPOSITION
-0.7269987	NOUN LRB PROPERNAME-DEF
-1.221959	NOUN-DEF LRB NOUN
-1.055366	NOUN-DEF LRB NOUN-CONST
-1.055366	NOUN-DEF LRB NOUN-DEF
-0.8404601	NOUN-DEF LRB NUMERAL
-1.221959	NOUN-DEF LRB PREFIX
-1.221959	NOUN-DEF LRB PREPOSITION
-0.8404601	NOUN-DEF LRB PROPERNAME
-0.3188694	NOUN-POSSESSIVE LRB PROPERNAME
-0.3188694	NUMERAL LRB NUMBER-EXPRESSION
-0.1427781	PREPOSITION LRB NUMERAL
-1.213522	PROPERNAME LRB ADJECTIVE
-1.474495	PROPERNAME LRB MW
-1.641089	PROPERNAME LRB NOUN
-1.641089	PROPERNAME LRB NUMBER-EXPRESSION
-0.544068	PROPERNAME LRB NUMERAL
-1.259589	PROPERNAME LRB PREFIX
-1.259589	PROPERNAME LRB PREPOSITION
-0.4771213	PROPERNAME LRB PROPERNAME
-0.6293973	QUOT LRB NUMERAL
-0.6293973	QUOT LRB PROPERNAME
-1.421532	<s> MODAL COPULA
-1.254938	<s> MODAL PREFIX
-0.1326256	<s> MODAL VERB-INF
-0.1139434	ADJECTIVE MODAL VERB-INF
-1.072197	ADVERB MODAL PROPERNAME
-0.1512677	ADVERB MODAL VERB-INF
-1.266219	CM MODAL ADVERB
-1.051314	CM MODAL COPULA
-1.051314	CM MODAL NOUN
-1.432813	CM MODAL NOUN-DEF
-1.005246	CM MODAL PREFIX
-1.432813	CM MODAL PRONOUN
-0.3606157	CM MODAL VERB-INF
-0.9878761	CONJUNCTION MODAL PREFIX
-0.146128	CONJUNCTION MODAL VERB-INF
-1.360262	COPULA MODAL ADVERB
-1.193669	COPULA MODAL COPULA
-1.193669	COPULA MODAL PREFIX
-0.1383027	COPULA MODAL VERB-INF
-0.1592189	MW MODAL VERB-INF
-0.9304273	NEGATION MODAL COPULA
-1.097021	NEGATION MODAL PREFIX
-0.2552725	NEGATION MODAL VERB-INF
-0.3741247	NOUN MODAL VERB-INF
-0.9456599	NOUN-DEF MODAL COPULA
-1.373227	NOUN-DEF MODAL NOUN
-1.373227	NOUN-DEF MODAL PREFIX
-0.1512677	NOUN-DEF MODAL VERB-INF
-1.277215	PREFIX MODAL COPULA
-1.443808	PREFIX MODAL PREFIX
-0.139662	PREFIX MODAL VERB-INF
-0.06694679	PREPOSITION MODAL VERB-INF
-1.256721	PRONOUN MODAL COPULA
-0.09275405	PRONOUN MODAL VERB-INF
-0.1383027	PROPERNAME MODAL VERB-INF
-0.2772147	QUOT MODAL VERB-INF
-0.7781513	<s> MW DASH
-0.0984864	<s> MW MW
-1.600128	<s> MW PREFIX
-0.559308	ADJECTIVE MW DASH
-0.161368	ADJECTIVE MW MW
-0.4602489	ADJECTIVE-DEF MW DASH
-0.414181	ADJECTIVE-DEF MW MW
-1.106519	ADVERB MW DASH
-0.1091445	ADVERB MW MW
-1.106519	ADVERB MW PREFIX
-0.3188694	CLN MW MW
-0.916454	CM MW DASH
-0.1091445	CM MW MW
-1.041393	CM MW PREFIX
-0.876579	CONJUNCTION MW DASH
-0.08218676	CONJUNCTION MW MW
-0.0234811	COPULA MW MW
-1.423246	DASH MW ADJECTIVE
-1.883495	DASH MW ADJECTIVE-DEF
-2.098401	DASH MW ADVERB
-0.7700334	DASH MW CM
-2.098401	DASH MW CONJUNCTION
-2.264994	DASH MW COPULA
-1.344065	DASH MW DASH
-1.080823	DASH MW DOT
-1.423246	DASH MW MW
-1.247155	DASH MW NOUN
-1.219126	DASH MW NOUN-CONST
-1.277118	DASH MW NOUN-DEF
-1.837427	DASH MW NOUN-POSSESSIVE
-2.264994	DASH MW NUMERAL
-0.8211859	DASH MW PREFIX
-1.277118	DASH MW PREPOSITION
-1.645095	DASH MW PROPERNAME
-2.264994	DASH MW QUANTIFIER
-2.098401	DASH MW QUOT
-2.264994	DASH MW SCLN
-1.025306	DASH MW VERB
-1.837427	DASH MW VERB-INF
-0.5782447	EXISTENTIAL MW CONJUNCTION
-0.7448381	EXISTENTIAL MW MW
-0.5782447	EXISTENTIAL MW PREFIX
-0.06694679	LRB MW MW
-1.499121	MW MW ADJECTIVE
-1.668872	MW MW ADJECTIVE-DEF
-1.72957	MW MW ADVERB
-2.234866	MW MW CLN
-0.7729211	MW MW CM
-1.884472	MW MW CONJUNCTION
-1.916656	MW MW COPULA
-2.444781	MW MW DASH
-1.0306	MW MW DOT
-2.444781	MW MW EXISTENTIAL
-2.490849	MW MW LRB
-2.444781	MW MW MODAL
-1.111522	MW MW MW
-2.0306	MW MW NEGATION
-1.462398	MW MW NOUN
-1.650388	MW MW NOUN-CONST
-1.615626	MW MW NOUN-DEF
-2.705755	MW MW NOUN-POSSESSIVE
-1.82648	MW MW NUMERAL
-2.12751	MW MW PARTICIPLE
-0.7681487	MW MW PREFIX
-1.191751	MW MW PREPOSITION
-1.688177	MW MW PRONOUN
-1.884472	MW MW PROPERNAME
-2.872348	MW MW PROPERNAME-DEF
-2.705755	MW MW QM
-2.252449	MW MW QUANTIFIER
-1.499121	MW MW QUOT
-2.705755	MW MW RRB
-2.872348	MW MW TITLE
-1.071558	MW MW VERB
-1.668872	MW MW VERB-INF
-0.1592189	NEGATION MW MW
-0.7700334	NOUN MW DASH
-0.1010266	NOUN MW MW
-1.566024	NOUN MW PREFIX
-0.60206	NOUN-CONST MW DASH
-0.1346986	NOUN-CONST MW MW
-0.7900504	NOUN-DEF MW DASH
-0.1058037	NOUN-DEF MW MW
-0.5016416	NOUN-POSSESSIVE MW DASH
-0.2456588	NOUN-POSSESSIVE MW MW
-0.7364003	NUMERAL MW DASH
-0.146128	NUMERAL MW MW
-0.1383027	PARTICIPLE MW MW
-0.1427781	PARTICIPLE-CONST MW MW
-0.7448381	PARTICIPLE-DEF MW DASH
-0.1249387	PARTICIPLE-DEF MW MW
-0.5976359	PREFIX MW DASH
-0.138488	PREFIX MW MW
-2.308616	PREFIX MW NOUN
-2.308616	PREFIX MW PREFIX
-0.7367586	PREPOSITION MW DASH
-0.1060534	PREPOSITION MW MW
-0.7390025	PRONOUN MW DASH
-0.1326256	PRONOUN MW MW
-0.5910646	PROPERNAME MW DASH
-0.1597008	PROPERNAME MW MW
-0.04575749	PROPERNAME-DEF MW MW
-0.1427781	QUANTIFIER MW MW
-0.9226469	QUOT MW DASH
-0.06445799	QUOT MW MW
-0.1923323	SCLN MW MW
-0.1427781	TITLE MW MW
-0.90309	VERB MW DASH
-0.08464414	VERB MW MW
-1.657426	VERB MW PREFIX
-0.8581889	VERB-INF MW DASH
-0.07572071	VERB-INF MW MW
-0.6356299	<s> NEGATION ADVERB
-1.273112	<s> NEGATION COPULA
-1.106519	<s> NEGATION EXISTENTIAL
-1.273112	<s> NEGATION PRONOUN
-0.8916126	<s> NEGATION VERB
-0.7959906	ADJECTIVE-DEF NEGATION MODAL
-0.3684235	ADJECTIVE-DEF NEGATION VERB
-1.067394	ADVERB NEGATION ADJECTIVE
-0.8750613	ADVERB NEGATION COPULA
-1.328367	ADVERB NEGATION PRONOUN
-0.2730013	ADVERB NEGATION VERB
-1.494961	ADVERB NEGATION VERB-INF
-1.40995	CM NEGATION ADJECTIVE
-1.243356	CM NEGATION COPULA
-1.028451	CM NEGATION PREFIX
-1.40995	CM NEGATION PRONOUN
-0.3377528	CM NEGATION VERB
-1.308623	CONJUNCTION NEGATION ADVERB
-1.475217	CONJUNCTION NEGATION CONJUNCTION
-1.475217	CONJUNCTION NEGATION COPULA
-1.308623	CONJUNCTION NEGATION MODAL
-1.04765	CONJUNCTION NEGATION PREFIX
-1.475217	CONJUNCTION NEGATION PREPOSITION
-1.475217	CONJUNCTION NEGATION PRONOUN
-1.308623	CONJUNCTION NEGATION QUANTIFIER
-0.5195251	CONJUNCTION NEGATION VERB
-0.04575749	MW NEGATION VERB
-0.49485	NOUN NEGATION ADJECTIVE
-1.073095	NOUN NEGATION COPULA
-1.073095	NOUN NEGATION PARTICIPLE
-0.6022061	NOUN NEGATION VERB
-1.421532	NOUN-DEF NEGATION ADVERB
-1.421532	NOUN-DEF NEGATION COPULA
-1.254938	NOUN-DEF NEGATION DASH
-1.254938	NOUN-DEF NEGATION MW
-0.1818436	NOUN-DEF NEGATION VERB
-0.6868461	NOUN-POSSESSIVE NEGATION ADVERB
-0.6868461	NOUN-POSSESSIVE NEGATION COPULA
-0.6868461	NOUN-POSSESSIVE NEGATION VERB
-1.588969	PREFIX NEGATION ADJECTIVE
-1.327995	PREFIX NEGATION ADVERB
-1.374063	PREFIX NEGATION COPULA
-1.135663	PREFIX NEGATION EXISTENTIAL
-1.755562	PREFIX NEGATION MODAL
-1.588969	PREFIX NEGATION NOUN
-1.327995	PREFIX NEGATION PREFIX
-1.588969	PREFIX NEGATION PRONOUN
-1.588969	PREFIX NEGATION QUANTIFIER
-0.3823349	PREFIX NEGATION VERB
-0.9138138	PREFIX NEGATION VERB-INF
-0.7448381	PREPOSITION NEGATION NOUN
-0.3633389	PREPOSITION NEGATION VERB
-1.346898	PRONOUN NEGATION ADVERB
-1.346898	PRONOUN NEGATION COPULA
-0.9653988	PRONOUN NEGATION MODAL
-1.346898	PRONOUN NEGATION NOUN-DEF
-1.346898	PRONOUN NEGATION PARTICIPLE
-0.3590219	PRONOUN NEGATION VERB
-1.045868	PROPERNAME NEGATION MODAL
-0.09017663	PROPERNAME NEGATION VERB
-0.1427781	QM NEGATION DOT
-0.1427781	QUANTIFIER NEGATION VERB
-0.152276	QUOT NEGATION VERB
-0.3053469	VERB NEGATION ADVERB
-0.4748534	<s> NOUN ADJECTIVE
-1.695214	<s> NOUN ADVERB
-1.502882	<s> NOUN CLN
-1.741282	<s> NOUN CM
-2.122782	<s> NOUN CONJUNCTION
-2.122782	<s> NOUN COPULA
-1.695214	<s> NOUN MW
-1.956188	<s> NOUN NEGATION
-1.695214	<s> NOUN NOUN
-1.485299	<s> NOUN NUMERAL
-1.695214	<s> NOUN PARTICIPLE-DEF
-0.9588141	<s> NOUN PREFIX
-1.326791	<s> NOUN PREPOSITION
-0.8186353	<s> NOUN PRONOUN
-1.502882	<s> NOUN PROPERNAME
-2.122782	<s> NOUN QUANTIFIER
-1.239641	<s> NOUN VERB
-0.544068	ADJECTIVE NOUN ADJECTIVE
-1.163967	ADJECTIVE NOUN CM
-0.9973741	ADJECTIVE NOUN NUMERAL
-0.9973741	ADJECTIVE NOUN PREPOSITION
-1.221959	ADJECTIVE-CONST NOUN ADJECTIVE
-0.5844774	ADJECTIVE-CONST NOUN CM
-1.055366	ADJECTIVE-CONST NOUN DOT
-0.8404601	ADJECTIVE-CONST NOUN PREFIX
-1.221959	ADJECTIVE-CONST NOUN PREPOSITION
-1.221959	ADJECTIVE-CONST NOUN QUOT
-0.8831408	ADJECTIVE-DEF NOUN ADJECTIVE
-0.5016416	ADJECTIVE-DEF NOUN CM
-0.7165474	ADJECTIVE-DEF NOUN PREFIX
-0.7201593	ADVERB NOUN ADJECTIVE
-1.384528	ADVERB NOUN CM
-1.766027	ADVERB NOUN DOT
-1.021189	ADVERB NOUN NUMERAL
-1.599434	ADVERB NOUN PARTICIPLE
-0.4618813	ADVERB NOUN PREFIX
-0.845098	ADVERB NOUN PREPOSITION
-1.766027	ADVERB NOUN RRB
-0.9209293	CLN NOUN ADJECTIVE
-0.5394301	CLN NOUN CM
-0.9209293	CLN NOUN NUMERAL
-0.7754621	CM NOUN ADJECTIVE
-2.048574	CM NOUN ADVERB
-0.6883119	CM NOUN CM
-1.411092	CM NOUN CONJUNCTION
-2.048574	CM NOUN LRB
-1.881981	CM NOUN NOUN-CONST
-1.428675	CM NOUN NUMERAL
-1.667075	CM NOUN PARTICIPLE-DEF
-0.5166298	CM NOUN PREFIX
-1.411092	CM NOUN PREPOSITION
-1.621007	CM NOUN PROPERNAME
-2.048574	CM NOUN QUOT
-1.881981	CM NOUN VERB
-2.048574	CM NOUN VERB-INF
-2.048574	CM NOUN WPREFIX
-0.4325391	CONJUNCTION NOUN ADJECTIVE
-1.887071	CONJUNCTION NOUN ADVERB
-1.142233	CONJUNCTION NOUN CM
-1.459504	CONJUNCTION NOUN DOT
-1.505572	CONJUNCTION NOUN NEGATION
-1.720478	CONJUNCTION NOUN NUMERAL
-0.7231037	CONJUNCTION NOUN PREFIX
-1.505572	CONJUNCTION NOUN PREPOSITION
-1.142233	CONJUNCTION NOUN PRONOUN
-1.249589	CONJUNCTION NOUN VERB
-0.6100289	COPULA NOUN ADJECTIVE
-1.883141	COPULA NOUN ADJECTIVE-DEF
-0.9274493	COPULA NOUN CM
-1.08715	COPULA NOUN DOT
-1.501642	COPULA NOUN NOUN-CONST
-1.883141	COPULA NOUN NUMERAL
-0.5789947	COPULA NOUN PREFIX
-1	COPULA NOUN PREPOSITION
-1.883141	COPULA NOUN QUOT
-1.167819	DASH NOUN ADJECTIVE
-0.5936268	DASH NOUN CM
-1.549318	DASH NOUN DASH
-0.9118363	DASH NOUN DOT
-0.5936268	DASH NOUN PREFIX
-1.382725	DASH NOUN PREPOSITION
-1.382725	DASH NOUN VERB
-0.4607309	EXISTENTIAL NOUN ADJECTIVE
-1.352343	EXISTENTIAL NOUN CM
-1.352343	EXISTENTIAL NOUN DOT
-1.733843	EXISTENTIAL NOUN MW
-0.5496719	EXISTENTIAL NOUN PREFIX
-1.352343	EXISTENTIAL NOUN PREPOSITION
-1.567249	EXISTENTIAL NOUN SCLN
-1.733843	EXISTENTIAL NOUN VERB
-1.733843	EXISTENTIAL NOUN VERB-INF
-0.7448381	INTERROGATIVE NOUN ADJECTIVE
-0.5782447	INTERROGATIVE NOUN VERB
-0.8026716	LRB NOUN ADJECTIVE
-1.184171	LRB NOUN CM
-1.184171	LRB NOUN NUMERAL
-1.184171	LRB NOUN PREFIX
-0.4393327	LRB NOUN RRB
-0.6293973	MODAL NOUN VERB-INF
-0.4616091	MW NOUN ADJECTIVE
-1.582111	MW NOUN CM
-1.415517	MW NOUN DOT
-0.6611814	MW NOUN PREFIX
-0.8372727	MW NOUN PREPOSITION
-1.415517	MW NOUN PRONOUN
-0.7165474	NEGATION NOUN ADJECTIVE
-0.5016416	NEGATION NOUN PREFIX
-0.7337321	NOUN NOUN ADJECTIVE
-1.654661	NOUN NOUN ADJECTIVE-DEF
-1.488068	NOUN NOUN CM
-1.488068	NOUN NOUN DOT
-1.654661	NOUN NOUN NOUN
-1.654661	NOUN NOUN NOUN-CONST
-0.8586708	NOUN NOUN NUMERAL
-0.5341598	NOUN NOUN PREFIX
-1.227094	NOUN NOUN PREPOSITION
-1.488068	NOUN NOUN VERB
-0.6680542	NOUN-CONST NOUN ADJECTIVE
-2.555397	NOUN-CONST NOUN ADJECTIVE-CONST
-2.340491	NOUN-CONST NOUN ADJECTIVE-DEF
-2.102091	NOUN-CONST NOUN ADVERB
-2.555397	NOUN-CONST NOUN CLN
-0.9559625	NOUN-CONST NOUN CM
-2.294423	NOUN-CONST NOUN CONJUNCTION
-2.102091	NOUN-CONST NOUN COPULA
-2.72199	NOUN-CONST NOUN DASH
-0.8674046	NOUN-CONST NOUN DOT
-2.555397	NOUN-CONST NOUN EXISTENTIAL
-2.102091	NOUN-CONST NOUN LRB
-2.294423	NOUN-CONST NOUN MW
-2.72199	NOUN-CONST NOUN NEGATION
-2.72199	NOUN-CONST NOUN NOUN
-2.294423	NOUN-CONST NOUN NOUN-CONST
-2.340491	NOUN-CONST NOUN NOUN-DEF
-1.838849	NOUN-CONST NOUN NUMERAL
-1.704151	NOUN-CONST NOUN PARTICIPLE
-2.294423	NOUN-CONST NOUN PARTICIPLE-DEF
-0.5559593	NOUN-CONST NOUN PREFIX
-1.208144	NOUN-CONST NOUN PREPOSITION
-1.766298	NOUN-CONST NOUN PRONOUN
-2.340491	NOUN-CONST NOUN PROPERNAME
-1.838849	NOUN-CONST NOUN QUOT
-2.72199	NOUN-CONST NOUN RRB
-2.72199	NOUN-CONST NOUN SCLN
-1.448878	NOUN-CONST NOUN VERB
-2.72199	NOUN-CONST NOUN WPREFIX
-0.4065402	NOUN-DEF NOUN ADJECTIVE
-1.549318	NOUN-DEF NOUN MW
-1.549318	NOUN-DEF NOUN NUMERAL
-0.7533277	NOUN-DEF NOUN PREFIX
-0.9294189	NOUN-DEF NOUN PREPOSITION
-1.549318	NOUN-DEF NOUN VERB
-1.382725	NOUN-DEF NOUN VERB-INF
-0.3881802	NOUN-POSSESSIVE NOUN ADJECTIVE
-1.184171	NOUN-POSSESSIVE NOUN MW
-0.5642715	NOUN-POSSESSIVE NOUN PREFIX
-1.017577	NOUN-POSSESSIVE NOUN PREPOSITION
-1.191265	NUMERAL NOUN ADJECTIVE
-2.510134	NUMERAL NOUN ADJECTIVE-DEF
-1.413113	NUMERAL NOUN ADVERB
-1.668386	NUMERAL NOUN APOS
-1.890235	NUMERAL NOUN CLN
-0.7493078	NUMERAL NOUN CM
-2.510134	NUMERAL NOUN CONJUNCTION
-2.510134	NUMERAL NOUN COPULA
-0.7239032	NUMERAL NOUN DOT
-1.668386	NUMERAL NOUN LRB
-1.714143	NUMERAL NOUN MW
-1.890235	NUMERAL NOUN NOUN
-2.082567	NUMERAL NOUN NOUN-CONST
-1.890235	NUMERAL NOUN NUMERAL
-2.128635	NUMERAL NOUN PARTICIPLE
-2.343541	NUMERAL NOUN PARTICIPLE-DEF
-0.6471966	NUMERAL NOUN PREFIX
-1.149872	NUMERAL NOUN PREPOSITION
-2.510134	NUMERAL NOUN PROPERNAME
-2.510134	NUMERAL NOUN QUANTIFIER
-2.510134	NUMERAL NOUN QUOT
-1.464266	NUMERAL NOUN RRB
-2.343541	NUMERAL NOUN SCLN
-1.464266	NUMERAL NOUN VERB
-0.6139592	PARTICIPLE NOUN ADJECTIVE
-1.243356	PARTICIPLE NOUN CM
-1.028451	PARTICIPLE NOUN DOT
-0.6651117	PARTICIPLE NOUN PREFIX
-0.7724679	PARTICIPLE NOUN PREPOSITION
-0.8792747	PARTICIPLE-DEF NOUN ADJECTIVE
-1.045868	PARTICIPLE-DEF NOUN DOT
-0.6643689	PARTICIPLE-DEF NOUN PREFIX
-1.045868	PARTICIPLE-DEF NOUN PREPOSITION
-0.5874687	PREFIX NOUN ADJECTIVE
-2.919679	PREFIX NOUN ADJECTIVE-CONST
-2.658705	PREFIX NOUN ADJECTIVE-DEF
-2.130581	PREFIX NOUN ADVERB
-2.341434	PREFIX NOUN CLN
-1.107804	PREFIX NOUN CM
-1.943495	PREFIX NOUN CONJUNCTION
-2.341434	PREFIX NOUN COPULA
-3.086273	PREFIX NOUN DASH
-1.10151	PREFIX NOUN DOT
-3.086273	PREFIX NOUN EXISTENTIAL
-2.658705	PREFIX NOUN LRB
-2.130581	PREFIX NOUN MW
-2.341434	PREFIX NOUN NEGATION
-1.739375	PREFIX NOUN NOUN
-2.098397	PREFIX NOUN NOUN-CONST
-2.014076	PREFIX NOUN NOUN-DEF
-3.086273	PREFIX NOUN NOUN-POSSESSIVE
-2.658705	PREFIX NOUN NUMBER-EXPRESSION
-1.459195	PREFIX NOUN NUMERAL
-1.829551	PREFIX NOUN PARTICIPLE
-2.098397	PREFIX NOUN PARTICIPLE-DEF
-0.6870173	PREFIX NOUN PREFIX
-1.054193	PREFIX NOUN PREPOSITION
-1.215141	PREFIX NOUN PRONOUN
-1.943495	PREFIX NOUN PROPERNAME
-2.466373	PREFIX NOUN PROPERNAME-DEF
-3.086273	PREFIX NOUN QM
-3.086273	PREFIX NOUN QUANTIFIER
-1.902102	PREFIX NOUN QUOT
-2.290282	PREFIX NOUN RRB
-2.203132	PREFIX NOUN SCLN
-1.536954	PREFIX NOUN VERB
-2.130581	PREFIX NOUN VERB-INF
-2.466373	PREFIX NOUN WPREFIX
-0.5149757	PREPOSITION NOUN ADJECTIVE
-2.191608	PREPOSITION NOUN ADJECTIVE-DEF
-1.823184	PREPOSITION NOUN ADVERB
-2.619175	PREPOSITION NOUN CLN
-1.105329	PREPOSITION NOUN CM
-1.823184	PREPOSITION NOUN CONJUNCTION
-2.237676	PREPOSITION NOUN COPULA
-1.133974	PREPOSITION NOUN DOT
-2.452582	PREPOSITION NOUN LRB
-2.619175	PREPOSITION NOUN MW
-2.452582	PREPOSITION NOUN NEGATION
-2.191608	PREPOSITION NOUN NOUN
-2.237676	PREPOSITION NOUN NOUN-DEF
-1.999276	PREPOSITION NOUN NUMERAL
-1.663484	PREPOSITION NOUN PARTICIPLE
-2.191608	PREPOSITION NOUN PARTICIPLE-DEF
-0.6071651	PREPOSITION NOUN PREFIX
-1.061423	PREPOSITION NOUN PREPOSITION
-1.573307	PREPOSITION NOUN PRONOUN
-2.237676	PREPOSITION NOUN PROPERNAME
-2.619175	PREPOSITION NOUN QM
-1.999276	PREPOSITION NOUN QUOT
-1.698246	PREPOSITION NOUN VERB
-1.981693	PREPOSITION NOUN VERB-INF
-2.452582	PREPOSITION NOUN WPREFIX
-0.6166187	PRONOUN NOUN ADJECTIVE
-1.800789	PRONOUN NOUN ADVERB
-0.8798602	PRONOUN NOUN CM
-1.800789	PRONOUN NOUN CONJUNCTION
-1.055951	PRONOUN NOUN DOT
-1.800789	PRONOUN NOUN NOUN
-1.41929	PRONOUN NOUN NUMERAL
-0.7037689	PRONOUN NOUN PREFIX
-1.055951	PRONOUN NOUN PREPOSITION
-1.800789	PRONOUN NOUN QUOT
-1.373222	PRONOUN NOUN VERB
-1.800789	PRONOUN NOUN VERB-INF
-1.800789	PRONOUN NOUN WPREFIX
-0.7953307	PROPERNAME NOUN ADJECTIVE
-1.432813	PROPERNAME NOUN NOUN-CONST
-1.051314	PROPERNAME NOUN NUMERAL
-0.3357921	PROPERNAME NOUN PREFIX
-1.432813	PROPERNAME NOUN PREPOSITION
-0.3188694	PROPERNAME-DEF NOUN ADJECTIVE
-0.7579479	QUANTIFIER NOUN ADJECTIVE
-1.514552	QUANTIFIER NOUN ADVERB
-1.100371	QUANTIFIER NOUN CM
-1.775525	QUANTIFIER NOUN CONJUNCTION
-1.942119	QUANTIFIER NOUN COPULA
-1.100371	QUANTIFIER NOUN DOT
-1.775525	QUANTIFIER NOUN PARTICIPLE
-1.775525	QUANTIFIER NOUN PARTICIPLE-DEF
-0.6532125	QUANTIFIER NOUN PREFIX
-1.021189	QUANTIFIER NOUN PREPOSITION
-1.942119	QUANTIFIER NOUN QUOT
-1.100371	QUANTIFIER NOUN VERB
-1.100371	QUANTIFIER NOUN VERB-INF
-0.6931404	QUOT NOUN ADJECTIVE
-1.544387	QUOT NOUN ADJECTIVE-DEF
-1.71098	QUOT NOUN CM
-1.71098	QUOT NOUN COPULA
-1.283413	QUOT NOUN NUMERAL
-1.71098	QUOT NOUN PARTICIPLE
-0.9149892	QUOT NOUN PREFIX
-1.073498	QUOT NOUN PREPOSITION
-0.4542584	QUOT NOUN QUOT
-0.4438081	RRB NOUN PREFIX
-0.6198993	SCLN NOUN ADJECTIVE
-0.6198993	SCLN NOUN PREFIX
-0.6198993	SCLN NOUN PREPOSITION
-0.5447347	VERB NOUN ADJECTIVE
-2.354966	VERB NOUN ADVERB
-1.309098	VERB NOUN CM
-1.717484	VERB NOUN CONJUNCTION
-1.257945	VERB NOUN DOT
-2.354966	VERB NOUN LRB
-1.973467	VERB NOUN MW
-2.188372	VERB NOUN NOUN
-2.354966	VERB NOUN NOUN-CONST
-1.973467	VERB NOUN NUMERAL
-1.973467	VERB NOUN PARTICIPLE
-0.535494	VERB NOUN PREFIX
-0.8411198	VERB NOUN PREPOSITION
-1.717484	VERB NOUN PRONOUN
-2.354966	VERB NOUN PROPERNAME
-2.354966	VERB NOUN QUANTIFIER
-2.354966	VERB NOUN QUOT
-2.188372	VERB NOUN VERB
-1.927399	VERB NOUN VERB-INF
-2.354966	VERB NOUN WPREFIX
-0.5199738	VERB-INF NOUN ADJECTIVE
-1.848341	VERB-INF NOUN ADVERB
-1.173186	VERB-INF NOUN CM
-1.848341	VERB-INF NOUN CONJUNCTION
-1.094005	VERB-INF NOUN DOT
-1.848341	VERB-INF NOUN MW
-2.014934	VERB-INF NOUN NUMERAL
-1.848341	VERB-INF NOUN PARTICIPLE
-1.848341	VERB-INF NOUN PARTICIPLE-DEF
-0.6680363	VERB-INF NOUN PREFIX
-0.9179137	VERB-INF NOUN PREPOSITION
-1.173186	VERB-INF NOUN PRONOUN
-1.53468	<s> NOUN-CONST MW
-0.8832557	<s> NOUN-CONST NOUN
-0.9324738	<s> NOUN-CONST NOUN-CONST
-0.2890211	<s> NOUN-CONST NOUN-DEF
-2.172162	<s> NOUN-CONST NOUN-POSSESSIVE
-2.172162	<s> NOUN-CONST NUMERAL
-0.8832557	<s> NOUN-CONST PROPERNAME
-1.330414	<s> NOUN-CONST PROPERNAME-DEF
-0.2218488	ADJECTIVE NOUN-CONST NOUN
-0.8417481	ADJECTIVE NOUN-CONST NOUN-DEF
-0.1427781	ADJECTIVE-DEF NOUN-CONST NOUN
-0.6192394	ADVERB NOUN-CONST NOUN
-0.30103	ADVERB NOUN-CONST NOUN-DEF
-1.256721	ADVERB NOUN-CONST PROPERNAME
-1.256721	ADVERB NOUN-CONST PROPERNAME-DEF
-0.4602489	CLN NOUN-CONST NOUN
-0.8417481	CLN NOUN-CONST NOUN-CONST
-0.8417481	CLN NOUN-CONST NOUN-DEF
-1.514552	CM NOUN-CONST MW
-0.4983106	CM NOUN-CONST NOUN
-0.7386427	CM NOUN-CONST NOUN-CONST
-0.5688916	CM NOUN-CONST NOUN-DEF
-1.942119	CM NOUN-CONST NUMERAL
-1.775525	CM NOUN-CONST PREFIX
-1.100371	CM NOUN-CONST PROPERNAME
-1.775525	CM NOUN-CONST PROPERNAME-DEF
-1.942119	CM NOUN-CONST QUOT
-1.716809	CONJUNCTION NOUN-CONST MW
-0.5740313	CONJUNCTION NOUN-CONST NOUN
-1.079327	CONJUNCTION NOUN-CONST NOUN-CONST
-0.3435823	CONJUNCTION NOUN-CONST NOUN-DEF
-1.079327	CONJUNCTION NOUN-CONST PROPERNAME
-1.716809	CONJUNCTION NOUN-CONST PROPERNAME-DEF
-0.3679768	COPULA NOUN-CONST NOUN
-1.219223	COPULA NOUN-CONST NOUN-CONST
-0.39794	COPULA NOUN-CONST NOUN-DEF
-1.385816	COPULA NOUN-CONST PROPERNAME
-0.5407181	DASH NOUN-CONST NOUN-CONST
-0.3741247	DASH NOUN-CONST NOUN-DEF
-0.2456588	EXISTENTIAL NOUN-CONST NOUN
-0.8831408	EXISTENTIAL NOUN-CONST NOUN-DEF
-0.04575749	INTERROGATIVE NOUN-CONST NOUN-DEF
-0.2592791	LRB NOUN-CONST NOUN
-1.454532	MW NOUN-CONST MW
-0.81705	MW NOUN-CONST NOUN
-1.073033	MW NOUN-CONST NOUN-CONST
-0.3823349	MW NOUN-CONST NOUN-DEF
-0.81705	MW NOUN-CONST PROPERNAME
-1.298404	NOUN NOUN-CONST DASH
-1.298404	NOUN NOUN-CONST MW
-0.4191293	NOUN NOUN-CONST NOUN
-0.8275154	NOUN NOUN-CONST NOUN-DEF
-1.464997	NOUN NOUN-CONST NOUN-POSSESSIVE
-1.03743	NOUN NOUN-CONST NUMERAL
-1.03743	NOUN NOUN-CONST PROPERNAME
-2.366793	NOUN-CONST NOUN-CONST ADJECTIVE
-1.939226	NOUN-CONST NOUN-CONST DASH
-1.269772	NOUN-CONST NOUN-CONST MW
-0.8007689	NOUN-CONST NOUN-CONST NOUN
-1.093681	NOUN-CONST NOUN-CONST NOUN-CONST
-0.2920487	NOUN-CONST NOUN-CONST NOUN-DEF
-2.2002	NOUN-CONST NOUN-CONST NUMERAL
-1.746894	NOUN-CONST NOUN-CONST PREFIX
-1.006531	NOUN-CONST NOUN-CONST PROPERNAME
-1.525045	NOUN-CONST NOUN-CONST PROPERNAME-DEF
-1.985294	NOUN-CONST NOUN-CONST QUOT
-0.6643689	NOUN-DEF NOUN-CONST NOUN
-0.618301	NOUN-DEF NOUN-CONST NOUN-DEF
-0.618301	NOUN-DEF NOUN-CONST PROPERNAME
-0.5407181	NOUN-POSSESSIVE NOUN-CONST NOUN
-1.231457	NUMERAL NOUN-CONST MW
-0.1760913	NUMERAL NOUN-CONST NOUN
-0.9704835	NUMERAL NOUN-CONST NOUN-DEF
-0.8417481	PARTICIPLE NOUN-CONST DASH
-0.6751547	PARTICIPLE NOUN-CONST NOUN
-0.6751547	PARTICIPLE NOUN-CONST NOUN-CONST
-2.369525	PREFIX NOUN-CONST ADJECTIVE
-1.917227	PREFIX NOUN-CONST DASH
-1.431673	PREFIX NOUN-CONST MW
-0.679329	PREFIX NOUN-CONST NOUN
-0.995388	PREFIX NOUN-CONST NOUN-CONST
-0.365921	PREFIX NOUN-CONST NOUN-DEF
-1.448706	PREFIX NOUN-CONST NOUN-POSSESSIVE
-1.545616	PREFIX NOUN-CONST NUMERAL
-2.989424	PREFIX NOUN-CONST PARTICIPLE-DEF
-2.001548	PREFIX NOUN-CONST PREFIX
-2.822831	PREFIX NOUN-CONST PRONOUN
-1.030405	PREFIX NOUN-CONST PROPERNAME
-1.732703	PREFIX NOUN-CONST PROPERNAME-DEF
-2.822831	PREFIX NOUN-CONST QUANTIFIER
-2.033733	PREFIX NOUN-CONST QUOT
-2.989424	PREFIX NOUN-CONST TITLE
-2.989424	PREFIX NOUN-CONST WPREFIX
-2.660634	PREPOSITION NOUN-CONST ADJECTIVE
-1.915795	PREPOSITION NOUN-CONST DASH
-1.540132	PREPOSITION NOUN-CONST MW
-0.765807	PREPOSITION NOUN-CONST NOUN
-1.012705	PREPOSITION NOUN-CONST NOUN-CONST
-0.3247308	PREPOSITION NOUN-CONST NOUN-DEF
-1.438674	PREPOSITION NOUN-CONST NOUN-POSSESSIVE
-1.739704	PREPOSITION NOUN-CONST NUMERAL
-2.660634	PREPOSITION NOUN-CONST PARTICIPLE-DEF
-1.915795	PREPOSITION NOUN-CONST PREFIX
-0.9928106	PREPOSITION NOUN-CONST PROPERNAME
-1.588436	PREPOSITION NOUN-CONST PROPERNAME-DEF
-2.040734	PREPOSITION NOUN-CONST QUOT
-0.30103	PRONOUN NOUN-CONST NOUN
-0.6694535	PRONOUN NOUN-CONST NOUN-DEF
-1.097021	PRONOUN NOUN-CONST PROPERNAME
-0.9878761	PROPERNAME NOUN-CONST DASH
-0.9878761	PROPERNAME NOUN-CONST NOUN
-0.8212827	PROPERNAME NOUN-CONST NOUN-CONST
-0.9878761	PROPERNAME NOUN-CONST PREFIX
-0.6063769	PROPERNAME NOUN-CONST PROPERNAME
-0.5166298	QUANTIFIER NOUN-CONST NOUN
-1.504506	QUANTIFIER NOUN-CONST NOUN-CONST
-0.2648178	QUANTIFIER NOUN-CONST NOUN-DEF
-1.504506	QUANTIFIER NOUN-CONST NOUN-POSSESSIVE
-1.504506	QUANTIFIER NOUN-CONST PROPERNAME
-0.7690079	QUOT NOUN-CONST NOUN
-1.086279	QUOT NOUN-CONST NOUN-CONST
-0.3296752	QUOT NOUN-CONST NOUN-DEF
-0.7178553	QUOT NOUN-CONST PROPERNAME
-1.513846	QUOT NOUN-CONST PROPERNAME-DEF
-0.3741247	RRB NOUN-CONST NOUN
